digraph Tree {
node [shape=box, style="filled, rounded", color="black", fontname=helvetica] ;
edge [fontname=helvetica] ;
0 [label=<new_frame &le; 0.5<br/>gini = 0.4973<br/>samples = 34921<br/>value = [16169, 18752]<br/>class = non-tracking>, fillcolor="#399de523"] ;
1 [label=<expire_time &le; 0.5<br/>gini = 0.4559<br/>samples = 15661<br/>value = [10156, 5505]<br/>class = tracking>, fillcolor="#e5813975"] ;
0 -> 1 [labeldistance=2.5, labelangle=45, headlabel="True"] ;
2 [label=<Refer &le; 0.5<br/>gini = 0.4089<br/>samples = 8995<br/>value = [6417, 2578]<br/>class = tracking>, fillcolor="#e5813999"] ;
1 -> 2 ;
3 [label=<cookies_number &le; 4.5<br/>gini = 0.2227<br/>samples = 517<br/>value = [451, 66]<br/>class = tracking>, fillcolor="#e58139da"] ;
2 -> 3 ;
4 [label=<set-cookie &le; 0.5<br/>gini = 0.1972<br/>samples = 505<br/>value = [449, 56]<br/>class = tracking>, fillcolor="#e58139df"] ;
3 -> 4 ;
5 [label=<cache-control &le; 0.5<br/>gini = 0.173<br/>samples = 481<br/>value = [435, 46]<br/>class = tracking>, fillcolor="#e58139e4"] ;
4 -> 5 ;
6 [label=<cookies_number &le; 0.5<br/>gini = 0.2114<br/>samples = 383<br/>value = [337, 46]<br/>class = tracking>, fillcolor="#e58139dc"] ;
5 -> 6 ;
7 [label=<cookies &le; 0.5<br/>gini = 0.1927<br/>samples = 361<br/>value = [322, 39]<br/>class = tracking>, fillcolor="#e58139e0"] ;
6 -> 7 ;
8 [label=<parameter_number &le; 0.5<br/>gini = 0.2005<br/>samples = 345<br/>value = [306, 39]<br/>class = tracking>, fillcolor="#e58139de"] ;
7 -> 8 ;
9 [label=<type &le; 2.0<br/>gini = 0.1965<br/>samples = 335<br/>value = [298, 37]<br/>class = tracking>, fillcolor="#e58139df"] ;
8 -> 9 ;
10 [label=<type &le; 0.5<br/>gini = 0.2049<br/>samples = 302<br/>value = [267, 35]<br/>class = tracking>, fillcolor="#e58139de"] ;
9 -> 10 ;
11 [label=<ETag &le; 0.5<br/>gini = 0.197<br/>samples = 298<br/>value = [265, 33]<br/>class = tracking>, fillcolor="#e58139df"] ;
10 -> 11 ;
12 [label=<last-modified &le; 0.5<br/>gini = 0.1893<br/>samples = 274<br/>value = [245, 29]<br/>class = tracking>, fillcolor="#e58139e1"] ;
11 -> 12 ;
13 [label=<gini = 0.1905<br/>samples = 272<br/>value = [243, 29]<br/>class = tracking>, fillcolor="#e58139e1"] ;
12 -> 13 ;
14 [label=<gini = 0.0<br/>samples = 2<br/>value = [2, 0]<br/>class = tracking>, fillcolor="#e58139ff"] ;
12 -> 14 ;
15 [label=<gini = 0.2778<br/>samples = 24<br/>value = [20, 4]<br/>class = tracking>, fillcolor="#e58139cc"] ;
11 -> 15 ;
16 [label=<gini = 0.5<br/>samples = 4<br/>value = [2, 2]<br/>class = tracking>, fillcolor="#e5813900"] ;
10 -> 16 ;
17 [label=<gini = 0.1139<br/>samples = 33<br/>value = [31, 2]<br/>class = tracking>, fillcolor="#e58139ef"] ;
9 -> 17 ;
18 [label=<type &le; 1.5<br/>gini = 0.32<br/>samples = 10<br/>value = [8, 2]<br/>class = tracking>, fillcolor="#e58139bf"] ;
8 -> 18 ;
19 [label=<gini = 0.0<br/>samples = 8<br/>value = [8, 0]<br/>class = tracking>, fillcolor="#e58139ff"] ;
18 -> 19 ;
20 [label=<gini = 0.0<br/>samples = 2<br/>value = [0, 2]<br/>class = non-tracking>, fillcolor="#399de5ff"] ;
18 -> 20 ;
21 [label=<gini = 0.0<br/>samples = 16<br/>value = [16, 0]<br/>class = tracking>, fillcolor="#e58139ff"] ;
7 -> 21 ;
22 [label=<cookies_number &le; 2.5<br/>gini = 0.4339<br/>samples = 22<br/>value = [15, 7]<br/>class = tracking>, fillcolor="#e5813988"] ;
6 -> 22 ;
23 [label=<cookies_number &le; 1.5<br/>gini = 0.4861<br/>samples = 12<br/>value = [5, 7]<br/>class = non-tracking>, fillcolor="#399de549"] ;
22 -> 23 ;
24 [label=<ETag &le; 0.5<br/>gini = 0.4444<br/>samples = 3<br/>value = [2, 1]<br/>class = tracking>, fillcolor="#e581397f"] ;
23 -> 24 ;
25 [label=<gini = 0.0<br/>samples = 2<br/>value = [2, 0]<br/>class = tracking>, fillcolor="#e58139ff"] ;
24 -> 25 ;
26 [label=<gini = 0.0<br/>samples = 1<br/>value = [0, 1]<br/>class = non-tracking>, fillcolor="#399de5ff"] ;
24 -> 26 ;
27 [label=<gini = 0.4444<br/>samples = 9<br/>value = [3, 6]<br/>class = non-tracking>, fillcolor="#399de57f"] ;
23 -> 27 ;
28 [label=<gini = 0.0<br/>samples = 10<br/>value = [10, 0]<br/>class = tracking>, fillcolor="#e58139ff"] ;
22 -> 28 ;
29 [label=<gini = 0.0<br/>samples = 98<br/>value = [98, 0]<br/>class = tracking>, fillcolor="#e58139ff"] ;
5 -> 29 ;
30 [label=<cookies_number &le; 0.5<br/>gini = 0.4861<br/>samples = 24<br/>value = [14, 10]<br/>class = tracking>, fillcolor="#e5813949"] ;
4 -> 30 ;
31 [label=<cookies &le; 0.5<br/>gini = 0.5<br/>samples = 20<br/>value = [10, 10]<br/>class = tracking>, fillcolor="#e5813900"] ;
30 -> 31 ;
32 [label=<cache-control &le; 0.5<br/>gini = 0.4688<br/>samples = 16<br/>value = [10, 6]<br/>class = tracking>, fillcolor="#e5813966"] ;
31 -> 32 ;
33 [label=<gini = 0.5<br/>samples = 4<br/>value = [2, 2]<br/>class = tracking>, fillcolor="#e5813900"] ;
32 -> 33 ;
34 [label=<gini = 0.4444<br/>samples = 12<br/>value = [8, 4]<br/>class = tracking>, fillcolor="#e581397f"] ;
32 -> 34 ;
35 [label=<gini = 0.0<br/>samples = 4<br/>value = [0, 4]<br/>class = non-tracking>, fillcolor="#399de5ff"] ;
31 -> 35 ;
36 [label=<gini = 0.0<br/>samples = 4<br/>value = [4, 0]<br/>class = tracking>, fillcolor="#e58139ff"] ;
30 -> 36 ;
37 [label=<cookies_number &le; 6.0<br/>gini = 0.2778<br/>samples = 12<br/>value = [2, 10]<br/>class = non-tracking>, fillcolor="#399de5cc"] ;
3 -> 37 ;
38 [label=<gini = 0.0<br/>samples = 6<br/>value = [0, 6]<br/>class = non-tracking>, fillcolor="#399de5ff"] ;
37 -> 38 ;
39 [label=<cookies_number &le; 7.5<br/>gini = 0.4444<br/>samples = 6<br/>value = [2, 4]<br/>class = non-tracking>, fillcolor="#399de57f"] ;
37 -> 39 ;
40 [label=<gini = 0.0<br/>samples = 2<br/>value = [2, 0]<br/>class = tracking>, fillcolor="#e58139ff"] ;
39 -> 40 ;
41 [label=<gini = 0.0<br/>samples = 4<br/>value = [0, 4]<br/>class = non-tracking>, fillcolor="#399de5ff"] ;
39 -> 41 ;
42 [label=<cookies_change &le; 0.5<br/>gini = 0.417<br/>samples = 8478<br/>value = [5966, 2512]<br/>class = tracking>, fillcolor="#e5813994"] ;
2 -> 42 ;
43 [label=<ETag &le; 0.5<br/>gini = 0.3995<br/>samples = 87<br/>value = [24, 63]<br/>class = non-tracking>, fillcolor="#399de59e"] ;
42 -> 43 ;
44 [label=<last-modified &le; 0.5<br/>gini = 0.0634<br/>samples = 61<br/>value = [2, 59]<br/>class = non-tracking>, fillcolor="#399de5f6"] ;
43 -> 44 ;
45 [label=<cookies_number &le; 1.0<br/>gini = 0.0339<br/>samples = 58<br/>value = [1, 57]<br/>class = non-tracking>, fillcolor="#399de5fb"] ;
44 -> 45 ;
46 [label=<gini = 0.0<br/>samples = 33<br/>value = [0, 33]<br/>class = non-tracking>, fillcolor="#399de5ff"] ;
45 -> 46 ;
47 [label=<type &le; 1.0<br/>gini = 0.0768<br/>samples = 25<br/>value = [1, 24]<br/>class = non-tracking>, fillcolor="#399de5f4"] ;
45 -> 47 ;
48 [label=<gini = 0.1172<br/>samples = 16<br/>value = [1, 15]<br/>class = non-tracking>, fillcolor="#399de5ee"] ;
47 -> 48 ;
49 [label=<gini = 0.0<br/>samples = 9<br/>value = [0, 9]<br/>class = non-tracking>, fillcolor="#399de5ff"] ;
47 -> 49 ;
50 [label=<cookies_number &le; 1.0<br/>gini = 0.4444<br/>samples = 3<br/>value = [1, 2]<br/>class = non-tracking>, fillcolor="#399de57f"] ;
44 -> 50 ;
51 [label=<gini = 0.0<br/>samples = 2<br/>value = [0, 2]<br/>class = non-tracking>, fillcolor="#399de5ff"] ;
50 -> 51 ;
52 [label=<gini = 0.0<br/>samples = 1<br/>value = [1, 0]<br/>class = tracking>, fillcolor="#e58139ff"] ;
50 -> 52 ;
53 [label=<type &le; 2.5<br/>gini = 0.2604<br/>samples = 26<br/>value = [22, 4]<br/>class = tracking>, fillcolor="#e58139d1"] ;
43 -> 53 ;
54 [label=<parameter_number &le; 0.5<br/>gini = 0.1653<br/>samples = 22<br/>value = [20, 2]<br/>class = tracking>, fillcolor="#e58139e6"] ;
53 -> 54 ;
55 [label=<gini = 0.0<br/>samples = 6<br/>value = [6, 0]<br/>class = tracking>, fillcolor="#e58139ff"] ;
54 -> 55 ;
56 [label=<gini = 0.2188<br/>samples = 16<br/>value = [14, 2]<br/>class = tracking>, fillcolor="#e58139db"] ;
54 -> 56 ;
57 [label=<parameter_number &le; 0.5<br/>gini = 0.5<br/>samples = 4<br/>value = [2, 2]<br/>class = tracking>, fillcolor="#e5813900"] ;
53 -> 57 ;
58 [label=<gini = 0.0<br/>samples = 2<br/>value = [2, 0]<br/>class = tracking>, fillcolor="#e58139ff"] ;
57 -> 58 ;
59 [label=<gini = 0.0<br/>samples = 2<br/>value = [0, 2]<br/>class = non-tracking>, fillcolor="#399de5ff"] ;
57 -> 59 ;
60 [label=<cookies_number &le; 0.5<br/>gini = 0.4134<br/>samples = 8391<br/>value = [5942, 2449]<br/>class = tracking>, fillcolor="#e5813996"] ;
42 -> 60 ;
61 [label=<cache-control &le; 0.5<br/>gini = 0.4299<br/>samples = 5690<br/>value = [3910, 1780]<br/>class = tracking>, fillcolor="#e581398b"] ;
60 -> 61 ;
62 [label=<parameter_number &le; 0.5<br/>gini = 0.3484<br/>samples = 1362<br/>value = [1056, 306]<br/>class = tracking>, fillcolor="#e58139b5"] ;
61 -> 62 ;
63 [label=<type &le; 2.5<br/>gini = 0.2435<br/>samples = 437<br/>value = [375, 62]<br/>class = tracking>, fillcolor="#e58139d5"] ;
62 -> 63 ;
64 [label=<type &le; 1.5<br/>gini = 0.3031<br/>samples = 290<br/>value = [236, 54]<br/>class = tracking>, fillcolor="#e58139c5"] ;
63 -> 64 ;
65 [label=<cookies &le; 0.5<br/>gini = 0.0644<br/>samples = 90<br/>value = [87, 3]<br/>class = tracking>, fillcolor="#e58139f6"] ;
64 -> 65 ;
66 [label=<type &le; 0.5<br/>gini = 0.0235<br/>samples = 84<br/>value = [83, 1]<br/>class = tracking>, fillcolor="#e58139fc"] ;
65 -> 66 ;
67 [label=<ETag &le; 0.5<br/>gini = 0.1327<br/>samples = 14<br/>value = [13, 1]<br/>class = tracking>, fillcolor="#e58139eb"] ;
66 -> 67 ;
68 [label=<gini = 0.2449<br/>samples = 7<br/>value = [6, 1]<br/>class = tracking>, fillcolor="#e58139d4"] ;
67 -> 68 ;
69 [label=<gini = 0.0<br/>samples = 7<br/>value = [7, 0]<br/>class = tracking>, fillcolor="#e58139ff"] ;
67 -> 69 ;
70 [label=<gini = 0.0<br/>samples = 70<br/>value = [70, 0]<br/>class = tracking>, fillcolor="#e58139ff"] ;
66 -> 70 ;
71 [label=<type &le; 0.5<br/>gini = 0.4444<br/>samples = 6<br/>value = [4, 2]<br/>class = tracking>, fillcolor="#e581397f"] ;
65 -> 71 ;
72 [label=<gini = 0.0<br/>samples = 2<br/>value = [2, 0]<br/>class = tracking>, fillcolor="#e58139ff"] ;
71 -> 72 ;
73 [label=<gini = 0.5<br/>samples = 4<br/>value = [2, 2]<br/>class = tracking>, fillcolor="#e5813900"] ;
71 -> 73 ;
74 [label=<last-modified &le; 0.5<br/>gini = 0.38<br/>samples = 200<br/>value = [149, 51]<br/>class = tracking>, fillcolor="#e58139a8"] ;
64 -> 74 ;
75 [label=<cookies &le; 0.5<br/>gini = 0.3737<br/>samples = 197<br/>value = [148, 49]<br/>class = tracking>, fillcolor="#e58139ab"] ;
74 -> 75 ;
76 [label=<ETag &le; 0.5<br/>gini = 0.3922<br/>samples = 112<br/>value = [82, 30]<br/>class = tracking>, fillcolor="#e58139a2"] ;
75 -> 76 ;
77 [label=<gini = 0.3324<br/>samples = 19<br/>value = [15, 4]<br/>class = tracking>, fillcolor="#e58139bb"] ;
76 -> 77 ;
78 [label=<gini = 0.4028<br/>samples = 93<br/>value = [67, 26]<br/>class = tracking>, fillcolor="#e581399c"] ;
76 -> 78 ;
79 [label=<ETag &le; 0.5<br/>gini = 0.3471<br/>samples = 85<br/>value = [66, 19]<br/>class = tracking>, fillcolor="#e58139b6"] ;
75 -> 79 ;
80 [label=<gini = 0.0<br/>samples = 1<br/>value = [1, 0]<br/>class = tracking>, fillcolor="#e58139ff"] ;
79 -> 80 ;
81 [label=<gini = 0.3501<br/>samples = 84<br/>value = [65, 19]<br/>class = tracking>, fillcolor="#e58139b4"] ;
79 -> 81 ;
82 [label=<gini = 0.4444<br/>samples = 3<br/>value = [1, 2]<br/>class = non-tracking>, fillcolor="#399de57f"] ;
74 -> 82 ;
83 [label=<cookies &le; 0.5<br/>gini = 0.1029<br/>samples = 147<br/>value = [139, 8]<br/>class = tracking>, fillcolor="#e58139f0"] ;
63 -> 83 ;
84 [label=<ETag &le; 0.5<br/>gini = 0.0799<br/>samples = 72<br/>value = [69, 3]<br/>class = tracking>, fillcolor="#e58139f4"] ;
83 -> 84 ;
85 [label=<gini = 0.0689<br/>samples = 28<br/>value = [27, 1]<br/>class = tracking>, fillcolor="#e58139f6"] ;
84 -> 85 ;
86 [label=<gini = 0.0868<br/>samples = 44<br/>value = [42, 2]<br/>class = tracking>, fillcolor="#e58139f3"] ;
84 -> 86 ;
87 [label=<ETag &le; 0.5<br/>gini = 0.1244<br/>samples = 75<br/>value = [70, 5]<br/>class = tracking>, fillcolor="#e58139ed"] ;
83 -> 87 ;
88 [label=<gini = 0.32<br/>samples = 5<br/>value = [4, 1]<br/>class = tracking>, fillcolor="#e58139bf"] ;
87 -> 88 ;
89 [label=<gini = 0.1078<br/>samples = 70<br/>value = [66, 4]<br/>class = tracking>, fillcolor="#e58139f0"] ;
87 -> 89 ;
90 [label=<type &le; 1.0<br/>gini = 0.3884<br/>samples = 925<br/>value = [681, 244]<br/>class = tracking>, fillcolor="#e58139a4"] ;
62 -> 90 ;
91 [label=<gini = 0.0<br/>samples = 4<br/>value = [0, 4]<br/>class = non-tracking>, fillcolor="#399de5ff"] ;
90 -> 91 ;
92 [label=<cookies &le; 0.5<br/>gini = 0.3854<br/>samples = 921<br/>value = [681, 240]<br/>class = tracking>, fillcolor="#e58139a5"] ;
90 -> 92 ;
93 [label=<type &le; 2.5<br/>gini = 0.329<br/>samples = 342<br/>value = [271, 71]<br/>class = tracking>, fillcolor="#e58139bc"] ;
92 -> 93 ;
94 [label=<ETag &le; 0.5<br/>gini = 0.1913<br/>samples = 168<br/>value = [150, 18]<br/>class = tracking>, fillcolor="#e58139e0"] ;
93 -> 94 ;
95 [label=<gini = 0.1478<br/>samples = 112<br/>value = [103, 9]<br/>class = tracking>, fillcolor="#e58139e9"] ;
94 -> 95 ;
96 [label=<gini = 0.2698<br/>samples = 56<br/>value = [47, 9]<br/>class = tracking>, fillcolor="#e58139ce"] ;
94 -> 96 ;
97 [label=<ETag &le; 0.5<br/>gini = 0.4236<br/>samples = 174<br/>value = [121, 53]<br/>class = tracking>, fillcolor="#e581398f"] ;
93 -> 97 ;
98 [label=<gini = 0.4651<br/>samples = 106<br/>value = [67, 39]<br/>class = tracking>, fillcolor="#e581396b"] ;
97 -> 98 ;
99 [label=<gini = 0.327<br/>samples = 68<br/>value = [54, 14]<br/>class = tracking>, fillcolor="#e58139bd"] ;
97 -> 99 ;
100 [label=<type &le; 2.5<br/>gini = 0.4134<br/>samples = 579<br/>value = [410, 169]<br/>class = tracking>, fillcolor="#e5813996"] ;
92 -> 100 ;
101 [label=<ETag &le; 0.5<br/>gini = 0.4564<br/>samples = 349<br/>value = [226, 123]<br/>class = tracking>, fillcolor="#e5813974"] ;
100 -> 101 ;
102 [label=<gini = 0.4628<br/>samples = 44<br/>value = [28, 16]<br/>class = tracking>, fillcolor="#e581396d"] ;
101 -> 102 ;
103 [label=<gini = 0.4555<br/>samples = 305<br/>value = [198, 107]<br/>class = tracking>, fillcolor="#e5813975"] ;
101 -> 103 ;
104 [label=<ETag &le; 0.5<br/>gini = 0.32<br/>samples = 230<br/>value = [184, 46]<br/>class = tracking>, fillcolor="#e58139bf"] ;
100 -> 104 ;
105 [label=<gini = 0.2019<br/>samples = 79<br/>value = [70, 9]<br/>class = tracking>, fillcolor="#e58139de"] ;
104 -> 105 ;
106 [label=<gini = 0.37<br/>samples = 151<br/>value = [114, 37]<br/>class = tracking>, fillcolor="#e58139ac"] ;
104 -> 106 ;
107 [label=<ETag &le; 0.5<br/>gini = 0.4492<br/>samples = 4328<br/>value = [2854, 1474]<br/>class = tracking>, fillcolor="#e581397b"] ;
61 -> 107 ;
108 [label=<cookies &le; 0.5<br/>gini = 0.4809<br/>samples = 1656<br/>value = [990, 666]<br/>class = tracking>, fillcolor="#e5813953"] ;
107 -> 108 ;
109 [label=<last-modified &le; 0.5<br/>gini = 0.4928<br/>samples = 652<br/>value = [287, 365]<br/>class = non-tracking>, fillcolor="#399de536"] ;
108 -> 109 ;
110 [label=<type &le; 2.5<br/>gini = 0.4638<br/>samples = 52<br/>value = [33, 19]<br/>class = tracking>, fillcolor="#e581396c"] ;
109 -> 110 ;
111 [label=<parameter_number &le; 0.5<br/>gini = 0.5<br/>samples = 30<br/>value = [15, 15]<br/>class = tracking>, fillcolor="#e5813900"] ;
110 -> 111 ;
112 [label=<set-cookie &le; 0.5<br/>gini = 0.4082<br/>samples = 7<br/>value = [5, 2]<br/>class = tracking>, fillcolor="#e5813999"] ;
111 -> 112 ;
113 [label=<gini = 0.5<br/>samples = 4<br/>value = [2, 2]<br/>class = tracking>, fillcolor="#e5813900"] ;
112 -> 113 ;
114 [label=<gini = 0.0<br/>samples = 3<br/>value = [3, 0]<br/>class = tracking>, fillcolor="#e58139ff"] ;
112 -> 114 ;
115 [label=<set-cookie &le; 0.5<br/>gini = 0.4915<br/>samples = 23<br/>value = [10, 13]<br/>class = non-tracking>, fillcolor="#399de53b"] ;
111 -> 115 ;
116 [label=<type &le; 1.0<br/>gini = 0.4989<br/>samples = 21<br/>value = [10, 11]<br/>class = non-tracking>, fillcolor="#399de517"] ;
115 -> 116 ;
117 [label=<gini = 0.0<br/>samples = 1<br/>value = [1, 0]<br/>class = tracking>, fillcolor="#e58139ff"] ;
116 -> 117 ;
118 [label=<gini = 0.495<br/>samples = 20<br/>value = [9, 11]<br/>class = non-tracking>, fillcolor="#399de52e"] ;
116 -> 118 ;
119 [label=<gini = 0.0<br/>samples = 2<br/>value = [0, 2]<br/>class = non-tracking>, fillcolor="#399de5ff"] ;
115 -> 119 ;
120 [label=<parameter_number &le; 0.5<br/>gini = 0.2975<br/>samples = 22<br/>value = [18, 4]<br/>class = tracking>, fillcolor="#e58139c6"] ;
110 -> 120 ;
121 [label=<gini = 0.2778<br/>samples = 12<br/>value = [10, 2]<br/>class = tracking>, fillcolor="#e58139cc"] ;
120 -> 121 ;
122 [label=<gini = 0.32<br/>samples = 10<br/>value = [8, 2]<br/>class = tracking>, fillcolor="#e58139bf"] ;
120 -> 122 ;
123 [label=<set-cookie &le; 0.5<br/>gini = 0.4882<br/>samples = 600<br/>value = [254, 346]<br/>class = non-tracking>, fillcolor="#399de544"] ;
109 -> 123 ;
124 [label=<type &le; 2.5<br/>gini = 0.4946<br/>samples = 540<br/>value = [242, 298]<br/>class = non-tracking>, fillcolor="#399de530"] ;
123 -> 124 ;
125 [label=<parameter_number &le; 0.5<br/>gini = 0.5<br/>samples = 215<br/>value = [108, 107]<br/>class = tracking>, fillcolor="#e5813902"] ;
124 -> 125 ;
126 [label=<type &le; 1.0<br/>gini = 0.4701<br/>samples = 45<br/>value = [17, 28]<br/>class = non-tracking>, fillcolor="#399de564"] ;
125 -> 126 ;
127 [label=<gini = 0.32<br/>samples = 5<br/>value = [4, 1]<br/>class = tracking>, fillcolor="#e58139bf"] ;
126 -> 127 ;
128 [label=<gini = 0.4387<br/>samples = 40<br/>value = [13, 27]<br/>class = non-tracking>, fillcolor="#399de584"] ;
126 -> 128 ;
129 [label=<type &le; 0.5<br/>gini = 0.4975<br/>samples = 170<br/>value = [91, 79]<br/>class = tracking>, fillcolor="#e5813922"] ;
125 -> 129 ;
130 [label=<gini = 0.3457<br/>samples = 9<br/>value = [2, 7]<br/>class = non-tracking>, fillcolor="#399de5b6"] ;
129 -> 130 ;
131 [label=<type &le; 1.5<br/>gini = 0.4944<br/>samples = 161<br/>value = [89, 72]<br/>class = tracking>, fillcolor="#e5813931"] ;
129 -> 131 ;
132 [label=<gini = 0.0<br/>samples = 1<br/>value = [1, 0]<br/>class = tracking>, fillcolor="#e58139ff"] ;
131 -> 132 ;
133 [label=<gini = 0.495<br/>samples = 160<br/>value = [88, 72]<br/>class = tracking>, fillcolor="#e581392e"] ;
131 -> 133 ;
134 [label=<parameter_number &le; 0.5<br/>gini = 0.4846<br/>samples = 325<br/>value = [134, 191]<br/>class = non-tracking>, fillcolor="#399de54c"] ;
124 -> 134 ;
135 [label=<gini = 0.2975<br/>samples = 22<br/>value = [18, 4]<br/>class = tracking>, fillcolor="#e58139c6"] ;
134 -> 135 ;
136 [label=<gini = 0.4725<br/>samples = 303<br/>value = [116, 187]<br/>class = non-tracking>, fillcolor="#399de561"] ;
134 -> 136 ;
137 [label=<type &le; 2.5<br/>gini = 0.32<br/>samples = 60<br/>value = [12, 48]<br/>class = non-tracking>, fillcolor="#399de5bf"] ;
123 -> 137 ;
138 [label=<parameter_number &le; 0.5<br/>gini = 0.2008<br/>samples = 53<br/>value = [6, 47]<br/>class = non-tracking>, fillcolor="#399de5de"] ;
137 -> 138 ;
139 [label=<gini = 0.0<br/>samples = 2<br/>value = [0, 2]<br/>class = non-tracking>, fillcolor="#399de5ff"] ;
138 -> 139 ;
140 [label=<gini = 0.2076<br/>samples = 51<br/>value = [6, 45]<br/>class = non-tracking>, fillcolor="#399de5dd"] ;
138 -> 140 ;
141 [label=<gini = 0.2449<br/>samples = 7<br/>value = [6, 1]<br/>class = tracking>, fillcolor="#e58139d4"] ;
137 -> 141 ;
142 [label=<last-modified &le; 0.5<br/>gini = 0.4198<br/>samples = 1004<br/>value = [703, 301]<br/>class = tracking>, fillcolor="#e5813992"] ;
108 -> 142 ;
143 [label=<type &le; 2.5<br/>gini = 0.421<br/>samples = 83<br/>value = [25, 58]<br/>class = non-tracking>, fillcolor="#399de591"] ;
142 -> 143 ;
144 [label=<set-cookie &le; 0.5<br/>gini = 0.3539<br/>samples = 74<br/>value = [17, 57]<br/>class = non-tracking>, fillcolor="#399de5b3"] ;
143 -> 144 ;
145 [label=<parameter_number &le; 0.5<br/>gini = 0.32<br/>samples = 60<br/>value = [12, 48]<br/>class = non-tracking>, fillcolor="#399de5bf"] ;
144 -> 145 ;
146 [label=<gini = 0.2188<br/>samples = 8<br/>value = [1, 7]<br/>class = non-tracking>, fillcolor="#399de5db"] ;
145 -> 146 ;
147 [label=<type &le; 1.0<br/>gini = 0.3336<br/>samples = 52<br/>value = [11, 41]<br/>class = non-tracking>, fillcolor="#399de5bb"] ;
145 -> 147 ;
148 [label=<gini = 0.375<br/>samples = 8<br/>value = [2, 6]<br/>class = non-tracking>, fillcolor="#399de5aa"] ;
147 -> 148 ;
149 [label=<gini = 0.3254<br/>samples = 44<br/>value = [9, 35]<br/>class = non-tracking>, fillcolor="#399de5bd"] ;
147 -> 149 ;
150 [label=<type &le; 1.0<br/>gini = 0.4592<br/>samples = 14<br/>value = [5, 9]<br/>class = non-tracking>, fillcolor="#399de571"] ;
144 -> 150 ;
151 [label=<gini = 0.0<br/>samples = 4<br/>value = [0, 4]<br/>class = non-tracking>, fillcolor="#399de5ff"] ;
150 -> 151 ;
152 [label=<gini = 0.5<br/>samples = 10<br/>value = [5, 5]<br/>class = tracking>, fillcolor="#e5813900"] ;
150 -> 152 ;
153 [label=<gini = 0.1975<br/>samples = 9<br/>value = [8, 1]<br/>class = tracking>, fillcolor="#e58139df"] ;
143 -> 153 ;
154 [label=<type &le; 1.5<br/>gini = 0.3885<br/>samples = 921<br/>value = [678, 243]<br/>class = tracking>, fillcolor="#e58139a4"] ;
142 -> 154 ;
155 [label=<parameter_number &le; 0.5<br/>gini = 0.2515<br/>samples = 61<br/>value = [52, 9]<br/>class = tracking>, fillcolor="#e58139d3"] ;
154 -> 155 ;
156 [label=<gini = 0.0<br/>samples = 13<br/>value = [13, 0]<br/>class = tracking>, fillcolor="#e58139ff"] ;
155 -> 156 ;
157 [label=<set-cookie &le; 0.5<br/>gini = 0.3047<br/>samples = 48<br/>value = [39, 9]<br/>class = tracking>, fillcolor="#e58139c4"] ;
155 -> 157 ;
158 [label=<gini = 0.2778<br/>samples = 42<br/>value = [35, 7]<br/>class = tracking>, fillcolor="#e58139cc"] ;
157 -> 158 ;
159 [label=<gini = 0.4444<br/>samples = 6<br/>value = [4, 2]<br/>class = tracking>, fillcolor="#e581397f"] ;
157 -> 159 ;
160 [label=<set-cookie &le; 0.5<br/>gini = 0.3961<br/>samples = 860<br/>value = [626, 234]<br/>class = tracking>, fillcolor="#e58139a0"] ;
154 -> 160 ;
161 [label=<type &le; 2.5<br/>gini = 0.3852<br/>samples = 622<br/>value = [460, 162]<br/>class = tracking>, fillcolor="#e58139a5"] ;
160 -> 161 ;
162 [label=<parameter_number &le; 0.5<br/>gini = 0.3343<br/>samples = 443<br/>value = [349, 94]<br/>class = tracking>, fillcolor="#e58139ba"] ;
161 -> 162 ;
163 [label=<gini = 0.48<br/>samples = 5<br/>value = [2, 3]<br/>class = non-tracking>, fillcolor="#399de555"] ;
162 -> 163 ;
164 [label=<gini = 0.3292<br/>samples = 438<br/>value = [347, 91]<br/>class = tracking>, fillcolor="#e58139bc"] ;
162 -> 164 ;
165 [label=<gini = 0.4711<br/>samples = 179<br/>value = [111, 68]<br/>class = tracking>, fillcolor="#e5813963"] ;
161 -> 165 ;
166 [label=<type &le; 2.5<br/>gini = 0.422<br/>samples = 238<br/>value = [166, 72]<br/>class = tracking>, fillcolor="#e5813990"] ;
160 -> 166 ;
167 [label=<parameter_number &le; 0.5<br/>gini = 0.4738<br/>samples = 179<br/>value = [110, 69]<br/>class = tracking>, fillcolor="#e581395f"] ;
166 -> 167 ;
168 [label=<gini = 0.375<br/>samples = 8<br/>value = [6, 2]<br/>class = tracking>, fillcolor="#e58139aa"] ;
167 -> 168 ;
169 [label=<gini = 0.4766<br/>samples = 171<br/>value = [104, 67]<br/>class = tracking>, fillcolor="#e581395b"] ;
167 -> 169 ;
170 [label=<parameter_number &le; 0.5<br/>gini = 0.0965<br/>samples = 59<br/>value = [56, 3]<br/>class = tracking>, fillcolor="#e58139f1"] ;
166 -> 170 ;
171 [label=<gini = 0.0<br/>samples = 15<br/>value = [15, 0]<br/>class = tracking>, fillcolor="#e58139ff"] ;
170 -> 171 ;
172 [label=<gini = 0.1271<br/>samples = 44<br/>value = [41, 3]<br/>class = tracking>, fillcolor="#e58139ec"] ;
170 -> 172 ;
173 [label=<parameter_number &le; 0.5<br/>gini = 0.4219<br/>samples = 2672<br/>value = [1864, 808]<br/>class = tracking>, fillcolor="#e5813990"] ;
107 -> 173 ;
174 [label=<type &le; 2.5<br/>gini = 0.487<br/>samples = 410<br/>value = [238, 172]<br/>class = tracking>, fillcolor="#e5813947"] ;
173 -> 174 ;
175 [label=<type &le; 1.5<br/>gini = 0.3914<br/>samples = 251<br/>value = [184, 67]<br/>class = tracking>, fillcolor="#e58139a2"] ;
174 -> 175 ;
176 [label=<last-modified &le; 0.5<br/>gini = 0.0907<br/>samples = 21<br/>value = [20, 1]<br/>class = tracking>, fillcolor="#e58139f2"] ;
175 -> 176 ;
177 [label=<cookies &le; 0.5<br/>gini = 0.1975<br/>samples = 9<br/>value = [8, 1]<br/>class = tracking>, fillcolor="#e58139df"] ;
176 -> 177 ;
178 [label=<gini = 0.0<br/>samples = 6<br/>value = [6, 0]<br/>class = tracking>, fillcolor="#e58139ff"] ;
177 -> 178 ;
179 [label=<type &le; 0.5<br/>gini = 0.4444<br/>samples = 3<br/>value = [2, 1]<br/>class = tracking>, fillcolor="#e581397f"] ;
177 -> 179 ;
180 [label=<gini = 0.0<br/>samples = 2<br/>value = [2, 0]<br/>class = tracking>, fillcolor="#e58139ff"] ;
179 -> 180 ;
181 [label=<gini = 0.0<br/>samples = 1<br/>value = [0, 1]<br/>class = non-tracking>, fillcolor="#399de5ff"] ;
179 -> 181 ;
182 [label=<gini = 0.0<br/>samples = 12<br/>value = [12, 0]<br/>class = tracking>, fillcolor="#e58139ff"] ;
176 -> 182 ;
183 [label=<last-modified &le; 0.5<br/>gini = 0.4092<br/>samples = 230<br/>value = [164, 66]<br/>class = tracking>, fillcolor="#e5813998"] ;
175 -> 183 ;
184 [label=<cookies &le; 0.5<br/>gini = 0.3599<br/>samples = 34<br/>value = [26, 8]<br/>class = tracking>, fillcolor="#e58139b1"] ;
183 -> 184 ;
185 [label=<gini = 0.0<br/>samples = 18<br/>value = [18, 0]<br/>class = tracking>, fillcolor="#e58139ff"] ;
184 -> 185 ;
186 [label=<gini = 0.5<br/>samples = 16<br/>value = [8, 8]<br/>class = tracking>, fillcolor="#e5813900"] ;
184 -> 186 ;
187 [label=<cookies &le; 0.5<br/>gini = 0.4167<br/>samples = 196<br/>value = [138, 58]<br/>class = tracking>, fillcolor="#e5813994"] ;
183 -> 187 ;
188 [label=<gini = 0.4898<br/>samples = 35<br/>value = [20, 15]<br/>class = tracking>, fillcolor="#e5813940"] ;
187 -> 188 ;
189 [label=<gini = 0.3915<br/>samples = 161<br/>value = [118, 43]<br/>class = tracking>, fillcolor="#e58139a2"] ;
187 -> 189 ;
190 [label=<cookies &le; 0.5<br/>gini = 0.4486<br/>samples = 159<br/>value = [54, 105]<br/>class = non-tracking>, fillcolor="#399de57c"] ;
174 -> 190 ;
191 [label=<last-modified &le; 0.5<br/>gini = 0.352<br/>samples = 136<br/>value = [31, 105]<br/>class = non-tracking>, fillcolor="#399de5b4"] ;
190 -> 191 ;
192 [label=<gini = 0.0<br/>samples = 9<br/>value = [9, 0]<br/>class = tracking>, fillcolor="#e58139ff"] ;
191 -> 192 ;
193 [label=<gini = 0.2864<br/>samples = 127<br/>value = [22, 105]<br/>class = non-tracking>, fillcolor="#399de5ca"] ;
191 -> 193 ;
194 [label=<gini = 0.0<br/>samples = 23<br/>value = [23, 0]<br/>class = tracking>, fillcolor="#e58139ff"] ;
190 -> 194 ;
195 [label=<cookies &le; 0.5<br/>gini = 0.4042<br/>samples = 2262<br/>value = [1626, 636]<br/>class = tracking>, fillcolor="#e581399b"] ;
173 -> 195 ;
196 [label=<type &le; 2.5<br/>gini = 0.2901<br/>samples = 784<br/>value = [646, 138]<br/>class = tracking>, fillcolor="#e58139c9"] ;
195 -> 196 ;
197 [label=<type &le; 1.5<br/>gini = 0.3163<br/>samples = 589<br/>value = [473, 116]<br/>class = tracking>, fillcolor="#e58139c0"] ;
196 -> 197 ;
198 [label=<gini = 0.0<br/>samples = 6<br/>value = [6, 0]<br/>class = tracking>, fillcolor="#e58139ff"] ;
197 -> 198 ;
199 [label=<set-cookie &le; 0.5<br/>gini = 0.3188<br/>samples = 583<br/>value = [467, 116]<br/>class = tracking>, fillcolor="#e58139c0"] ;
197 -> 199 ;
200 [label=<last-modified &le; 0.5<br/>gini = 0.3208<br/>samples = 578<br/>value = [462, 116]<br/>class = tracking>, fillcolor="#e58139bf"] ;
199 -> 200 ;
201 [label=<gini = 0.2778<br/>samples = 6<br/>value = [5, 1]<br/>class = tracking>, fillcolor="#e58139cc"] ;
200 -> 201 ;
202 [label=<gini = 0.3213<br/>samples = 572<br/>value = [457, 115]<br/>class = tracking>, fillcolor="#e58139bf"] ;
200 -> 202 ;
203 [label=<gini = 0.0<br/>samples = 5<br/>value = [5, 0]<br/>class = tracking>, fillcolor="#e58139ff"] ;
199 -> 203 ;
204 [label=<last-modified &le; 0.5<br/>gini = 0.2002<br/>samples = 195<br/>value = [173, 22]<br/>class = tracking>, fillcolor="#e58139df"] ;
196 -> 204 ;
205 [label=<gini = 0.0<br/>samples = 5<br/>value = [5, 0]<br/>class = tracking>, fillcolor="#e58139ff"] ;
204 -> 205 ;
206 [label=<gini = 0.2048<br/>samples = 190<br/>value = [168, 22]<br/>class = tracking>, fillcolor="#e58139de"] ;
204 -> 206 ;
207 [label=<type &le; 1.5<br/>gini = 0.4468<br/>samples = 1478<br/>value = [980, 498]<br/>class = tracking>, fillcolor="#e581397d"] ;
195 -> 207 ;
208 [label=<set-cookie &le; 0.5<br/>gini = 0.3488<br/>samples = 120<br/>value = [93, 27]<br/>class = tracking>, fillcolor="#e58139b5"] ;
207 -> 208 ;
209 [label=<last-modified &le; 0.5<br/>gini = 0.3704<br/>samples = 110<br/>value = [83, 27]<br/>class = tracking>, fillcolor="#e58139ac"] ;
208 -> 209 ;
210 [label=<gini = 0.0<br/>samples = 2<br/>value = [2, 0]<br/>class = tracking>, fillcolor="#e58139ff"] ;
209 -> 210 ;
211 [label=<gini = 0.375<br/>samples = 108<br/>value = [81, 27]<br/>class = tracking>, fillcolor="#e58139aa"] ;
209 -> 211 ;
212 [label=<gini = 0.0<br/>samples = 10<br/>value = [10, 0]<br/>class = tracking>, fillcolor="#e58139ff"] ;
208 -> 212 ;
213 [label=<type &le; 2.5<br/>gini = 0.4531<br/>samples = 1358<br/>value = [887, 471]<br/>class = tracking>, fillcolor="#e5813978"] ;
207 -> 213 ;
214 [label=<set-cookie &le; 0.5<br/>gini = 0.4633<br/>samples = 1119<br/>value = [711, 408]<br/>class = tracking>, fillcolor="#e581396d"] ;
213 -> 214 ;
215 [label=<last-modified &le; 0.5<br/>gini = 0.4815<br/>samples = 760<br/>value = [453, 307]<br/>class = tracking>, fillcolor="#e5813952"] ;
214 -> 215 ;
216 [label=<gini = 0.4983<br/>samples = 102<br/>value = [54, 48]<br/>class = tracking>, fillcolor="#e581391c"] ;
215 -> 216 ;
217 [label=<gini = 0.4774<br/>samples = 658<br/>value = [399, 259]<br/>class = tracking>, fillcolor="#e5813959"] ;
215 -> 217 ;
218 [label=<last-modified &le; 0.5<br/>gini = 0.4044<br/>samples = 359<br/>value = [258, 101]<br/>class = tracking>, fillcolor="#e581399b"] ;
214 -> 218 ;
219 [label=<gini = 0.375<br/>samples = 16<br/>value = [4, 12]<br/>class = non-tracking>, fillcolor="#399de5aa"] ;
218 -> 219 ;
220 [label=<gini = 0.3843<br/>samples = 343<br/>value = [254, 89]<br/>class = tracking>, fillcolor="#e58139a6"] ;
218 -> 220 ;
221 [label=<set-cookie &le; 0.5<br/>gini = 0.3882<br/>samples = 239<br/>value = [176, 63]<br/>class = tracking>, fillcolor="#e58139a4"] ;
213 -> 221 ;
222 [label=<last-modified &le; 0.5<br/>gini = 0.3367<br/>samples = 196<br/>value = [154, 42]<br/>class = tracking>, fillcolor="#e58139b9"] ;
221 -> 222 ;
223 [label=<gini = 0.1551<br/>samples = 59<br/>value = [54, 5]<br/>class = tracking>, fillcolor="#e58139e7"] ;
222 -> 223 ;
224 [label=<gini = 0.3943<br/>samples = 137<br/>value = [100, 37]<br/>class = tracking>, fillcolor="#e58139a1"] ;
222 -> 224 ;
225 [label=<last-modified &le; 0.5<br/>gini = 0.4997<br/>samples = 43<br/>value = [22, 21]<br/>class = tracking>, fillcolor="#e581390c"] ;
221 -> 225 ;
226 [label=<gini = 0.0<br/>samples = 12<br/>value = [0, 12]<br/>class = non-tracking>, fillcolor="#399de5ff"] ;
225 -> 226 ;
227 [label=<gini = 0.4121<br/>samples = 31<br/>value = [22, 9]<br/>class = tracking>, fillcolor="#e5813997"] ;
225 -> 227 ;
228 [label=<last-modified &le; 0.5<br/>gini = 0.3727<br/>samples = 2701<br/>value = [2032, 669]<br/>class = tracking>, fillcolor="#e58139ab"] ;
60 -> 228 ;
229 [label=<ETag &le; 0.5<br/>gini = 0.4694<br/>samples = 287<br/>value = [179, 108]<br/>class = tracking>, fillcolor="#e5813965"] ;
228 -> 229 ;
230 [label=<parameter_number &le; 0.5<br/>gini = 0.3851<br/>samples = 73<br/>value = [19, 54]<br/>class = non-tracking>, fillcolor="#399de5a5"] ;
229 -> 230 ;
231 [label=<type &le; 2.5<br/>gini = 0.32<br/>samples = 10<br/>value = [8, 2]<br/>class = tracking>, fillcolor="#e58139bf"] ;
230 -> 231 ;
232 [label=<gini = 0.48<br/>samples = 5<br/>value = [3, 2]<br/>class = tracking>, fillcolor="#e5813955"] ;
231 -> 232 ;
233 [label=<gini = 0.0<br/>samples = 5<br/>value = [5, 0]<br/>class = tracking>, fillcolor="#e58139ff"] ;
231 -> 233 ;
234 [label=<cookies_number &le; 1.5<br/>gini = 0.2882<br/>samples = 63<br/>value = [11, 52]<br/>class = non-tracking>, fillcolor="#399de5c9"] ;
230 -> 234 ;
235 [label=<type &le; 2.5<br/>gini = 0.4444<br/>samples = 12<br/>value = [4, 8]<br/>class = non-tracking>, fillcolor="#399de57f"] ;
234 -> 235 ;
236 [label=<gini = 0.0<br/>samples = 2<br/>value = [0, 2]<br/>class = non-tracking>, fillcolor="#399de5ff"] ;
235 -> 236 ;
237 [label=<gini = 0.48<br/>samples = 10<br/>value = [4, 6]<br/>class = non-tracking>, fillcolor="#399de555"] ;
235 -> 237 ;
238 [label=<type &le; 2.5<br/>gini = 0.2368<br/>samples = 51<br/>value = [7, 44]<br/>class = non-tracking>, fillcolor="#399de5d6"] ;
234 -> 238 ;
239 [label=<type &le; 1.0<br/>gini = 0.3496<br/>samples = 31<br/>value = [7, 24]<br/>class = non-tracking>, fillcolor="#399de5b5"] ;
238 -> 239 ;
240 [label=<gini = 0.4444<br/>samples = 3<br/>value = [1, 2]<br/>class = non-tracking>, fillcolor="#399de57f"] ;
239 -> 240 ;
241 [label=<gini = 0.3367<br/>samples = 28<br/>value = [6, 22]<br/>class = non-tracking>, fillcolor="#399de5b9"] ;
239 -> 241 ;
242 [label=<gini = 0.0<br/>samples = 20<br/>value = [0, 20]<br/>class = non-tracking>, fillcolor="#399de5ff"] ;
238 -> 242 ;
243 [label=<cookies_number &le; 2.5<br/>gini = 0.3773<br/>samples = 214<br/>value = [160, 54]<br/>class = tracking>, fillcolor="#e58139a9"] ;
229 -> 243 ;
244 [label=<cookies_number &le; 1.5<br/>gini = 0.3408<br/>samples = 202<br/>value = [158, 44]<br/>class = tracking>, fillcolor="#e58139b8"] ;
243 -> 244 ;
245 [label=<parameter_number &le; 0.5<br/>gini = 0.3546<br/>samples = 178<br/>value = [137, 41]<br/>class = tracking>, fillcolor="#e58139b3"] ;
244 -> 245 ;
246 [label=<cache-control &le; 0.5<br/>gini = 0.2854<br/>samples = 58<br/>value = [48, 10]<br/>class = tracking>, fillcolor="#e58139ca"] ;
245 -> 246 ;
247 [label=<type &le; 2.5<br/>gini = 0.1748<br/>samples = 31<br/>value = [28, 3]<br/>class = tracking>, fillcolor="#e58139e4"] ;
246 -> 247 ;
248 [label=<gini = 0.1244<br/>samples = 15<br/>value = [14, 1]<br/>class = tracking>, fillcolor="#e58139ed"] ;
247 -> 248 ;
249 [label=<gini = 0.2188<br/>samples = 16<br/>value = [14, 2]<br/>class = tracking>, fillcolor="#e58139db"] ;
247 -> 249 ;
250 [label=<gini = 0.3841<br/>samples = 27<br/>value = [20, 7]<br/>class = tracking>, fillcolor="#e58139a6"] ;
246 -> 250 ;
251 [label=<type &le; 1.5<br/>gini = 0.3832<br/>samples = 120<br/>value = [89, 31]<br/>class = tracking>, fillcolor="#e58139a6"] ;
245 -> 251 ;
252 [label=<gini = 0.0<br/>samples = 1<br/>value = [1, 0]<br/>class = tracking>, fillcolor="#e58139ff"] ;
251 -> 252 ;
253 [label=<type &le; 2.5<br/>gini = 0.3853<br/>samples = 119<br/>value = [88, 31]<br/>class = tracking>, fillcolor="#e58139a5"] ;
251 -> 253 ;
254 [label=<cache-control &le; 0.5<br/>gini = 0.3991<br/>samples = 69<br/>value = [50, 19]<br/>class = tracking>, fillcolor="#e581399e"] ;
253 -> 254 ;
255 [label=<gini = 0.3835<br/>samples = 58<br/>value = [43, 15]<br/>class = tracking>, fillcolor="#e58139a6"] ;
254 -> 255 ;
256 [label=<gini = 0.4628<br/>samples = 11<br/>value = [7, 4]<br/>class = tracking>, fillcolor="#e581396d"] ;
254 -> 256 ;
257 [label=<cache-control &le; 0.5<br/>gini = 0.3648<br/>samples = 50<br/>value = [38, 12]<br/>class = tracking>, fillcolor="#e58139ae"] ;
253 -> 257 ;
258 [label=<gini = 0.375<br/>samples = 48<br/>value = [36, 12]<br/>class = tracking>, fillcolor="#e58139aa"] ;
257 -> 258 ;
259 [label=<gini = 0.0<br/>samples = 2<br/>value = [2, 0]<br/>class = tracking>, fillcolor="#e58139ff"] ;
257 -> 259 ;
260 [label=<type &le; 2.5<br/>gini = 0.2188<br/>samples = 24<br/>value = [21, 3]<br/>class = tracking>, fillcolor="#e58139db"] ;
244 -> 260 ;
261 [label=<cache-control &le; 0.5<br/>gini = 0.3367<br/>samples = 14<br/>value = [11, 3]<br/>class = tracking>, fillcolor="#e58139b9"] ;
260 -> 261 ;
262 [label=<gini = 0.4444<br/>samples = 3<br/>value = [2, 1]<br/>class = tracking>, fillcolor="#e581397f"] ;
261 -> 262 ;
263 [label=<gini = 0.2975<br/>samples = 11<br/>value = [9, 2]<br/>class = tracking>, fillcolor="#e58139c6"] ;
261 -> 263 ;
264 [label=<gini = 0.0<br/>samples = 10<br/>value = [10, 0]<br/>class = tracking>, fillcolor="#e58139ff"] ;
260 -> 264 ;
265 [label=<parameter_number &le; 0.5<br/>gini = 0.2778<br/>samples = 12<br/>value = [2, 10]<br/>class = non-tracking>, fillcolor="#399de5cc"] ;
243 -> 265 ;
266 [label=<gini = 0.0<br/>samples = 9<br/>value = [0, 9]<br/>class = non-tracking>, fillcolor="#399de5ff"] ;
265 -> 266 ;
267 [label=<gini = 0.4444<br/>samples = 3<br/>value = [2, 1]<br/>class = tracking>, fillcolor="#e581397f"] ;
265 -> 267 ;
268 [label=<set-cookie &le; 0.5<br/>gini = 0.3568<br/>samples = 2414<br/>value = [1853, 561]<br/>class = tracking>, fillcolor="#e58139b2"] ;
228 -> 268 ;
269 [label=<parameter_number &le; 0.5<br/>gini = 0.3151<br/>samples = 1567<br/>value = [1260, 307]<br/>class = tracking>, fillcolor="#e58139c1"] ;
268 -> 269 ;
270 [label=<cookies_number &le; 2.5<br/>gini = 0.2149<br/>samples = 294<br/>value = [258, 36]<br/>class = tracking>, fillcolor="#e58139db"] ;
269 -> 270 ;
271 [label=<cookies_number &le; 1.5<br/>gini = 0.1364<br/>samples = 231<br/>value = [214, 17]<br/>class = tracking>, fillcolor="#e58139eb"] ;
270 -> 271 ;
272 [label=<ETag &le; 0.5<br/>gini = 0.1889<br/>samples = 161<br/>value = [144, 17]<br/>class = tracking>, fillcolor="#e58139e1"] ;
271 -> 272 ;
273 [label=<type &le; 2.5<br/>gini = 0.4444<br/>samples = 6<br/>value = [4, 2]<br/>class = tracking>, fillcolor="#e581397f"] ;
272 -> 273 ;
274 [label=<gini = 0.48<br/>samples = 5<br/>value = [3, 2]<br/>class = tracking>, fillcolor="#e5813955"] ;
273 -> 274 ;
275 [label=<gini = 0.0<br/>samples = 1<br/>value = [1, 0]<br/>class = tracking>, fillcolor="#e58139ff"] ;
273 -> 275 ;
276 [label=<type &le; 2.5<br/>gini = 0.1748<br/>samples = 155<br/>value = [140, 15]<br/>class = tracking>, fillcolor="#e58139e4"] ;
272 -> 276 ;
277 [label=<gini = 0.2166<br/>samples = 89<br/>value = [78, 11]<br/>class = tracking>, fillcolor="#e58139db"] ;
276 -> 277 ;
278 [label=<gini = 0.1139<br/>samples = 66<br/>value = [62, 4]<br/>class = tracking>, fillcolor="#e58139ef"] ;
276 -> 278 ;
279 [label=<gini = 0.0<br/>samples = 70<br/>value = [70, 0]<br/>class = tracking>, fillcolor="#e58139ff"] ;
271 -> 279 ;
280 [label=<cookies_number &le; 3.5<br/>gini = 0.4213<br/>samples = 63<br/>value = [44, 19]<br/>class = tracking>, fillcolor="#e5813991"] ;
270 -> 280 ;
281 [label=<gini = 0.0<br/>samples = 2<br/>value = [0, 2]<br/>class = non-tracking>, fillcolor="#399de5ff"] ;
280 -> 281 ;
282 [label=<type &le; 2.5<br/>gini = 0.402<br/>samples = 61<br/>value = [44, 17]<br/>class = tracking>, fillcolor="#e581399c"] ;
280 -> 282 ;
283 [label=<type &le; 1.5<br/>gini = 0.4398<br/>samples = 49<br/>value = [33, 16]<br/>class = tracking>, fillcolor="#e5813983"] ;
282 -> 283 ;
284 [label=<gini = 0.0<br/>samples = 6<br/>value = [6, 0]<br/>class = tracking>, fillcolor="#e58139ff"] ;
283 -> 284 ;
285 [label=<ETag &le; 0.5<br/>gini = 0.4673<br/>samples = 43<br/>value = [27, 16]<br/>class = tracking>, fillcolor="#e5813968"] ;
283 -> 285 ;
286 [label=<gini = 0.4444<br/>samples = 3<br/>value = [1, 2]<br/>class = non-tracking>, fillcolor="#399de57f"] ;
285 -> 286 ;
287 [label=<gini = 0.455<br/>samples = 40<br/>value = [26, 14]<br/>class = tracking>, fillcolor="#e5813976"] ;
285 -> 287 ;
288 [label=<cookies_number &le; 4.5<br/>gini = 0.1528<br/>samples = 12<br/>value = [11, 1]<br/>class = tracking>, fillcolor="#e58139e8"] ;
282 -> 288 ;
289 [label=<gini = 0.0<br/>samples = 2<br/>value = [2, 0]<br/>class = tracking>, fillcolor="#e58139ff"] ;
288 -> 289 ;
290 [label=<gini = 0.18<br/>samples = 10<br/>value = [9, 1]<br/>class = tracking>, fillcolor="#e58139e3"] ;
288 -> 290 ;
291 [label=<cookies_number &le; 4.5<br/>gini = 0.3351<br/>samples = 1273<br/>value = [1002, 271]<br/>class = tracking>, fillcolor="#e58139ba"] ;
269 -> 291 ;
292 [label=<type &le; 2.5<br/>gini = 0.3626<br/>samples = 1097<br/>value = [836, 261]<br/>class = tracking>, fillcolor="#e58139af"] ;
291 -> 292 ;
293 [label=<ETag &le; 0.5<br/>gini = 0.318<br/>samples = 943<br/>value = [756, 187]<br/>class = tracking>, fillcolor="#e58139c0"] ;
292 -> 293 ;
294 [label=<cookies_number &le; 1.5<br/>gini = 0.1783<br/>samples = 374<br/>value = [337, 37]<br/>class = tracking>, fillcolor="#e58139e3"] ;
293 -> 294 ;
295 [label=<gini = 0.3394<br/>samples = 60<br/>value = [47, 13]<br/>class = tracking>, fillcolor="#e58139b8"] ;
294 -> 295 ;
296 [label=<type &le; 0.5<br/>gini = 0.1412<br/>samples = 314<br/>value = [290, 24]<br/>class = tracking>, fillcolor="#e58139ea"] ;
294 -> 296 ;
297 [label=<gini = 0.4444<br/>samples = 3<br/>value = [1, 2]<br/>class = non-tracking>, fillcolor="#399de57f"] ;
296 -> 297 ;
298 [label=<cookies_number &le; 2.5<br/>gini = 0.1315<br/>samples = 311<br/>value = [289, 22]<br/>class = tracking>, fillcolor="#e58139ec"] ;
296 -> 298 ;
299 [label=<gini = 0.1046<br/>samples = 271<br/>value = [256, 15]<br/>class = tracking>, fillcolor="#e58139f0"] ;
298 -> 299 ;
300 [label=<type &le; 1.5<br/>gini = 0.2887<br/>samples = 40<br/>value = [33, 7]<br/>class = tracking>, fillcolor="#e58139c9"] ;
298 -> 300 ;
301 [label=<gini = 0.0<br/>samples = 29<br/>value = [29, 0]<br/>class = tracking>, fillcolor="#e58139ff"] ;
300 -> 301 ;
302 [label=<cookies_number &le; 3.5<br/>gini = 0.4628<br/>samples = 11<br/>value = [4, 7]<br/>class = non-tracking>, fillcolor="#399de56d"] ;
300 -> 302 ;
303 [label=<gini = 0.32<br/>samples = 5<br/>value = [4, 1]<br/>class = tracking>, fillcolor="#e58139bf"] ;
302 -> 303 ;
304 [label=<gini = 0.0<br/>samples = 6<br/>value = [0, 6]<br/>class = non-tracking>, fillcolor="#399de5ff"] ;
302 -> 304 ;
305 [label=<cookies_number &le; 1.5<br/>gini = 0.3882<br/>samples = 569<br/>value = [419, 150]<br/>class = tracking>, fillcolor="#e58139a4"] ;
293 -> 305 ;
306 [label=<type &le; 1.5<br/>gini = 0.3691<br/>samples = 475<br/>value = [359, 116]<br/>class = tracking>, fillcolor="#e58139ad"] ;
305 -> 306 ;
307 [label=<gini = 0.0<br/>samples = 4<br/>value = [4, 0]<br/>class = tracking>, fillcolor="#e58139ff"] ;
306 -> 307 ;
308 [label=<gini = 0.3713<br/>samples = 471<br/>value = [355, 116]<br/>class = tracking>, fillcolor="#e58139ac"] ;
306 -> 308 ;
309 [label=<cookies_number &le; 2.5<br/>gini = 0.4617<br/>samples = 94<br/>value = [60, 34]<br/>class = tracking>, fillcolor="#e581396e"] ;
305 -> 309 ;
310 [label=<type &le; 1.5<br/>gini = 0.4567<br/>samples = 34<br/>value = [12, 22]<br/>class = non-tracking>, fillcolor="#399de574"] ;
309 -> 310 ;
311 [label=<gini = 0.4898<br/>samples = 7<br/>value = [4, 3]<br/>class = tracking>, fillcolor="#e5813940"] ;
310 -> 311 ;
312 [label=<gini = 0.417<br/>samples = 27<br/>value = [8, 19]<br/>class = non-tracking>, fillcolor="#399de594"] ;
310 -> 312 ;
313 [label=<cookies_number &le; 3.5<br/>gini = 0.32<br/>samples = 60<br/>value = [48, 12]<br/>class = tracking>, fillcolor="#e58139bf"] ;
309 -> 313 ;
314 [label=<gini = 0.0<br/>samples = 16<br/>value = [16, 0]<br/>class = tracking>, fillcolor="#e58139ff"] ;
313 -> 314 ;
315 [label=<type &le; 1.5<br/>gini = 0.3967<br/>samples = 44<br/>value = [32, 12]<br/>class = tracking>, fillcolor="#e581399f"] ;
313 -> 315 ;
316 [label=<gini = 0.2975<br/>samples = 33<br/>value = [27, 6]<br/>class = tracking>, fillcolor="#e58139c6"] ;
315 -> 316 ;
317 [label=<gini = 0.4959<br/>samples = 11<br/>value = [5, 6]<br/>class = non-tracking>, fillcolor="#399de52a"] ;
315 -> 317 ;
318 [label=<ETag &le; 0.5<br/>gini = 0.4992<br/>samples = 154<br/>value = [80, 74]<br/>class = tracking>, fillcolor="#e5813913"] ;
292 -> 318 ;
319 [label=<cookies_number &le; 1.5<br/>gini = 0.4726<br/>samples = 94<br/>value = [36, 58]<br/>class = non-tracking>, fillcolor="#399de561"] ;
318 -> 319 ;
320 [label=<gini = 0.495<br/>samples = 40<br/>value = [18, 22]<br/>class = non-tracking>, fillcolor="#399de52e"] ;
319 -> 320 ;
321 [label=<cookies_number &le; 3.0<br/>gini = 0.4444<br/>samples = 54<br/>value = [18, 36]<br/>class = non-tracking>, fillcolor="#399de57f"] ;
319 -> 321 ;
322 [label=<gini = 0.4527<br/>samples = 52<br/>value = [18, 34]<br/>class = non-tracking>, fillcolor="#399de578"] ;
321 -> 322 ;
323 [label=<gini = 0.0<br/>samples = 2<br/>value = [0, 2]<br/>class = non-tracking>, fillcolor="#399de5ff"] ;
321 -> 323 ;
324 [label=<cookies_number &le; 1.5<br/>gini = 0.3911<br/>samples = 60<br/>value = [44, 16]<br/>class = tracking>, fillcolor="#e58139a2"] ;
318 -> 324 ;
325 [label=<gini = 0.3792<br/>samples = 59<br/>value = [44, 15]<br/>class = tracking>, fillcolor="#e58139a8"] ;
324 -> 325 ;
326 [label=<gini = 0.0<br/>samples = 1<br/>value = [0, 1]<br/>class = non-tracking>, fillcolor="#399de5ff"] ;
324 -> 326 ;
327 [label=<type &le; 2.5<br/>gini = 0.1072<br/>samples = 176<br/>value = [166, 10]<br/>class = tracking>, fillcolor="#e58139f0"] ;
291 -> 327 ;
328 [label=<gini = 0.2604<br/>samples = 26<br/>value = [22, 4]<br/>class = tracking>, fillcolor="#e58139d1"] ;
327 -> 328 ;
329 [label=<gini = 0.0768<br/>samples = 150<br/>value = [144, 6]<br/>class = tracking>, fillcolor="#e58139f4"] ;
327 -> 329 ;
330 [label=<cookies_number &le; 2.5<br/>gini = 0.4199<br/>samples = 847<br/>value = [593, 254]<br/>class = tracking>, fillcolor="#e5813992"] ;
268 -> 330 ;
331 [label=<type &le; 1.5<br/>gini = 0.4329<br/>samples = 786<br/>value = [537, 249]<br/>class = tracking>, fillcolor="#e5813989"] ;
330 -> 331 ;
332 [label=<cookies_number &le; 1.5<br/>gini = 0.327<br/>samples = 102<br/>value = [81, 21]<br/>class = tracking>, fillcolor="#e58139bd"] ;
331 -> 332 ;
333 [label=<ETag &le; 0.5<br/>gini = 0.1954<br/>samples = 82<br/>value = [73, 9]<br/>class = tracking>, fillcolor="#e58139e0"] ;
332 -> 333 ;
334 [label=<gini = 0.4444<br/>samples = 21<br/>value = [14, 7]<br/>class = tracking>, fillcolor="#e581397f"] ;
333 -> 334 ;
335 [label=<gini = 0.0634<br/>samples = 61<br/>value = [59, 2]<br/>class = tracking>, fillcolor="#e58139f6"] ;
333 -> 335 ;
336 [label=<gini = 0.48<br/>samples = 20<br/>value = [8, 12]<br/>class = non-tracking>, fillcolor="#399de555"] ;
332 -> 336 ;
337 [label=<cookies_number &le; 1.5<br/>gini = 0.4444<br/>samples = 684<br/>value = [456, 228]<br/>class = tracking>, fillcolor="#e581397f"] ;
331 -> 337 ;
338 [label=<type &le; 2.5<br/>gini = 0.4552<br/>samples = 588<br/>value = [382, 206]<br/>class = tracking>, fillcolor="#e5813975"] ;
337 -> 338 ;
339 [label=<parameter_number &le; 0.5<br/>gini = 0.4499<br/>samples = 515<br/>value = [339, 176]<br/>class = tracking>, fillcolor="#e581397b"] ;
338 -> 339 ;
340 [label=<ETag &le; 0.5<br/>gini = 0.4027<br/>samples = 68<br/>value = [49, 19]<br/>class = tracking>, fillcolor="#e581399c"] ;
339 -> 340 ;
341 [label=<gini = 0.4824<br/>samples = 32<br/>value = [19, 13]<br/>class = tracking>, fillcolor="#e5813951"] ;
340 -> 341 ;
342 [label=<gini = 0.2778<br/>samples = 36<br/>value = [30, 6]<br/>class = tracking>, fillcolor="#e58139cc"] ;
340 -> 342 ;
343 [label=<ETag &le; 0.5<br/>gini = 0.4557<br/>samples = 447<br/>value = [290, 157]<br/>class = tracking>, fillcolor="#e5813975"] ;
339 -> 343 ;
344 [label=<gini = 0.4592<br/>samples = 112<br/>value = [72, 40]<br/>class = tracking>, fillcolor="#e5813971"] ;
343 -> 344 ;
345 [label=<gini = 0.4546<br/>samples = 335<br/>value = [218, 117]<br/>class = tracking>, fillcolor="#e5813976"] ;
343 -> 345 ;
346 [label=<parameter_number &le; 0.5<br/>gini = 0.4841<br/>samples = 73<br/>value = [43, 30]<br/>class = tracking>, fillcolor="#e581394d"] ;
338 -> 346 ;
347 [label=<gini = 0.4537<br/>samples = 23<br/>value = [8, 15]<br/>class = non-tracking>, fillcolor="#399de577"] ;
346 -> 347 ;
348 [label=<ETag &le; 0.5<br/>gini = 0.42<br/>samples = 50<br/>value = [35, 15]<br/>class = tracking>, fillcolor="#e5813992"] ;
346 -> 348 ;
349 [label=<gini = 0.2934<br/>samples = 28<br/>value = [23, 5]<br/>class = tracking>, fillcolor="#e58139c8"] ;
348 -> 349 ;
350 [label=<gini = 0.4959<br/>samples = 22<br/>value = [12, 10]<br/>class = tracking>, fillcolor="#e581392a"] ;
348 -> 350 ;
351 [label=<parameter_number &le; 0.5<br/>gini = 0.3533<br/>samples = 96<br/>value = [74, 22]<br/>class = tracking>, fillcolor="#e58139b3"] ;
337 -> 351 ;
352 [label=<gini = 0.0<br/>samples = 26<br/>value = [26, 0]<br/>class = tracking>, fillcolor="#e58139ff"] ;
351 -> 352 ;
353 [label=<ETag &le; 0.5<br/>gini = 0.431<br/>samples = 70<br/>value = [48, 22]<br/>class = tracking>, fillcolor="#e581398a"] ;
351 -> 353 ;
354 [label=<type &le; 2.5<br/>gini = 0.375<br/>samples = 28<br/>value = [21, 7]<br/>class = tracking>, fillcolor="#e58139aa"] ;
353 -> 354 ;
355 [label=<gini = 0.2188<br/>samples = 8<br/>value = [7, 1]<br/>class = tracking>, fillcolor="#e58139db"] ;
354 -> 355 ;
356 [label=<gini = 0.42<br/>samples = 20<br/>value = [14, 6]<br/>class = tracking>, fillcolor="#e5813992"] ;
354 -> 356 ;
357 [label=<type &le; 2.5<br/>gini = 0.4592<br/>samples = 42<br/>value = [27, 15]<br/>class = tracking>, fillcolor="#e5813971"] ;
353 -> 357 ;
358 [label=<gini = 0.4688<br/>samples = 40<br/>value = [25, 15]<br/>class = tracking>, fillcolor="#e5813966"] ;
357 -> 358 ;
359 [label=<gini = 0.0<br/>samples = 2<br/>value = [2, 0]<br/>class = tracking>, fillcolor="#e58139ff"] ;
357 -> 359 ;
360 [label=<gini = 0.1505<br/>samples = 61<br/>value = [56, 5]<br/>class = tracking>, fillcolor="#e58139e8"] ;
330 -> 360 ;
361 [label=<type &le; 1.5<br/>gini = 0.4926<br/>samples = 6666<br/>value = [3739, 2927]<br/>class = tracking>, fillcolor="#e5813937"] ;
1 -> 361 ;
362 [label=<set-cookie &le; 0.5<br/>gini = 0.483<br/>samples = 537<br/>value = [219, 318]<br/>class = non-tracking>, fillcolor="#399de54f"] ;
361 -> 362 ;
363 [label=<ETag &le; 0.5<br/>gini = 0.4669<br/>samples = 501<br/>value = [186, 315]<br/>class = non-tracking>, fillcolor="#399de568"] ;
362 -> 363 ;
364 [label=<last-modified &le; 0.5<br/>gini = 0.1572<br/>samples = 93<br/>value = [8, 85]<br/>class = non-tracking>, fillcolor="#399de5e7"] ;
363 -> 364 ;
365 [label=<gini = 0.0<br/>samples = 85<br/>value = [0, 85]<br/>class = non-tracking>, fillcolor="#399de5ff"] ;
364 -> 365 ;
366 [label=<gini = 0.0<br/>samples = 8<br/>value = [8, 0]<br/>class = tracking>, fillcolor="#e58139ff"] ;
364 -> 366 ;
367 [label=<last-modified &le; 0.5<br/>gini = 0.4919<br/>samples = 408<br/>value = [178, 230]<br/>class = non-tracking>, fillcolor="#399de53a"] ;
363 -> 367 ;
368 [label=<cache-control &le; 0.5<br/>gini = 0.2086<br/>samples = 93<br/>value = [82, 11]<br/>class = tracking>, fillcolor="#e58139dd"] ;
367 -> 368 ;
369 [label=<gini = 0.0<br/>samples = 43<br/>value = [43, 0]<br/>class = tracking>, fillcolor="#e58139ff"] ;
368 -> 369 ;
370 [label=<cookies &le; 0.5<br/>gini = 0.3432<br/>samples = 50<br/>value = [39, 11]<br/>class = tracking>, fillcolor="#e58139b7"] ;
368 -> 370 ;
371 [label=<gini = 0.0<br/>samples = 2<br/>value = [2, 0]<br/>class = tracking>, fillcolor="#e58139ff"] ;
370 -> 371 ;
372 [label=<parameter_number &le; 0.5<br/>gini = 0.3533<br/>samples = 48<br/>value = [37, 11]<br/>class = tracking>, fillcolor="#e58139b3"] ;
370 -> 372 ;
373 [label=<gini = 0.375<br/>samples = 36<br/>value = [27, 9]<br/>class = tracking>, fillcolor="#e58139aa"] ;
372 -> 373 ;
374 [label=<gini = 0.2778<br/>samples = 12<br/>value = [10, 2]<br/>class = tracking>, fillcolor="#e58139cc"] ;
372 -> 374 ;
375 [label=<cookies_number &le; 0.5<br/>gini = 0.4238<br/>samples = 315<br/>value = [96, 219]<br/>class = non-tracking>, fillcolor="#399de58f"] ;
367 -> 375 ;
376 [label=<parameter_number &le; 0.5<br/>gini = 0.3881<br/>samples = 296<br/>value = [78, 218]<br/>class = non-tracking>, fillcolor="#399de5a4"] ;
375 -> 376 ;
377 [label=<gini = 0.0<br/>samples = 2<br/>value = [0, 2]<br/>class = non-tracking>, fillcolor="#399de5ff"] ;
376 -> 377 ;
378 [label=<cookies &le; 0.5<br/>gini = 0.3898<br/>samples = 294<br/>value = [78, 216]<br/>class = non-tracking>, fillcolor="#399de5a3"] ;
376 -> 378 ;
379 [label=<gini = 0.3662<br/>samples = 29<br/>value = [7, 22]<br/>class = non-tracking>, fillcolor="#399de5ae"] ;
378 -> 379 ;
380 [label=<gini = 0.3923<br/>samples = 265<br/>value = [71, 194]<br/>class = non-tracking>, fillcolor="#399de5a2"] ;
378 -> 380 ;
381 [label=<cookies_number &le; 1.5<br/>gini = 0.0997<br/>samples = 19<br/>value = [18, 1]<br/>class = tracking>, fillcolor="#e58139f1"] ;
375 -> 381 ;
382 [label=<gini = 0.1653<br/>samples = 11<br/>value = [10, 1]<br/>class = tracking>, fillcolor="#e58139e6"] ;
381 -> 382 ;
383 [label=<gini = 0.0<br/>samples = 8<br/>value = [8, 0]<br/>class = tracking>, fillcolor="#e58139ff"] ;
381 -> 383 ;
384 [label=<ETag &le; 0.5<br/>gini = 0.1528<br/>samples = 36<br/>value = [33, 3]<br/>class = tracking>, fillcolor="#e58139e8"] ;
362 -> 384 ;
385 [label=<gini = 0.0<br/>samples = 13<br/>value = [13, 0]<br/>class = tracking>, fillcolor="#e58139ff"] ;
384 -> 385 ;
386 [label=<cookies_number &le; 0.5<br/>gini = 0.2268<br/>samples = 23<br/>value = [20, 3]<br/>class = tracking>, fillcolor="#e58139d9"] ;
384 -> 386 ;
387 [label=<gini = 0.2604<br/>samples = 13<br/>value = [11, 2]<br/>class = tracking>, fillcolor="#e58139d1"] ;
386 -> 387 ;
388 [label=<gini = 0.18<br/>samples = 10<br/>value = [9, 1]<br/>class = tracking>, fillcolor="#e58139e3"] ;
386 -> 388 ;
389 [label=<parameter_number &le; 0.5<br/>gini = 0.489<br/>samples = 6129<br/>value = [3520, 2609]<br/>class = tracking>, fillcolor="#e5813942"] ;
361 -> 389 ;
390 [label=<ETag &le; 0.5<br/>gini = 0.4968<br/>samples = 854<br/>value = [393, 461]<br/>class = non-tracking>, fillcolor="#399de526"] ;
389 -> 390 ;
391 [label=<cookies_number &le; 1.0<br/>gini = 0.2794<br/>samples = 137<br/>value = [23, 114]<br/>class = non-tracking>, fillcolor="#399de5cc"] ;
390 -> 391 ;
392 [label=<cookies &le; 0.5<br/>gini = 0.0517<br/>samples = 113<br/>value = [3, 110]<br/>class = non-tracking>, fillcolor="#399de5f8"] ;
391 -> 392 ;
393 [label=<gini = 0.0<br/>samples = 103<br/>value = [0, 103]<br/>class = non-tracking>, fillcolor="#399de5ff"] ;
392 -> 393 ;
394 [label=<cache-control &le; 0.5<br/>gini = 0.42<br/>samples = 10<br/>value = [3, 7]<br/>class = non-tracking>, fillcolor="#399de592"] ;
392 -> 394 ;
395 [label=<type &le; 2.5<br/>gini = 0.32<br/>samples = 5<br/>value = [1, 4]<br/>class = non-tracking>, fillcolor="#399de5bf"] ;
394 -> 395 ;
396 [label=<gini = 0.0<br/>samples = 2<br/>value = [0, 2]<br/>class = non-tracking>, fillcolor="#399de5ff"] ;
395 -> 396 ;
397 [label=<gini = 0.4444<br/>samples = 3<br/>value = [1, 2]<br/>class = non-tracking>, fillcolor="#399de57f"] ;
395 -> 397 ;
398 [label=<type &le; 2.5<br/>gini = 0.48<br/>samples = 5<br/>value = [2, 3]<br/>class = non-tracking>, fillcolor="#399de555"] ;
394 -> 398 ;
399 [label=<gini = 0.5<br/>samples = 4<br/>value = [2, 2]<br/>class = tracking>, fillcolor="#e5813900"] ;
398 -> 399 ;
400 [label=<gini = 0.0<br/>samples = 1<br/>value = [0, 1]<br/>class = non-tracking>, fillcolor="#399de5ff"] ;
398 -> 400 ;
401 [label=<cookies_number &le; 3.5<br/>gini = 0.2778<br/>samples = 24<br/>value = [20, 4]<br/>class = tracking>, fillcolor="#e58139cc"] ;
391 -> 401 ;
402 [label=<gini = 0.0<br/>samples = 18<br/>value = [18, 0]<br/>class = tracking>, fillcolor="#e58139ff"] ;
401 -> 402 ;
403 [label=<type &le; 2.5<br/>gini = 0.4444<br/>samples = 6<br/>value = [2, 4]<br/>class = non-tracking>, fillcolor="#399de57f"] ;
401 -> 403 ;
404 [label=<gini = 0.0<br/>samples = 4<br/>value = [0, 4]<br/>class = non-tracking>, fillcolor="#399de5ff"] ;
403 -> 404 ;
405 [label=<gini = 0.0<br/>samples = 2<br/>value = [2, 0]<br/>class = tracking>, fillcolor="#e58139ff"] ;
403 -> 405 ;
406 [label=<type &le; 2.5<br/>gini = 0.4995<br/>samples = 717<br/>value = [370, 347]<br/>class = tracking>, fillcolor="#e5813910"] ;
390 -> 406 ;
407 [label=<last-modified &le; 0.5<br/>gini = 0.4896<br/>samples = 535<br/>value = [229, 306]<br/>class = non-tracking>, fillcolor="#399de540"] ;
406 -> 407 ;
408 [label=<cookies &le; 0.5<br/>gini = 0.4989<br/>samples = 323<br/>value = [169, 154]<br/>class = tracking>, fillcolor="#e5813917"] ;
407 -> 408 ;
409 [label=<cache-control &le; 0.5<br/>gini = 0.2645<br/>samples = 51<br/>value = [43, 8]<br/>class = tracking>, fillcolor="#e58139d0"] ;
408 -> 409 ;
410 [label=<gini = 0.2149<br/>samples = 49<br/>value = [43, 6]<br/>class = tracking>, fillcolor="#e58139db"] ;
409 -> 410 ;
411 [label=<gini = 0.0<br/>samples = 2<br/>value = [0, 2]<br/>class = non-tracking>, fillcolor="#399de5ff"] ;
409 -> 411 ;
412 [label=<cache-control &le; 0.5<br/>gini = 0.4973<br/>samples = 272<br/>value = [126, 146]<br/>class = non-tracking>, fillcolor="#399de523"] ;
408 -> 412 ;
413 [label=<cookies_number &le; 1.5<br/>gini = 0.4878<br/>samples = 230<br/>value = [97, 133]<br/>class = non-tracking>, fillcolor="#399de545"] ;
412 -> 413 ;
414 [label=<cookies_number &le; 0.5<br/>gini = 0.4471<br/>samples = 163<br/>value = [55, 108]<br/>class = non-tracking>, fillcolor="#399de57d"] ;
413 -> 414 ;
415 [label=<gini = 0.4472<br/>samples = 160<br/>value = [54, 106]<br/>class = non-tracking>, fillcolor="#399de57d"] ;
414 -> 415 ;
416 [label=<gini = 0.4444<br/>samples = 3<br/>value = [1, 2]<br/>class = non-tracking>, fillcolor="#399de57f"] ;
414 -> 416 ;
417 [label=<cookies_number &le; 6.0<br/>gini = 0.4678<br/>samples = 67<br/>value = [42, 25]<br/>class = tracking>, fillcolor="#e5813967"] ;
413 -> 417 ;
418 [label=<cookies_number &le; 3.5<br/>gini = 0.2449<br/>samples = 21<br/>value = [18, 3]<br/>class = tracking>, fillcolor="#e58139d4"] ;
417 -> 418 ;
419 [label=<cookies_number &le; 2.5<br/>gini = 0.355<br/>samples = 13<br/>value = [10, 3]<br/>class = tracking>, fillcolor="#e58139b3"] ;
418 -> 419 ;
420 [label=<gini = 0.32<br/>samples = 10<br/>value = [8, 2]<br/>class = tracking>, fillcolor="#e58139bf"] ;
419 -> 420 ;
421 [label=<gini = 0.4444<br/>samples = 3<br/>value = [2, 1]<br/>class = tracking>, fillcolor="#e581397f"] ;
419 -> 421 ;
422 [label=<gini = 0.0<br/>samples = 8<br/>value = [8, 0]<br/>class = tracking>, fillcolor="#e58139ff"] ;
418 -> 422 ;
423 [label=<gini = 0.4991<br/>samples = 46<br/>value = [24, 22]<br/>class = tracking>, fillcolor="#e5813915"] ;
417 -> 423 ;
424 [label=<gini = 0.4274<br/>samples = 42<br/>value = [29, 13]<br/>class = tracking>, fillcolor="#e581398d"] ;
412 -> 424 ;
425 [label=<cookies_number &le; 0.5<br/>gini = 0.4058<br/>samples = 212<br/>value = [60, 152]<br/>class = non-tracking>, fillcolor="#399de59a"] ;
407 -> 425 ;
426 [label=<cookies &le; 0.5<br/>gini = 0.3003<br/>samples = 125<br/>value = [23, 102]<br/>class = non-tracking>, fillcolor="#399de5c5"] ;
425 -> 426 ;
427 [label=<gini = 0.3911<br/>samples = 15<br/>value = [4, 11]<br/>class = non-tracking>, fillcolor="#399de5a2"] ;
426 -> 427 ;
428 [label=<gini = 0.2858<br/>samples = 110<br/>value = [19, 91]<br/>class = non-tracking>, fillcolor="#399de5ca"] ;
426 -> 428 ;
429 [label=<cookies_number &le; 3.0<br/>gini = 0.4888<br/>samples = 87<br/>value = [37, 50]<br/>class = non-tracking>, fillcolor="#399de542"] ;
425 -> 429 ;
430 [label=<cookies_number &le; 1.5<br/>gini = 0.4916<br/>samples = 85<br/>value = [37, 48]<br/>class = non-tracking>, fillcolor="#399de53a"] ;
429 -> 430 ;
431 [label=<gini = 0.4821<br/>samples = 74<br/>value = [30, 44]<br/>class = non-tracking>, fillcolor="#399de551"] ;
430 -> 431 ;
432 [label=<gini = 0.4628<br/>samples = 11<br/>value = [7, 4]<br/>class = tracking>, fillcolor="#e581396d"] ;
430 -> 432 ;
433 [label=<gini = 0.0<br/>samples = 2<br/>value = [0, 2]<br/>class = non-tracking>, fillcolor="#399de5ff"] ;
429 -> 433 ;
434 [label=<cookies_number &le; 6.0<br/>gini = 0.3491<br/>samples = 182<br/>value = [141, 41]<br/>class = tracking>, fillcolor="#e58139b5"] ;
406 -> 434 ;
435 [label=<cookies_number &le; 0.5<br/>gini = 0.3066<br/>samples = 164<br/>value = [133, 31]<br/>class = tracking>, fillcolor="#e58139c4"] ;
434 -> 435 ;
436 [label=<cookies &le; 0.5<br/>gini = 0.375<br/>samples = 120<br/>value = [90, 30]<br/>class = tracking>, fillcolor="#e58139aa"] ;
435 -> 436 ;
437 [label=<gini = 0.0<br/>samples = 32<br/>value = [32, 0]<br/>class = tracking>, fillcolor="#e58139ff"] ;
436 -> 437 ;
438 [label=<last-modified &le; 0.5<br/>gini = 0.4494<br/>samples = 88<br/>value = [58, 30]<br/>class = tracking>, fillcolor="#e581397b"] ;
436 -> 438 ;
439 [label=<cache-control &le; 0.5<br/>gini = 0.4303<br/>samples = 83<br/>value = [57, 26]<br/>class = tracking>, fillcolor="#e581398b"] ;
438 -> 439 ;
440 [label=<gini = 0.4614<br/>samples = 72<br/>value = [46, 26]<br/>class = tracking>, fillcolor="#e581396f"] ;
439 -> 440 ;
441 [label=<gini = 0.0<br/>samples = 11<br/>value = [11, 0]<br/>class = tracking>, fillcolor="#e58139ff"] ;
439 -> 441 ;
442 [label=<gini = 0.32<br/>samples = 5<br/>value = [1, 4]<br/>class = non-tracking>, fillcolor="#399de5bf"] ;
438 -> 442 ;
443 [label=<cache-control &le; 0.5<br/>gini = 0.0444<br/>samples = 44<br/>value = [43, 1]<br/>class = tracking>, fillcolor="#e58139f9"] ;
435 -> 443 ;
444 [label=<gini = 0.0<br/>samples = 25<br/>value = [25, 0]<br/>class = tracking>, fillcolor="#e58139ff"] ;
443 -> 444 ;
445 [label=<cookies_number &le; 1.5<br/>gini = 0.0997<br/>samples = 19<br/>value = [18, 1]<br/>class = tracking>, fillcolor="#e58139f1"] ;
443 -> 445 ;
446 [label=<gini = 0.5<br/>samples = 2<br/>value = [1, 1]<br/>class = tracking>, fillcolor="#e5813900"] ;
445 -> 446 ;
447 [label=<gini = 0.0<br/>samples = 17<br/>value = [17, 0]<br/>class = tracking>, fillcolor="#e58139ff"] ;
445 -> 447 ;
448 [label=<gini = 0.4938<br/>samples = 18<br/>value = [8, 10]<br/>class = non-tracking>, fillcolor="#399de533"] ;
434 -> 448 ;
449 [label=<last-modified &le; 0.5<br/>gini = 0.4828<br/>samples = 5275<br/>value = [3127, 2148]<br/>class = tracking>, fillcolor="#e5813950"] ;
389 -> 449 ;
450 [label=<ETag &le; 0.5<br/>gini = 0.4412<br/>samples = 1455<br/>value = [977, 478]<br/>class = tracking>, fillcolor="#e5813982"] ;
449 -> 450 ;
451 [label=<cookies_number &le; 0.5<br/>gini = 0.4961<br/>samples = 443<br/>value = [202, 241]<br/>class = non-tracking>, fillcolor="#399de529"] ;
450 -> 451 ;
452 [label=<cookies &le; 0.5<br/>gini = 0.4938<br/>samples = 234<br/>value = [130, 104]<br/>class = tracking>, fillcolor="#e5813933"] ;
451 -> 452 ;
453 [label=<type &le; 2.5<br/>gini = 0.4924<br/>samples = 162<br/>value = [71, 91]<br/>class = non-tracking>, fillcolor="#399de538"] ;
452 -> 453 ;
454 [label=<cache-control &le; 0.5<br/>gini = 0.4989<br/>samples = 86<br/>value = [45, 41]<br/>class = tracking>, fillcolor="#e5813917"] ;
453 -> 454 ;
455 [label=<gini = 0.4964<br/>samples = 83<br/>value = [45, 38]<br/>class = tracking>, fillcolor="#e5813928"] ;
454 -> 455 ;
456 [label=<gini = 0.0<br/>samples = 3<br/>value = [0, 3]<br/>class = non-tracking>, fillcolor="#399de5ff"] ;
454 -> 456 ;
457 [label=<gini = 0.4501<br/>samples = 76<br/>value = [26, 50]<br/>class = non-tracking>, fillcolor="#399de57a"] ;
453 -> 457 ;
458 [label=<cache-control &le; 0.5<br/>gini = 0.2959<br/>samples = 72<br/>value = [59, 13]<br/>class = tracking>, fillcolor="#e58139c7"] ;
452 -> 458 ;
459 [label=<type &le; 2.5<br/>gini = 0.0666<br/>samples = 29<br/>value = [28, 1]<br/>class = tracking>, fillcolor="#e58139f6"] ;
458 -> 459 ;
460 [label=<gini = 0.0713<br/>samples = 27<br/>value = [26, 1]<br/>class = tracking>, fillcolor="#e58139f5"] ;
459 -> 460 ;
461 [label=<gini = 0.0<br/>samples = 2<br/>value = [2, 0]<br/>class = tracking>, fillcolor="#e58139ff"] ;
459 -> 461 ;
462 [label=<type &le; 2.5<br/>gini = 0.4024<br/>samples = 43<br/>value = [31, 12]<br/>class = tracking>, fillcolor="#e581399c"] ;
458 -> 462 ;
463 [label=<gini = 0.4664<br/>samples = 27<br/>value = [17, 10]<br/>class = tracking>, fillcolor="#e5813969"] ;
462 -> 463 ;
464 [label=<gini = 0.2188<br/>samples = 16<br/>value = [14, 2]<br/>class = tracking>, fillcolor="#e58139db"] ;
462 -> 464 ;
465 [label=<cookies_number &le; 1.5<br/>gini = 0.4516<br/>samples = 209<br/>value = [72, 137]<br/>class = non-tracking>, fillcolor="#399de579"] ;
451 -> 465 ;
466 [label=<type &le; 2.5<br/>gini = 0.3875<br/>samples = 175<br/>value = [46, 129]<br/>class = non-tracking>, fillcolor="#399de5a4"] ;
465 -> 466 ;
467 [label=<cache-control &le; 0.5<br/>gini = 0.2449<br/>samples = 105<br/>value = [15, 90]<br/>class = non-tracking>, fillcolor="#399de5d4"] ;
466 -> 467 ;
468 [label=<gini = 0.2887<br/>samples = 80<br/>value = [14, 66]<br/>class = non-tracking>, fillcolor="#399de5c9"] ;
467 -> 468 ;
469 [label=<gini = 0.0768<br/>samples = 25<br/>value = [1, 24]<br/>class = non-tracking>, fillcolor="#399de5f4"] ;
467 -> 469 ;
470 [label=<gini = 0.4935<br/>samples = 70<br/>value = [31, 39]<br/>class = non-tracking>, fillcolor="#399de534"] ;
466 -> 470 ;
471 [label=<type &le; 2.5<br/>gini = 0.3599<br/>samples = 34<br/>value = [26, 8]<br/>class = tracking>, fillcolor="#e58139b1"] ;
465 -> 471 ;
472 [label=<cache-control &le; 0.5<br/>gini = 0.4688<br/>samples = 16<br/>value = [10, 6]<br/>class = tracking>, fillcolor="#e5813966"] ;
471 -> 472 ;
473 [label=<gini = 0.5<br/>samples = 12<br/>value = [6, 6]<br/>class = tracking>, fillcolor="#e5813900"] ;
472 -> 473 ;
474 [label=<gini = 0.0<br/>samples = 4<br/>value = [4, 0]<br/>class = tracking>, fillcolor="#e58139ff"] ;
472 -> 474 ;
475 [label=<cookies_number &le; 2.5<br/>gini = 0.1975<br/>samples = 18<br/>value = [16, 2]<br/>class = tracking>, fillcolor="#e58139df"] ;
471 -> 475 ;
476 [label=<gini = 0.0<br/>samples = 12<br/>value = [12, 0]<br/>class = tracking>, fillcolor="#e58139ff"] ;
475 -> 476 ;
477 [label=<gini = 0.4444<br/>samples = 6<br/>value = [4, 2]<br/>class = tracking>, fillcolor="#e581397f"] ;
475 -> 477 ;
478 [label=<cookies &le; 0.5<br/>gini = 0.3587<br/>samples = 1012<br/>value = [775, 237]<br/>class = tracking>, fillcolor="#e58139b1"] ;
450 -> 478 ;
479 [label=<cache-control &le; 0.5<br/>gini = 0.4827<br/>samples = 145<br/>value = [86, 59]<br/>class = tracking>, fillcolor="#e5813950"] ;
478 -> 479 ;
480 [label=<type &le; 2.5<br/>gini = 0.4916<br/>samples = 85<br/>value = [37, 48]<br/>class = non-tracking>, fillcolor="#399de53a"] ;
479 -> 480 ;
481 [label=<gini = 0.474<br/>samples = 57<br/>value = [22, 35]<br/>class = non-tracking>, fillcolor="#399de55f"] ;
480 -> 481 ;
482 [label=<gini = 0.4974<br/>samples = 28<br/>value = [15, 13]<br/>class = tracking>, fillcolor="#e5813922"] ;
480 -> 482 ;
483 [label=<type &le; 2.5<br/>gini = 0.2994<br/>samples = 60<br/>value = [49, 11]<br/>class = tracking>, fillcolor="#e58139c6"] ;
479 -> 483 ;
484 [label=<gini = 0.32<br/>samples = 55<br/>value = [44, 11]<br/>class = tracking>, fillcolor="#e58139bf"] ;
483 -> 484 ;
485 [label=<gini = 0.0<br/>samples = 5<br/>value = [5, 0]<br/>class = tracking>, fillcolor="#e58139ff"] ;
483 -> 485 ;
486 [label=<cache-control &le; 0.5<br/>gini = 0.3263<br/>samples = 867<br/>value = [689, 178]<br/>class = tracking>, fillcolor="#e58139bd"] ;
478 -> 486 ;
487 [label=<cookies_number &le; 0.5<br/>gini = 0.2418<br/>samples = 526<br/>value = [452, 74]<br/>class = tracking>, fillcolor="#e58139d5"] ;
486 -> 487 ;
488 [label=<type &le; 2.5<br/>gini = 0.3018<br/>samples = 324<br/>value = [264, 60]<br/>class = tracking>, fillcolor="#e58139c5"] ;
487 -> 488 ;
489 [label=<gini = 0.3377<br/>samples = 251<br/>value = [197, 54]<br/>class = tracking>, fillcolor="#e58139b9"] ;
488 -> 489 ;
490 [label=<gini = 0.1509<br/>samples = 73<br/>value = [67, 6]<br/>class = tracking>, fillcolor="#e58139e8"] ;
488 -> 490 ;
491 [label=<cookies_number &le; 5.0<br/>gini = 0.129<br/>samples = 202<br/>value = [188, 14]<br/>class = tracking>, fillcolor="#e58139ec"] ;
487 -> 491 ;
492 [label=<type &le; 2.5<br/>gini = 0.1699<br/>samples = 128<br/>value = [116, 12]<br/>class = tracking>, fillcolor="#e58139e5"] ;
491 -> 492 ;
493 [label=<cookies_number &le; 1.5<br/>gini = 0.2014<br/>samples = 88<br/>value = [78, 10]<br/>class = tracking>, fillcolor="#e58139de"] ;
492 -> 493 ;
494 [label=<gini = 0.2311<br/>samples = 45<br/>value = [39, 6]<br/>class = tracking>, fillcolor="#e58139d8"] ;
493 -> 494 ;
495 [label=<cookies_number &le; 2.5<br/>gini = 0.1687<br/>samples = 43<br/>value = [39, 4]<br/>class = tracking>, fillcolor="#e58139e5"] ;
493 -> 495 ;
496 [label=<gini = 0.1567<br/>samples = 35<br/>value = [32, 3]<br/>class = tracking>, fillcolor="#e58139e7"] ;
495 -> 496 ;
497 [label=<gini = 0.2188<br/>samples = 8<br/>value = [7, 1]<br/>class = tracking>, fillcolor="#e58139db"] ;
495 -> 497 ;
498 [label=<gini = 0.095<br/>samples = 40<br/>value = [38, 2]<br/>class = tracking>, fillcolor="#e58139f2"] ;
492 -> 498 ;
499 [label=<type &le; 2.5<br/>gini = 0.0526<br/>samples = 74<br/>value = [72, 2]<br/>class = tracking>, fillcolor="#e58139f8"] ;
491 -> 499 ;
500 [label=<gini = 0.074<br/>samples = 52<br/>value = [50, 2]<br/>class = tracking>, fillcolor="#e58139f5"] ;
499 -> 500 ;
501 [label=<gini = 0.0<br/>samples = 22<br/>value = [22, 0]<br/>class = tracking>, fillcolor="#e58139ff"] ;
499 -> 501 ;
502 [label=<type &le; 2.5<br/>gini = 0.4239<br/>samples = 341<br/>value = [237, 104]<br/>class = tracking>, fillcolor="#e581398f"] ;
486 -> 502 ;
503 [label=<cookies_number &le; 7.5<br/>gini = 0.4459<br/>samples = 295<br/>value = [196, 99]<br/>class = tracking>, fillcolor="#e581397e"] ;
502 -> 503 ;
504 [label=<cookies_number &le; 1.5<br/>gini = 0.4405<br/>samples = 287<br/>value = [193, 94]<br/>class = tracking>, fillcolor="#e5813983"] ;
503 -> 504 ;
505 [label=<cookies_number &le; 0.5<br/>gini = 0.4626<br/>samples = 201<br/>value = [128, 73]<br/>class = tracking>, fillcolor="#e581396e"] ;
504 -> 505 ;
506 [label=<set-cookie &le; 0.5<br/>gini = 0.4583<br/>samples = 194<br/>value = [125, 69]<br/>class = tracking>, fillcolor="#e5813972"] ;
505 -> 506 ;
507 [label=<gini = 0.4604<br/>samples = 192<br/>value = [123, 69]<br/>class = tracking>, fillcolor="#e5813970"] ;
506 -> 507 ;
508 [label=<gini = 0.0<br/>samples = 2<br/>value = [2, 0]<br/>class = tracking>, fillcolor="#e58139ff"] ;
506 -> 508 ;
509 [label=<gini = 0.4898<br/>samples = 7<br/>value = [3, 4]<br/>class = non-tracking>, fillcolor="#399de540"] ;
505 -> 509 ;
510 [label=<cookies_number &le; 5.0<br/>gini = 0.3691<br/>samples = 86<br/>value = [65, 21]<br/>class = tracking>, fillcolor="#e58139ad"] ;
504 -> 510 ;
511 [label=<cookies_number &le; 2.5<br/>gini = 0.3441<br/>samples = 77<br/>value = [60, 17]<br/>class = tracking>, fillcolor="#e58139b7"] ;
510 -> 511 ;
512 [label=<gini = 0.355<br/>samples = 26<br/>value = [20, 6]<br/>class = tracking>, fillcolor="#e58139b3"] ;
511 -> 512 ;
513 [label=<gini = 0.3383<br/>samples = 51<br/>value = [40, 11]<br/>class = tracking>, fillcolor="#e58139b9"] ;
511 -> 513 ;
514 [label=<gini = 0.4938<br/>samples = 9<br/>value = [5, 4]<br/>class = tracking>, fillcolor="#e5813933"] ;
510 -> 514 ;
515 [label=<gini = 0.4688<br/>samples = 8<br/>value = [3, 5]<br/>class = non-tracking>, fillcolor="#399de566"] ;
503 -> 515 ;
516 [label=<cookies_number &le; 0.5<br/>gini = 0.1938<br/>samples = 46<br/>value = [41, 5]<br/>class = tracking>, fillcolor="#e58139e0"] ;
502 -> 516 ;
517 [label=<gini = 0.32<br/>samples = 15<br/>value = [12, 3]<br/>class = tracking>, fillcolor="#e58139bf"] ;
516 -> 517 ;
518 [label=<cookies_number &le; 4.5<br/>gini = 0.1207<br/>samples = 31<br/>value = [29, 2]<br/>class = tracking>, fillcolor="#e58139ed"] ;
516 -> 518 ;
519 [label=<cookies_number &le; 1.5<br/>gini = 0.1327<br/>samples = 28<br/>value = [26, 2]<br/>class = tracking>, fillcolor="#e58139eb"] ;
518 -> 519 ;
520 [label=<gini = 0.0<br/>samples = 2<br/>value = [2, 0]<br/>class = tracking>, fillcolor="#e58139ff"] ;
519 -> 520 ;
521 [label=<gini = 0.142<br/>samples = 26<br/>value = [24, 2]<br/>class = tracking>, fillcolor="#e58139ea"] ;
519 -> 521 ;
522 [label=<gini = 0.0<br/>samples = 3<br/>value = [3, 0]<br/>class = tracking>, fillcolor="#e58139ff"] ;
518 -> 522 ;
523 [label=<ETag &le; 0.5<br/>gini = 0.4921<br/>samples = 3820<br/>value = [2150, 1670]<br/>class = tracking>, fillcolor="#e5813939"] ;
449 -> 523 ;
524 [label=<type &le; 2.5<br/>gini = 0.4209<br/>samples = 372<br/>value = [260, 112]<br/>class = tracking>, fillcolor="#e5813991"] ;
523 -> 524 ;
525 [label=<cookies_number &le; 0.5<br/>gini = 0.4592<br/>samples = 266<br/>value = [171, 95]<br/>class = tracking>, fillcolor="#e5813971"] ;
524 -> 525 ;
526 [label=<cookies &le; 0.5<br/>gini = 0.4321<br/>samples = 190<br/>value = [130, 60]<br/>class = tracking>, fillcolor="#e5813989"] ;
525 -> 526 ;
527 [label=<gini = 0.4152<br/>samples = 85<br/>value = [60, 25]<br/>class = tracking>, fillcolor="#e5813995"] ;
526 -> 527 ;
528 [label=<set-cookie &le; 0.5<br/>gini = 0.4444<br/>samples = 105<br/>value = [70, 35]<br/>class = tracking>, fillcolor="#e581397f"] ;
526 -> 528 ;
529 [label=<gini = 0.4673<br/>samples = 43<br/>value = [27, 16]<br/>class = tracking>, fillcolor="#e5813968"] ;
528 -> 529 ;
530 [label=<gini = 0.4251<br/>samples = 62<br/>value = [43, 19]<br/>class = tracking>, fillcolor="#e581398e"] ;
528 -> 530 ;
531 [label=<set-cookie &le; 0.5<br/>gini = 0.4969<br/>samples = 76<br/>value = [41, 35]<br/>class = tracking>, fillcolor="#e5813925"] ;
525 -> 531 ;
532 [label=<cookies_number &le; 1.5<br/>gini = 0.4405<br/>samples = 58<br/>value = [39, 19]<br/>class = tracking>, fillcolor="#e5813983"] ;
531 -> 532 ;
533 [label=<gini = 0.3578<br/>samples = 30<br/>value = [23, 7]<br/>class = tracking>, fillcolor="#e58139b1"] ;
532 -> 533 ;
534 [label=<gini = 0.4898<br/>samples = 28<br/>value = [16, 12]<br/>class = tracking>, fillcolor="#e5813940"] ;
532 -> 534 ;
535 [label=<gini = 0.1975<br/>samples = 18<br/>value = [2, 16]<br/>class = non-tracking>, fillcolor="#399de5df"] ;
531 -> 535 ;
536 [label=<cookies &le; 0.5<br/>gini = 0.2693<br/>samples = 106<br/>value = [89, 17]<br/>class = tracking>, fillcolor="#e58139ce"] ;
524 -> 536 ;
537 [label=<gini = 0.4444<br/>samples = 9<br/>value = [6, 3]<br/>class = tracking>, fillcolor="#e581397f"] ;
536 -> 537 ;
538 [label=<cookies_number &le; 0.5<br/>gini = 0.247<br/>samples = 97<br/>value = [83, 14]<br/>class = tracking>, fillcolor="#e58139d4"] ;
536 -> 538 ;
539 [label=<set-cookie &le; 0.5<br/>gini = 0.32<br/>samples = 25<br/>value = [20, 5]<br/>class = tracking>, fillcolor="#e58139bf"] ;
538 -> 539 ;
540 [label=<gini = 0.2907<br/>samples = 17<br/>value = [14, 3]<br/>class = tracking>, fillcolor="#e58139c8"] ;
539 -> 540 ;
541 [label=<gini = 0.375<br/>samples = 8<br/>value = [6, 2]<br/>class = tracking>, fillcolor="#e58139aa"] ;
539 -> 541 ;
542 [label=<cookies_number &le; 1.5<br/>gini = 0.2188<br/>samples = 72<br/>value = [63, 9]<br/>class = tracking>, fillcolor="#e58139db"] ;
538 -> 542 ;
543 [label=<gini = 0.0<br/>samples = 16<br/>value = [16, 0]<br/>class = tracking>, fillcolor="#e58139ff"] ;
542 -> 543 ;
544 [label=<gini = 0.2698<br/>samples = 56<br/>value = [47, 9]<br/>class = tracking>, fillcolor="#e58139ce"] ;
542 -> 544 ;
545 [label=<cookies_number &le; 4.5<br/>gini = 0.4954<br/>samples = 3448<br/>value = [1890, 1558]<br/>class = tracking>, fillcolor="#e581392d"] ;
523 -> 545 ;
546 [label=<cookies &le; 0.5<br/>gini = 0.4939<br/>samples = 3338<br/>value = [1853, 1485]<br/>class = tracking>, fillcolor="#e5813933"] ;
545 -> 546 ;
547 [label=<set-cookie &le; 0.5<br/>gini = 0.4587<br/>samples = 362<br/>value = [233, 129]<br/>class = tracking>, fillcolor="#e5813972"] ;
546 -> 547 ;
548 [label=<type &le; 2.5<br/>gini = 0.4567<br/>samples = 360<br/>value = [233, 127]<br/>class = tracking>, fillcolor="#e5813974"] ;
547 -> 548 ;
549 [label=<gini = 0.4444<br/>samples = 273<br/>value = [182, 91]<br/>class = tracking>, fillcolor="#e581397f"] ;
548 -> 549 ;
550 [label=<gini = 0.4851<br/>samples = 87<br/>value = [51, 36]<br/>class = tracking>, fillcolor="#e581394b"] ;
548 -> 550 ;
551 [label=<gini = 0.0<br/>samples = 2<br/>value = [0, 2]<br/>class = non-tracking>, fillcolor="#399de5ff"] ;
547 -> 551 ;
552 [label=<cookies_number &le; 0.5<br/>gini = 0.4961<br/>samples = 2976<br/>value = [1620, 1356]<br/>class = tracking>, fillcolor="#e581392a"] ;
546 -> 552 ;
553 [label=<type &le; 2.5<br/>gini = 0.4984<br/>samples = 2039<br/>value = [1078, 961]<br/>class = tracking>, fillcolor="#e581391c"] ;
552 -> 553 ;
554 [label=<cache-control &le; 0.5<br/>gini = 0.4966<br/>samples = 1674<br/>value = [906, 768]<br/>class = tracking>, fillcolor="#e5813927"] ;
553 -> 554 ;
555 [label=<gini = 0.32<br/>samples = 5<br/>value = [1, 4]<br/>class = non-tracking>, fillcolor="#399de5bf"] ;
554 -> 555 ;
556 [label=<set-cookie &le; 0.5<br/>gini = 0.4964<br/>samples = 1669<br/>value = [905, 764]<br/>class = tracking>, fillcolor="#e5813928"] ;
554 -> 556 ;
557 [label=<gini = 0.4963<br/>samples = 1421<br/>value = [772, 649]<br/>class = tracking>, fillcolor="#e5813929"] ;
556 -> 557 ;
558 [label=<gini = 0.4974<br/>samples = 248<br/>value = [133, 115]<br/>class = tracking>, fillcolor="#e5813923"] ;
556 -> 558 ;
559 [label=<set-cookie &le; 0.5<br/>gini = 0.4983<br/>samples = 365<br/>value = [172, 193]<br/>class = non-tracking>, fillcolor="#399de51c"] ;
553 -> 559 ;
560 [label=<gini = 0.4967<br/>samples = 333<br/>value = [153, 180]<br/>class = non-tracking>, fillcolor="#399de526"] ;
559 -> 560 ;
561 [label=<gini = 0.4824<br/>samples = 32<br/>value = [19, 13]<br/>class = tracking>, fillcolor="#e5813951"] ;
559 -> 561 ;
562 [label=<type &le; 2.5<br/>gini = 0.4877<br/>samples = 937<br/>value = [542, 395]<br/>class = tracking>, fillcolor="#e5813945"] ;
552 -> 562 ;
563 [label=<cookies_number &le; 1.5<br/>gini = 0.4955<br/>samples = 809<br/>value = [443, 366]<br/>class = tracking>, fillcolor="#e581392c"] ;
562 -> 563 ;
564 [label=<set-cookie &le; 0.5<br/>gini = 0.4864<br/>samples = 589<br/>value = [343, 246]<br/>class = tracking>, fillcolor="#e5813948"] ;
563 -> 564 ;
565 [label=<gini = 0.4879<br/>samples = 417<br/>value = [241, 176]<br/>class = tracking>, fillcolor="#e5813945"] ;
564 -> 565 ;
566 [label=<gini = 0.4827<br/>samples = 172<br/>value = [102, 70]<br/>class = tracking>, fillcolor="#e5813950"] ;
564 -> 566 ;
567 [label=<set-cookie &le; 0.5<br/>gini = 0.4959<br/>samples = 220<br/>value = [100, 120]<br/>class = non-tracking>, fillcolor="#399de52a"] ;
563 -> 567 ;
568 [label=<cookies_number &le; 2.5<br/>gini = 0.4898<br/>samples = 196<br/>value = [84, 112]<br/>class = non-tracking>, fillcolor="#399de540"] ;
567 -> 568 ;
569 [label=<gini = 0.4743<br/>samples = 150<br/>value = [58, 92]<br/>class = non-tracking>, fillcolor="#399de55e"] ;
568 -> 569 ;
570 [label=<cookies_number &le; 3.5<br/>gini = 0.4915<br/>samples = 46<br/>value = [26, 20]<br/>class = tracking>, fillcolor="#e581393b"] ;
568 -> 570 ;
571 [label=<gini = 0.4983<br/>samples = 34<br/>value = [18, 16]<br/>class = tracking>, fillcolor="#e581391c"] ;
570 -> 571 ;
572 [label=<gini = 0.4444<br/>samples = 12<br/>value = [8, 4]<br/>class = tracking>, fillcolor="#e581397f"] ;
570 -> 572 ;
573 [label=<gini = 0.4444<br/>samples = 24<br/>value = [16, 8]<br/>class = tracking>, fillcolor="#e581397f"] ;
567 -> 573 ;
574 [label=<cookies_number &le; 1.5<br/>gini = 0.3505<br/>samples = 128<br/>value = [99, 29]<br/>class = tracking>, fillcolor="#e58139b4"] ;
562 -> 574 ;
575 [label=<gini = 0.2688<br/>samples = 75<br/>value = [63, 12]<br/>class = tracking>, fillcolor="#e58139ce"] ;
574 -> 575 ;
576 [label=<cookies_number &le; 2.5<br/>gini = 0.4357<br/>samples = 53<br/>value = [36, 17]<br/>class = tracking>, fillcolor="#e5813987"] ;
574 -> 576 ;
577 [label=<gini = 0.4306<br/>samples = 51<br/>value = [35, 16]<br/>class = tracking>, fillcolor="#e581398a"] ;
576 -> 577 ;
578 [label=<gini = 0.5<br/>samples = 2<br/>value = [1, 1]<br/>class = tracking>, fillcolor="#e5813900"] ;
576 -> 578 ;
579 [label=<cookies_number &le; 6.0<br/>gini = 0.4464<br/>samples = 110<br/>value = [37, 73]<br/>class = non-tracking>, fillcolor="#399de57e"] ;
545 -> 579 ;
580 [label=<gini = 0.2401<br/>samples = 43<br/>value = [6, 37]<br/>class = non-tracking>, fillcolor="#399de5d6"] ;
579 -> 580 ;
581 [label=<cookies_number &le; 7.5<br/>gini = 0.4972<br/>samples = 67<br/>value = [31, 36]<br/>class = non-tracking>, fillcolor="#399de523"] ;
579 -> 581 ;
582 [label=<gini = 0.4444<br/>samples = 12<br/>value = [4, 8]<br/>class = non-tracking>, fillcolor="#399de57f"] ;
581 -> 582 ;
583 [label=<gini = 0.4998<br/>samples = 55<br/>value = [27, 28]<br/>class = non-tracking>, fillcolor="#399de509"] ;
581 -> 583 ;
584 [label=<expire_time &le; 0.5<br/>gini = 0.4295<br/>samples = 19260<br/>value = [6013, 13247]<br/>class = non-tracking>, fillcolor="#399de58b"] ;
0 -> 584 [labeldistance=2.5, labelangle=-45, headlabel="False"] ;
585 [label=<type &le; 2.5<br/>gini = 0.4703<br/>samples = 5404<br/>value = [2044, 3360]<br/>class = non-tracking>, fillcolor="#399de564"] ;
584 -> 585 ;
586 [label=<cookies_number &le; 1.5<br/>gini = 0.4645<br/>samples = 4928<br/>value = [1807, 3121]<br/>class = non-tracking>, fillcolor="#399de56b"] ;
585 -> 586 ;
587 [label=<ETag &le; 0.5<br/>gini = 0.4709<br/>samples = 4364<br/>value = [1656, 2708]<br/>class = non-tracking>, fillcolor="#399de563"] ;
586 -> 587 ;
588 [label=<type &le; 1.5<br/>gini = 0.3384<br/>samples = 292<br/>value = [63, 229]<br/>class = non-tracking>, fillcolor="#399de5b9"] ;
587 -> 588 ;
589 [label=<type &le; 0.5<br/>gini = 0.5<br/>samples = 12<br/>value = [6, 6]<br/>class = tracking>, fillcolor="#e5813900"] ;
588 -> 589 ;
590 [label=<new_window &le; 0.5<br/>gini = 0.2449<br/>samples = 7<br/>value = [1, 6]<br/>class = non-tracking>, fillcolor="#399de5d4"] ;
589 -> 590 ;
591 [label=<gini = 0.0<br/>samples = 3<br/>value = [0, 3]<br/>class = non-tracking>, fillcolor="#399de5ff"] ;
590 -> 591 ;
592 [label=<parameter_number &le; 0.5<br/>gini = 0.375<br/>samples = 4<br/>value = [1, 3]<br/>class = non-tracking>, fillcolor="#399de5aa"] ;
590 -> 592 ;
593 [label=<gini = 0.0<br/>samples = 2<br/>value = [0, 2]<br/>class = non-tracking>, fillcolor="#399de5ff"] ;
592 -> 593 ;
594 [label=<gini = 0.5<br/>samples = 2<br/>value = [1, 1]<br/>class = tracking>, fillcolor="#e5813900"] ;
592 -> 594 ;
595 [label=<gini = 0.0<br/>samples = 5<br/>value = [5, 0]<br/>class = tracking>, fillcolor="#e58139ff"] ;
589 -> 595 ;
596 [label=<cookies_number &le; 0.5<br/>gini = 0.3243<br/>samples = 280<br/>value = [57, 223]<br/>class = non-tracking>, fillcolor="#399de5be"] ;
588 -> 596 ;
597 [label=<cookies &le; 0.5<br/>gini = 0.294<br/>samples = 229<br/>value = [41, 188]<br/>class = non-tracking>, fillcolor="#399de5c7"] ;
596 -> 597 ;
598 [label=<gini = 0.0<br/>samples = 3<br/>value = [0, 3]<br/>class = non-tracking>, fillcolor="#399de5ff"] ;
597 -> 598 ;
599 [label=<new_window &le; 0.5<br/>gini = 0.297<br/>samples = 226<br/>value = [41, 185]<br/>class = non-tracking>, fillcolor="#399de5c6"] ;
597 -> 599 ;
600 [label=<gini = 0.0<br/>samples = 3<br/>value = [0, 3]<br/>class = non-tracking>, fillcolor="#399de5ff"] ;
599 -> 600 ;
601 [label=<last-modified &le; 0.5<br/>gini = 0.3001<br/>samples = 223<br/>value = [41, 182]<br/>class = non-tracking>, fillcolor="#399de5c6"] ;
599 -> 601 ;
602 [label=<set-cookie &le; 0.5<br/>gini = 0.3457<br/>samples = 9<br/>value = [2, 7]<br/>class = non-tracking>, fillcolor="#399de5b6"] ;
601 -> 602 ;
603 [label=<gini = 0.0<br/>samples = 7<br/>value = [0, 7]<br/>class = non-tracking>, fillcolor="#399de5ff"] ;
602 -> 603 ;
604 [label=<gini = 0.0<br/>samples = 2<br/>value = [2, 0]<br/>class = tracking>, fillcolor="#e58139ff"] ;
602 -> 604 ;
605 [label=<set-cookie &le; 0.5<br/>gini = 0.2981<br/>samples = 214<br/>value = [39, 175]<br/>class = non-tracking>, fillcolor="#399de5c6"] ;
601 -> 605 ;
606 [label=<gini = 0.307<br/>samples = 132<br/>value = [25, 107]<br/>class = non-tracking>, fillcolor="#399de5c3"] ;
605 -> 606 ;
607 [label=<gini = 0.2832<br/>samples = 82<br/>value = [14, 68]<br/>class = non-tracking>, fillcolor="#399de5ca"] ;
605 -> 607 ;
608 [label=<set-cookie &le; 0.5<br/>gini = 0.4306<br/>samples = 51<br/>value = [16, 35]<br/>class = non-tracking>, fillcolor="#399de58a"] ;
596 -> 608 ;
609 [label=<gini = 0.4297<br/>samples = 48<br/>value = [15, 33]<br/>class = non-tracking>, fillcolor="#399de58b"] ;
608 -> 609 ;
610 [label=<gini = 0.4444<br/>samples = 3<br/>value = [1, 2]<br/>class = non-tracking>, fillcolor="#399de57f"] ;
608 -> 610 ;
611 [label=<last-modified &le; 0.5<br/>gini = 0.4763<br/>samples = 4072<br/>value = [1593, 2479]<br/>class = non-tracking>, fillcolor="#399de55b"] ;
587 -> 611 ;
612 [label=<set-cookie &le; 0.5<br/>gini = 0.4995<br/>samples = 213<br/>value = [110, 103]<br/>class = tracking>, fillcolor="#e5813910"] ;
611 -> 612 ;
613 [label=<type &le; 1.5<br/>gini = 0.4624<br/>samples = 113<br/>value = [72, 41]<br/>class = tracking>, fillcolor="#e581396e"] ;
612 -> 613 ;
614 [label=<parameter_number &le; 0.5<br/>gini = 0.4844<br/>samples = 17<br/>value = [7, 10]<br/>class = non-tracking>, fillcolor="#399de54d"] ;
613 -> 614 ;
615 [label=<gini = 0.0<br/>samples = 2<br/>value = [0, 2]<br/>class = non-tracking>, fillcolor="#399de5ff"] ;
614 -> 615 ;
616 [label=<new_window &le; 0.5<br/>gini = 0.4978<br/>samples = 15<br/>value = [7, 8]<br/>class = non-tracking>, fillcolor="#399de520"] ;
614 -> 616 ;
617 [label=<gini = 0.5<br/>samples = 4<br/>value = [2, 2]<br/>class = tracking>, fillcolor="#e5813900"] ;
616 -> 617 ;
618 [label=<gini = 0.4959<br/>samples = 11<br/>value = [5, 6]<br/>class = non-tracking>, fillcolor="#399de52a"] ;
616 -> 618 ;
619 [label=<cache-control &le; 0.5<br/>gini = 0.4373<br/>samples = 96<br/>value = [65, 31]<br/>class = tracking>, fillcolor="#e5813985"] ;
613 -> 619 ;
620 [label=<gini = 0.4699<br/>samples = 53<br/>value = [33, 20]<br/>class = tracking>, fillcolor="#e5813964"] ;
619 -> 620 ;
621 [label=<cookies_number &le; 0.5<br/>gini = 0.3807<br/>samples = 43<br/>value = [32, 11]<br/>class = tracking>, fillcolor="#e58139a7"] ;
619 -> 621 ;
622 [label=<new_window &le; 0.5<br/>gini = 0.3418<br/>samples = 32<br/>value = [25, 7]<br/>class = tracking>, fillcolor="#e58139b8"] ;
621 -> 622 ;
623 [label=<gini = 0.5<br/>samples = 2<br/>value = [1, 1]<br/>class = tracking>, fillcolor="#e5813900"] ;
622 -> 623 ;
624 [label=<gini = 0.32<br/>samples = 30<br/>value = [24, 6]<br/>class = tracking>, fillcolor="#e58139bf"] ;
622 -> 624 ;
625 [label=<gini = 0.4628<br/>samples = 11<br/>value = [7, 4]<br/>class = tracking>, fillcolor="#e581396d"] ;
621 -> 625 ;
626 [label=<gini = 0.4712<br/>samples = 100<br/>value = [38, 62]<br/>class = non-tracking>, fillcolor="#399de563"] ;
612 -> 626 ;
627 [label=<set-cookie &le; 0.5<br/>gini = 0.4732<br/>samples = 3859<br/>value = [1483, 2376]<br/>class = non-tracking>, fillcolor="#399de560"] ;
611 -> 627 ;
628 [label=<type &le; 1.5<br/>gini = 0.4498<br/>samples = 1593<br/>value = [544, 1049]<br/>class = non-tracking>, fillcolor="#399de57b"] ;
627 -> 628 ;
629 [label=<cookies_number &le; 0.5<br/>gini = 0.487<br/>samples = 62<br/>value = [36, 26]<br/>class = tracking>, fillcolor="#e5813947"] ;
628 -> 629 ;
630 [label=<gini = 0.4826<br/>samples = 59<br/>value = [35, 24]<br/>class = tracking>, fillcolor="#e5813950"] ;
629 -> 630 ;
631 [label=<gini = 0.4444<br/>samples = 3<br/>value = [1, 2]<br/>class = non-tracking>, fillcolor="#399de57f"] ;
629 -> 631 ;
632 [label=<new_window &le; 0.5<br/>gini = 0.4434<br/>samples = 1531<br/>value = [508, 1023]<br/>class = non-tracking>, fillcolor="#399de580"] ;
628 -> 632 ;
633 [label=<gini = 0.0<br/>samples = 6<br/>value = [0, 6]<br/>class = non-tracking>, fillcolor="#399de5ff"] ;
632 -> 633 ;
634 [label=<parameter_number &le; 0.5<br/>gini = 0.4443<br/>samples = 1525<br/>value = [508, 1017]<br/>class = non-tracking>, fillcolor="#399de580"] ;
632 -> 634 ;
635 [label=<gini = 0.0<br/>samples = 3<br/>value = [0, 3]<br/>class = non-tracking>, fillcolor="#399de5ff"] ;
634 -> 635 ;
636 [label=<cookies_number &le; 0.5<br/>gini = 0.4447<br/>samples = 1522<br/>value = [508, 1014]<br/>class = non-tracking>, fillcolor="#399de57f"] ;
634 -> 636 ;
637 [label=<cookies &le; 0.5<br/>gini = 0.4468<br/>samples = 840<br/>value = [283, 557]<br/>class = non-tracking>, fillcolor="#399de57d"] ;
636 -> 637 ;
638 [label=<gini = 0.4527<br/>samples = 26<br/>value = [9, 17]<br/>class = non-tracking>, fillcolor="#399de578"] ;
637 -> 638 ;
639 [label=<gini = 0.4466<br/>samples = 814<br/>value = [274, 540]<br/>class = non-tracking>, fillcolor="#399de57e"] ;
637 -> 639 ;
640 [label=<gini = 0.4421<br/>samples = 682<br/>value = [225, 457]<br/>class = non-tracking>, fillcolor="#399de581"] ;
636 -> 640 ;
641 [label=<cookies_number &le; 0.5<br/>gini = 0.4853<br/>samples = 2266<br/>value = [939, 1327]<br/>class = non-tracking>, fillcolor="#399de54b"] ;
627 -> 641 ;
642 [label=<new_window &le; 0.5<br/>gini = 0.4723<br/>samples = 1486<br/>value = [568, 918]<br/>class = non-tracking>, fillcolor="#399de561"] ;
641 -> 642 ;
643 [label=<gini = 0.0<br/>samples = 2<br/>value = [0, 2]<br/>class = non-tracking>, fillcolor="#399de5ff"] ;
642 -> 643 ;
644 [label=<type &le; 1.5<br/>gini = 0.4725<br/>samples = 1484<br/>value = [568, 916]<br/>class = non-tracking>, fillcolor="#399de561"] ;
642 -> 644 ;
645 [label=<gini = 0.4663<br/>samples = 154<br/>value = [57, 97]<br/>class = non-tracking>, fillcolor="#399de569"] ;
644 -> 645 ;
646 [label=<gini = 0.4732<br/>samples = 1330<br/>value = [511, 819]<br/>class = non-tracking>, fillcolor="#399de560"] ;
644 -> 646 ;
647 [label=<type &le; 1.5<br/>gini = 0.4988<br/>samples = 780<br/>value = [371, 409]<br/>class = non-tracking>, fillcolor="#399de518"] ;
641 -> 647 ;
648 [label=<gini = 0.455<br/>samples = 40<br/>value = [26, 14]<br/>class = tracking>, fillcolor="#e5813976"] ;
647 -> 648 ;
649 [label=<gini = 0.4977<br/>samples = 740<br/>value = [345, 395]<br/>class = non-tracking>, fillcolor="#399de520"] ;
647 -> 649 ;
650 [label=<ETag &le; 0.5<br/>gini = 0.3921<br/>samples = 564<br/>value = [151, 413]<br/>class = non-tracking>, fillcolor="#399de5a2"] ;
586 -> 650 ;
651 [label=<set-cookie &le; 0.5<br/>gini = 0.4984<br/>samples = 53<br/>value = [28, 25]<br/>class = tracking>, fillcolor="#e581391b"] ;
650 -> 651 ;
652 [label=<new_window &le; 0.5<br/>gini = 0.32<br/>samples = 5<br/>value = [1, 4]<br/>class = non-tracking>, fillcolor="#399de5bf"] ;
651 -> 652 ;
653 [label=<gini = 0.0<br/>samples = 1<br/>value = [0, 1]<br/>class = non-tracking>, fillcolor="#399de5ff"] ;
652 -> 653 ;
654 [label=<gini = 0.375<br/>samples = 4<br/>value = [1, 3]<br/>class = non-tracking>, fillcolor="#399de5aa"] ;
652 -> 654 ;
655 [label=<cookies_number &le; 2.5<br/>gini = 0.4922<br/>samples = 48<br/>value = [27, 21]<br/>class = tracking>, fillcolor="#e5813939"] ;
651 -> 655 ;
656 [label=<gini = 0.5<br/>samples = 2<br/>value = [1, 1]<br/>class = tracking>, fillcolor="#e5813900"] ;
655 -> 656 ;
657 [label=<gini = 0.4915<br/>samples = 46<br/>value = [26, 20]<br/>class = tracking>, fillcolor="#e581393b"] ;
655 -> 657 ;
658 [label=<cookies_number &le; 2.5<br/>gini = 0.3655<br/>samples = 511<br/>value = [123, 388]<br/>class = non-tracking>, fillcolor="#399de5ae"] ;
650 -> 658 ;
659 [label=<set-cookie &le; 0.5<br/>gini = 0.3953<br/>samples = 354<br/>value = [96, 258]<br/>class = non-tracking>, fillcolor="#399de5a0"] ;
658 -> 659 ;
660 [label=<new_window &le; 0.5<br/>gini = 0.4905<br/>samples = 58<br/>value = [33, 25]<br/>class = tracking>, fillcolor="#e581393e"] ;
659 -> 660 ;
661 [label=<gini = 0.0<br/>samples = 1<br/>value = [0, 1]<br/>class = non-tracking>, fillcolor="#399de5ff"] ;
660 -> 661 ;
662 [label=<gini = 0.4875<br/>samples = 57<br/>value = [33, 24]<br/>class = tracking>, fillcolor="#e5813946"] ;
660 -> 662 ;
663 [label=<type &le; 1.5<br/>gini = 0.3351<br/>samples = 296<br/>value = [63, 233]<br/>class = non-tracking>, fillcolor="#399de5ba"] ;
659 -> 663 ;
664 [label=<gini = 0.4444<br/>samples = 24<br/>value = [8, 16]<br/>class = non-tracking>, fillcolor="#399de57f"] ;
663 -> 664 ;
665 [label=<gini = 0.3226<br/>samples = 272<br/>value = [55, 217]<br/>class = non-tracking>, fillcolor="#399de5be"] ;
663 -> 665 ;
666 [label=<parameter_number &le; 0.5<br/>gini = 0.2848<br/>samples = 157<br/>value = [27, 130]<br/>class = non-tracking>, fillcolor="#399de5ca"] ;
658 -> 666 ;
667 [label=<new_window &le; 0.5<br/>gini = 0.4875<br/>samples = 19<br/>value = [8, 11]<br/>class = non-tracking>, fillcolor="#399de546"] ;
666 -> 667 ;
668 [label=<gini = 0.0<br/>samples = 2<br/>value = [0, 2]<br/>class = non-tracking>, fillcolor="#399de5ff"] ;
667 -> 668 ;
669 [label=<gini = 0.4983<br/>samples = 17<br/>value = [8, 9]<br/>class = non-tracking>, fillcolor="#399de51c"] ;
667 -> 669 ;
670 [label=<type &le; 1.5<br/>gini = 0.2375<br/>samples = 138<br/>value = [19, 119]<br/>class = non-tracking>, fillcolor="#399de5d6"] ;
666 -> 670 ;
671 [label=<gini = 0.1207<br/>samples = 31<br/>value = [2, 29]<br/>class = non-tracking>, fillcolor="#399de5ed"] ;
670 -> 671 ;
672 [label=<gini = 0.2673<br/>samples = 107<br/>value = [17, 90]<br/>class = non-tracking>, fillcolor="#399de5cf"] ;
670 -> 672 ;
673 [label=<set-cookie &le; 0.5<br/>gini = 0.5<br/>samples = 476<br/>value = [237, 239]<br/>class = non-tracking>, fillcolor="#399de502"] ;
585 -> 673 ;
674 [label=<cookies_number &le; 2.5<br/>gini = 0.4581<br/>samples = 197<br/>value = [127, 70]<br/>class = tracking>, fillcolor="#e5813972"] ;
673 -> 674 ;
675 [label=<ETag &le; 0.5<br/>gini = 0.4088<br/>samples = 178<br/>value = [127, 51]<br/>class = tracking>, fillcolor="#e5813999"] ;
674 -> 675 ;
676 [label=<parameter_number &le; 0.5<br/>gini = 0.4783<br/>samples = 48<br/>value = [19, 29]<br/>class = non-tracking>, fillcolor="#399de558"] ;
675 -> 676 ;
677 [label=<gini = 0.0<br/>samples = 2<br/>value = [2, 0]<br/>class = tracking>, fillcolor="#e58139ff"] ;
676 -> 677 ;
678 [label=<cookies &le; 0.5<br/>gini = 0.466<br/>samples = 46<br/>value = [17, 29]<br/>class = non-tracking>, fillcolor="#399de56a"] ;
676 -> 678 ;
679 [label=<gini = 0.0<br/>samples = 6<br/>value = [0, 6]<br/>class = non-tracking>, fillcolor="#399de5ff"] ;
678 -> 679 ;
680 [label=<cookies_number &le; 0.5<br/>gini = 0.4888<br/>samples = 40<br/>value = [17, 23]<br/>class = non-tracking>, fillcolor="#399de543"] ;
678 -> 680 ;
681 [label=<gini = 0.4567<br/>samples = 17<br/>value = [6, 11]<br/>class = non-tracking>, fillcolor="#399de574"] ;
680 -> 681 ;
682 [label=<gini = 0.4991<br/>samples = 23<br/>value = [11, 12]<br/>class = non-tracking>, fillcolor="#399de515"] ;
680 -> 682 ;
683 [label=<cookies_number &le; 0.5<br/>gini = 0.2812<br/>samples = 130<br/>value = [108, 22]<br/>class = tracking>, fillcolor="#e58139cb"] ;
675 -> 683 ;
684 [label=<cookies &le; 0.5<br/>gini = 0.2112<br/>samples = 75<br/>value = [66, 9]<br/>class = tracking>, fillcolor="#e58139dc"] ;
683 -> 684 ;
685 [label=<gini = 0.0<br/>samples = 12<br/>value = [12, 0]<br/>class = tracking>, fillcolor="#e58139ff"] ;
684 -> 685 ;
686 [label=<last-modified &le; 0.5<br/>gini = 0.2449<br/>samples = 63<br/>value = [54, 9]<br/>class = tracking>, fillcolor="#e58139d4"] ;
684 -> 686 ;
687 [label=<gini = 0.1244<br/>samples = 15<br/>value = [14, 1]<br/>class = tracking>, fillcolor="#e58139ed"] ;
686 -> 687 ;
688 [label=<gini = 0.2778<br/>samples = 48<br/>value = [40, 8]<br/>class = tracking>, fillcolor="#e58139cc"] ;
686 -> 688 ;
689 [label=<cookies_number &le; 1.5<br/>gini = 0.361<br/>samples = 55<br/>value = [42, 13]<br/>class = tracking>, fillcolor="#e58139b0"] ;
683 -> 689 ;
690 [label=<gini = 0.3702<br/>samples = 53<br/>value = [40, 13]<br/>class = tracking>, fillcolor="#e58139ac"] ;
689 -> 690 ;
691 [label=<gini = 0.0<br/>samples = 2<br/>value = [2, 0]<br/>class = tracking>, fillcolor="#e58139ff"] ;
689 -> 691 ;
692 [label=<gini = 0.0<br/>samples = 19<br/>value = [0, 19]<br/>class = non-tracking>, fillcolor="#399de5ff"] ;
674 -> 692 ;
693 [label=<cookies_number &le; 1.5<br/>gini = 0.4776<br/>samples = 279<br/>value = [110, 169]<br/>class = non-tracking>, fillcolor="#399de559"] ;
673 -> 693 ;
694 [label=<cookies_number &le; 0.5<br/>gini = 0.4615<br/>samples = 263<br/>value = [95, 168]<br/>class = non-tracking>, fillcolor="#399de56f"] ;
693 -> 694 ;
695 [label=<ETag &le; 0.5<br/>gini = 0.4675<br/>samples = 196<br/>value = [73, 123]<br/>class = non-tracking>, fillcolor="#399de568"] ;
694 -> 695 ;
696 [label=<gini = 0.4321<br/>samples = 19<br/>value = [6, 13]<br/>class = non-tracking>, fillcolor="#399de589"] ;
695 -> 696 ;
697 [label=<last-modified &le; 0.5<br/>gini = 0.4705<br/>samples = 177<br/>value = [67, 110]<br/>class = non-tracking>, fillcolor="#399de564"] ;
695 -> 697 ;
698 [label=<gini = 0.5<br/>samples = 4<br/>value = [2, 2]<br/>class = tracking>, fillcolor="#e5813900"] ;
697 -> 698 ;
699 [label=<gini = 0.4691<br/>samples = 173<br/>value = [65, 108]<br/>class = non-tracking>, fillcolor="#399de566"] ;
697 -> 699 ;
700 [label=<gini = 0.4411<br/>samples = 67<br/>value = [22, 45]<br/>class = non-tracking>, fillcolor="#399de582"] ;
694 -> 700 ;
701 [label=<ETag &le; 0.5<br/>gini = 0.1172<br/>samples = 16<br/>value = [15, 1]<br/>class = tracking>, fillcolor="#e58139ee"] ;
693 -> 701 ;
702 [label=<gini = 0.0<br/>samples = 4<br/>value = [4, 0]<br/>class = tracking>, fillcolor="#e58139ff"] ;
701 -> 702 ;
703 [label=<gini = 0.1528<br/>samples = 12<br/>value = [11, 1]<br/>class = tracking>, fillcolor="#e58139e8"] ;
701 -> 703 ;
704 [label=<type &le; 1.5<br/>gini = 0.4088<br/>samples = 13856<br/>value = [3969, 9887]<br/>class = non-tracking>, fillcolor="#399de599"] ;
584 -> 704 ;
705 [label=<last-modified &le; 0.5<br/>gini = 0.4822<br/>samples = 2105<br/>value = [854, 1251]<br/>class = non-tracking>, fillcolor="#399de551"] ;
704 -> 705 ;
706 [label=<gini = 0.0<br/>samples = 205<br/>value = [0, 205]<br/>class = non-tracking>, fillcolor="#399de5ff"] ;
705 -> 706 ;
707 [label=<cookies_number &le; 1.5<br/>gini = 0.4949<br/>samples = 1900<br/>value = [854, 1046]<br/>class = non-tracking>, fillcolor="#399de52f"] ;
705 -> 707 ;
708 [label=<set-cookie &le; 0.5<br/>gini = 0.4884<br/>samples = 1616<br/>value = [685, 931]<br/>class = non-tracking>, fillcolor="#399de543"] ;
707 -> 708 ;
709 [label=<cookies_number &le; 0.5<br/>gini = 0.4991<br/>samples = 585<br/>value = [280, 305]<br/>class = non-tracking>, fillcolor="#399de515"] ;
708 -> 709 ;
710 [label=<new_window &le; 0.5<br/>gini = 0.4898<br/>samples = 385<br/>value = [165, 220]<br/>class = non-tracking>, fillcolor="#399de540"] ;
709 -> 710 ;
711 [label=<gini = 0.0<br/>samples = 1<br/>value = [1, 0]<br/>class = tracking>, fillcolor="#e58139ff"] ;
710 -> 711 ;
712 [label=<gini = 0.4894<br/>samples = 384<br/>value = [164, 220]<br/>class = non-tracking>, fillcolor="#399de541"] ;
710 -> 712 ;
713 [label=<gini = 0.4888<br/>samples = 200<br/>value = [115, 85]<br/>class = tracking>, fillcolor="#e5813943"] ;
709 -> 713 ;
714 [label=<ETag &le; 0.5<br/>gini = 0.477<br/>samples = 1031<br/>value = [405, 626]<br/>class = non-tracking>, fillcolor="#399de55a"] ;
708 -> 714 ;
715 [label=<gini = 0.375<br/>samples = 4<br/>value = [3, 1]<br/>class = tracking>, fillcolor="#e58139aa"] ;
714 -> 715 ;
716 [label=<cookies_number &le; 0.5<br/>gini = 0.4764<br/>samples = 1027<br/>value = [402, 625]<br/>class = non-tracking>, fillcolor="#399de55b"] ;
714 -> 716 ;
717 [label=<gini = 0.4749<br/>samples = 719<br/>value = [279, 440]<br/>class = non-tracking>, fillcolor="#399de55d"] ;
716 -> 717 ;
718 [label=<gini = 0.4797<br/>samples = 308<br/>value = [123, 185]<br/>class = non-tracking>, fillcolor="#399de555"] ;
716 -> 718 ;
719 [label=<cookies_number &le; 2.5<br/>gini = 0.4819<br/>samples = 284<br/>value = [169, 115]<br/>class = tracking>, fillcolor="#e5813951"] ;
707 -> 719 ;
720 [label=<set-cookie &le; 0.5<br/>gini = 0.4263<br/>samples = 237<br/>value = [164, 73]<br/>class = tracking>, fillcolor="#e581398d"] ;
719 -> 720 ;
721 [label=<ETag &le; 0.5<br/>gini = 0.3457<br/>samples = 9<br/>value = [2, 7]<br/>class = non-tracking>, fillcolor="#399de5b6"] ;
720 -> 721 ;
722 [label=<gini = 0.4444<br/>samples = 3<br/>value = [1, 2]<br/>class = non-tracking>, fillcolor="#399de57f"] ;
721 -> 722 ;
723 [label=<gini = 0.2778<br/>samples = 6<br/>value = [1, 5]<br/>class = non-tracking>, fillcolor="#399de5cc"] ;
721 -> 723 ;
724 [label=<gini = 0.4114<br/>samples = 228<br/>value = [162, 66]<br/>class = tracking>, fillcolor="#e5813997"] ;
720 -> 724 ;
725 [label=<cookies_number &le; 6.5<br/>gini = 0.1901<br/>samples = 47<br/>value = [5, 42]<br/>class = non-tracking>, fillcolor="#399de5e1"] ;
719 -> 725 ;
726 [label=<cookies_number &le; 4.0<br/>gini = 0.1761<br/>samples = 41<br/>value = [4, 37]<br/>class = non-tracking>, fillcolor="#399de5e3"] ;
725 -> 726 ;
