digraph Tree {
node [shape=box] ;
0 [label="X[8] <= 0.5\ngini = 0.4973\nsamples = 34921\nvalue = [16169, 18752]"] ;
1 [label="X[22] <= 0.5\ngini = 0.4559\nsamples = 15661\nvalue = [10156, 5505]"] ;
0 -> 1 [labeldistance=2.5, labelangle=45, headlabel="True"] ;
2 [label="X[4] <= 0.5\ngini = 0.4089\nsamples = 8995\nvalue = [6417, 2578]"] ;
1 -> 2 ;
3 [label="X[21] <= 4.5\ngini = 0.2227\nsamples = 517\nvalue = [451, 66]"] ;
2 -> 3 ;
4 [label="X[18] <= 0.5\ngini = 0.1972\nsamples = 505\nvalue = [449, 56]"] ;
3 -> 4 ;
5 [label="X[11] <= 0.5\ngini = 0.173\nsamples = 481\nvalue = [435, 46]"] ;
4 -> 5 ;
6 [label="X[21] <= 0.5\ngini = 0.2114\nsamples = 383\nvalue = [337, 46]"] ;
5 -> 6 ;
7 [label="X[0] <= 0.5\ngini = 0.1927\nsamples = 361\nvalue = [322, 39]"] ;
6 -> 7 ;
8 [label="X[3] <= 0.5\ngini = 0.2005\nsamples = 345\nvalue = [306, 39]"] ;
7 -> 8 ;
9 [label="X[13] <= 2.0\ngini = 0.1965\nsamples = 335\nvalue = [298, 37]"] ;
8 -> 9 ;
10 [label="X[13] <= 0.5\ngini = 0.2049\nsamples = 302\nvalue = [267, 35]"] ;
9 -> 10 ;
11 [label="X[24] <= 0.5\ngini = 0.197\nsamples = 298\nvalue = [265, 33]"] ;
10 -> 11 ;
12 [label="X[19] <= 0.5\ngini = 0.1893\nsamples = 274\nvalue = [245, 29]"] ;
11 -> 12 ;
13 [label="gini = 0.1905\nsamples = 272\nvalue = [243, 29]"] ;
12 -> 13 ;
14 [label="gini = 0.0\nsamples = 2\nvalue = [2, 0]"] ;
12 -> 14 ;
15 [label="gini = 0.2778\nsamples = 24\nvalue = [20, 4]"] ;
11 -> 15 ;
16 [label="gini = 0.5\nsamples = 4\nvalue = [2, 2]"] ;
10 -> 16 ;
17 [label="gini = 0.1139\nsamples = 33\nvalue = [31, 2]"] ;
9 -> 17 ;
18 [label="X[13] <= 1.5\ngini = 0.32\nsamples = 10\nvalue = [8, 2]"] ;
8 -> 18 ;
19 [label="gini = 0.0\nsamples = 8\nvalue = [8, 0]"] ;
18 -> 19 ;
20 [label="gini = 0.0\nsamples = 2\nvalue = [0, 2]"] ;
18 -> 20 ;
21 [label="gini = 0.0\nsamples = 16\nvalue = [16, 0]"] ;
7 -> 21 ;
22 [label="X[21] <= 2.5\ngini = 0.4339\nsamples = 22\nvalue = [15, 7]"] ;
6 -> 22 ;
23 [label="X[21] <= 1.5\ngini = 0.4861\nsamples = 12\nvalue = [5, 7]"] ;
22 -> 23 ;
24 [label="X[24] <= 0.5\ngini = 0.4444\nsamples = 3\nvalue = [2, 1]"] ;
23 -> 24 ;
25 [label="gini = 0.0\nsamples = 2\nvalue = [2, 0]"] ;
24 -> 25 ;
26 [label="gini = 0.0\nsamples = 1\nvalue = [0, 1]"] ;
24 -> 26 ;
27 [label="gini = 0.4444\nsamples = 9\nvalue = [3, 6]"] ;
23 -> 27 ;
28 [label="gini = 0.0\nsamples = 10\nvalue = [10, 0]"] ;
22 -> 28 ;
29 [label="gini = 0.0\nsamples = 98\nvalue = [98, 0]"] ;
5 -> 29 ;
30 [label="X[21] <= 0.5\ngini = 0.4861\nsamples = 24\nvalue = [14, 10]"] ;
4 -> 30 ;
31 [label="X[0] <= 0.5\ngini = 0.5\nsamples = 20\nvalue = [10, 10]"] ;
30 -> 31 ;
32 [label="X[11] <= 0.5\ngini = 0.4688\nsamples = 16\nvalue = [10, 6]"] ;
31 -> 32 ;
33 [label="gini = 0.5\nsamples = 4\nvalue = [2, 2]"] ;
32 -> 33 ;
34 [label="gini = 0.4444\nsamples = 12\nvalue = [8, 4]"] ;
32 -> 34 ;
35 [label="gini = 0.0\nsamples = 4\nvalue = [0, 4]"] ;
31 -> 35 ;
36 [label="gini = 0.0\nsamples = 4\nvalue = [4, 0]"] ;
30 -> 36 ;
37 [label="X[21] <= 6.0\ngini = 0.2778\nsamples = 12\nvalue = [2, 10]"] ;
3 -> 37 ;
38 [label="gini = 0.0\nsamples = 6\nvalue = [0, 6]"] ;
37 -> 38 ;
39 [label="X[21] <= 7.5\ngini = 0.4444\nsamples = 6\nvalue = [2, 4]"] ;
37 -> 39 ;
40 [label="gini = 0.0\nsamples = 2\nvalue = [2, 0]"] ;
39 -> 40 ;
41 [label="gini = 0.0\nsamples = 4\nvalue = [0, 4]"] ;
39 -> 41 ;
42 [label="X[5] <= 0.5\ngini = 0.417\nsamples = 8478\nvalue = [5966, 2512]"] ;
2 -> 42 ;
43 [label="X[24] <= 0.5\ngini = 0.3995\nsamples = 87\nvalue = [24, 63]"] ;
42 -> 43 ;
44 [label="X[19] <= 0.5\ngini = 0.0634\nsamples = 61\nvalue = [2, 59]"] ;
43 -> 44 ;
45 [label="X[0] <= 0.5\ngini = 0.0339\nsamples = 58\nvalue = [1, 57]"] ;
44 -> 45 ;
46 [label="gini = 0.0\nsamples = 33\nvalue = [0, 33]"] ;
45 -> 46 ;
47 [label="X[13] <= 1.0\ngini = 0.0768\nsamples = 25\nvalue = [1, 24]"] ;
45 -> 47 ;
48 [label="gini = 0.1172\nsamples = 16\nvalue = [1, 15]"] ;
47 -> 48 ;
49 [label="gini = 0.0\nsamples = 9\nvalue = [0, 9]"] ;
47 -> 49 ;
50 [label="X[21] <= 1.0\ngini = 0.4444\nsamples = 3\nvalue = [1, 2]"] ;
44 -> 50 ;
51 [label="gini = 0.0\nsamples = 2\nvalue = [0, 2]"] ;
50 -> 51 ;
52 [label="gini = 0.0\nsamples = 1\nvalue = [1, 0]"] ;
50 -> 52 ;
53 [label="X[13] <= 2.5\ngini = 0.2604\nsamples = 26\nvalue = [22, 4]"] ;
43 -> 53 ;
54 [label="X[3] <= 0.5\ngini = 0.1653\nsamples = 22\nvalue = [20, 2]"] ;
53 -> 54 ;
55 [label="gini = 0.0\nsamples = 6\nvalue = [6, 0]"] ;
54 -> 55 ;
56 [label="gini = 0.2188\nsamples = 16\nvalue = [14, 2]"] ;
54 -> 56 ;
57 [label="X[3] <= 0.5\ngini = 0.5\nsamples = 4\nvalue = [2, 2]"] ;
53 -> 57 ;
58 [label="gini = 0.0\nsamples = 2\nvalue = [2, 0]"] ;
57 -> 58 ;
59 [label="gini = 0.0\nsamples = 2\nvalue = [0, 2]"] ;
57 -> 59 ;
60 [label="X[21] <= 0.5\ngini = 0.4134\nsamples = 8391\nvalue = [5942, 2449]"] ;
42 -> 60 ;
61 [label="X[11] <= 0.5\ngini = 0.4299\nsamples = 5690\nvalue = [3910, 1780]"] ;
60 -> 61 ;
62 [label="X[3] <= 0.5\ngini = 0.3484\nsamples = 1362\nvalue = [1056, 306]"] ;
61 -> 62 ;
63 [label="X[13] <= 2.5\ngini = 0.2435\nsamples = 437\nvalue = [375, 62]"] ;
62 -> 63 ;
64 [label="X[13] <= 1.5\ngini = 0.3031\nsamples = 290\nvalue = [236, 54]"] ;
63 -> 64 ;
65 [label="X[0] <= 0.5\ngini = 0.0644\nsamples = 90\nvalue = [87, 3]"] ;
64 -> 65 ;
66 [label="X[13] <= 0.5\ngini = 0.0235\nsamples = 84\nvalue = [83, 1]"] ;
65 -> 66 ;
67 [label="X[24] <= 0.5\ngini = 0.1327\nsamples = 14\nvalue = [13, 1]"] ;
66 -> 67 ;
68 [label="gini = 0.2449\nsamples = 7\nvalue = [6, 1]"] ;
67 -> 68 ;
69 [label="gini = 0.0\nsamples = 7\nvalue = [7, 0]"] ;
67 -> 69 ;
70 [label="gini = 0.0\nsamples = 70\nvalue = [70, 0]"] ;
66 -> 70 ;
71 [label="X[13] <= 0.5\ngini = 0.4444\nsamples = 6\nvalue = [4, 2]"] ;
65 -> 71 ;
72 [label="gini = 0.0\nsamples = 2\nvalue = [2, 0]"] ;
71 -> 72 ;
73 [label="gini = 0.5\nsamples = 4\nvalue = [2, 2]"] ;
71 -> 73 ;
74 [label="X[19] <= 0.5\ngini = 0.38\nsamples = 200\nvalue = [149, 51]"] ;
64 -> 74 ;
75 [label="X[0] <= 0.5\ngini = 0.3737\nsamples = 197\nvalue = [148, 49]"] ;
74 -> 75 ;
76 [label="X[24] <= 0.5\ngini = 0.3922\nsamples = 112\nvalue = [82, 30]"] ;
75 -> 76 ;
77 [label="gini = 0.3324\nsamples = 19\nvalue = [15, 4]"] ;
76 -> 77 ;
78 [label="gini = 0.4028\nsamples = 93\nvalue = [67, 26]"] ;
76 -> 78 ;
79 [label="X[24] <= 0.5\ngini = 0.3471\nsamples = 85\nvalue = [66, 19]"] ;
75 -> 79 ;
80 [label="gini = 0.0\nsamples = 1\nvalue = [1, 0]"] ;
79 -> 80 ;
81 [label="gini = 0.3501\nsamples = 84\nvalue = [65, 19]"] ;
79 -> 81 ;
82 [label="gini = 0.4444\nsamples = 3\nvalue = [1, 2]"] ;
74 -> 82 ;
83 [label="X[0] <= 0.5\ngini = 0.1029\nsamples = 147\nvalue = [139, 8]"] ;
63 -> 83 ;
84 [label="X[24] <= 0.5\ngini = 0.0799\nsamples = 72\nvalue = [69, 3]"] ;
83 -> 84 ;
85 [label="gini = 0.0689\nsamples = 28\nvalue = [27, 1]"] ;
84 -> 85 ;
86 [label="gini = 0.0868\nsamples = 44\nvalue = [42, 2]"] ;
84 -> 86 ;
87 [label="X[24] <= 0.5\ngini = 0.1244\nsamples = 75\nvalue = [70, 5]"] ;
83 -> 87 ;
88 [label="gini = 0.32\nsamples = 5\nvalue = [4, 1]"] ;
87 -> 88 ;
89 [label="gini = 0.1078\nsamples = 70\nvalue = [66, 4]"] ;
87 -> 89 ;
90 [label="X[13] <= 1.0\ngini = 0.3884\nsamples = 925\nvalue = [681, 244]"] ;
62 -> 90 ;
91 [label="gini = 0.0\nsamples = 4\nvalue = [0, 4]"] ;
90 -> 91 ;
92 [label="X[0] <= 0.5\ngini = 0.3854\nsamples = 921\nvalue = [681, 240]"] ;
90 -> 92 ;
93 [label="X[13] <= 2.5\ngini = 0.329\nsamples = 342\nvalue = [271, 71]"] ;
92 -> 93 ;
94 [label="X[24] <= 0.5\ngini = 0.1913\nsamples = 168\nvalue = [150, 18]"] ;
93 -> 94 ;
95 [label="gini = 0.1478\nsamples = 112\nvalue = [103, 9]"] ;
94 -> 95 ;
96 [label="gini = 0.2698\nsamples = 56\nvalue = [47, 9]"] ;
94 -> 96 ;
97 [label="X[24] <= 0.5\ngini = 0.4236\nsamples = 174\nvalue = [121, 53]"] ;
93 -> 97 ;
98 [label="gini = 0.4651\nsamples = 106\nvalue = [67, 39]"] ;
97 -> 98 ;
99 [label="gini = 0.327\nsamples = 68\nvalue = [54, 14]"] ;
97 -> 99 ;
100 [label="X[13] <= 2.5\ngini = 0.4134\nsamples = 579\nvalue = [410, 169]"] ;
92 -> 100 ;
101 [label="X[24] <= 0.5\ngini = 0.4564\nsamples = 349\nvalue = [226, 123]"] ;
100 -> 101 ;
102 [label="gini = 0.4628\nsamples = 44\nvalue = [28, 16]"] ;
101 -> 102 ;
103 [label="gini = 0.4555\nsamples = 305\nvalue = [198, 107]"] ;
101 -> 103 ;
104 [label="X[24] <= 0.5\ngini = 0.32\nsamples = 230\nvalue = [184, 46]"] ;
100 -> 104 ;
105 [label="gini = 0.2019\nsamples = 79\nvalue = [70, 9]"] ;
104 -> 105 ;
106 [label="gini = 0.37\nsamples = 151\nvalue = [114, 37]"] ;
104 -> 106 ;
107 [label="X[24] <= 0.5\ngini = 0.4492\nsamples = 4328\nvalue = [2854, 1474]"] ;
61 -> 107 ;
108 [label="X[0] <= 0.5\ngini = 0.4809\nsamples = 1656\nvalue = [990, 666]"] ;
107 -> 108 ;
109 [label="X[19] <= 0.5\ngini = 0.4928\nsamples = 652\nvalue = [287, 365]"] ;
108 -> 109 ;
110 [label="X[13] <= 2.5\ngini = 0.4638\nsamples = 52\nvalue = [33, 19]"] ;
109 -> 110 ;
111 [label="X[3] <= 0.5\ngini = 0.5\nsamples = 30\nvalue = [15, 15]"] ;
110 -> 111 ;
112 [label="X[18] <= 0.5\ngini = 0.4082\nsamples = 7\nvalue = [5, 2]"] ;
111 -> 112 ;
113 [label="gini = 0.5\nsamples = 4\nvalue = [2, 2]"] ;
112 -> 113 ;
114 [label="gini = 0.0\nsamples = 3\nvalue = [3, 0]"] ;
112 -> 114 ;
115 [label="X[18] <= 0.5\ngini = 0.4915\nsamples = 23\nvalue = [10, 13]"] ;
111 -> 115 ;
116 [label="X[13] <= 1.0\ngini = 0.4989\nsamples = 21\nvalue = [10, 11]"] ;
115 -> 116 ;
117 [label="gini = 0.0\nsamples = 1\nvalue = [1, 0]"] ;
116 -> 117 ;
118 [label="gini = 0.495\nsamples = 20\nvalue = [9, 11]"] ;
116 -> 118 ;
119 [label="gini = 0.0\nsamples = 2\nvalue = [0, 2]"] ;
115 -> 119 ;
120 [label="X[18] <= 0.5\ngini = 0.2975\nsamples = 22\nvalue = [18, 4]"] ;
110 -> 120 ;
121 [label="gini = 0.32\nsamples = 10\nvalue = [8, 2]"] ;
120 -> 121 ;
122 [label="gini = 0.2778\nsamples = 12\nvalue = [10, 2]"] ;
120 -> 122 ;
123 [label="X[18] <= 0.5\ngini = 0.4882\nsamples = 600\nvalue = [254, 346]"] ;
109 -> 123 ;
124 [label="X[13] <= 2.5\ngini = 0.4946\nsamples = 540\nvalue = [242, 298]"] ;
123 -> 124 ;
125 [label="X[3] <= 0.5\ngini = 0.5\nsamples = 215\nvalue = [108, 107]"] ;
124 -> 125 ;
126 [label="X[13] <= 1.0\ngini = 0.4701\nsamples = 45\nvalue = [17, 28]"] ;
125 -> 126 ;
127 [label="gini = 0.32\nsamples = 5\nvalue = [4, 1]"] ;
126 -> 127 ;
128 [label="gini = 0.4387\nsamples = 40\nvalue = [13, 27]"] ;
126 -> 128 ;
129 [label="X[13] <= 0.5\ngini = 0.4975\nsamples = 170\nvalue = [91, 79]"] ;
125 -> 129 ;
130 [label="gini = 0.3457\nsamples = 9\nvalue = [2, 7]"] ;
129 -> 130 ;
131 [label="X[13] <= 1.5\ngini = 0.4944\nsamples = 161\nvalue = [89, 72]"] ;
129 -> 131 ;
132 [label="gini = 0.0\nsamples = 1\nvalue = [1, 0]"] ;
131 -> 132 ;
133 [label="gini = 0.495\nsamples = 160\nvalue = [88, 72]"] ;
131 -> 133 ;
134 [label="X[3] <= 0.5\ngini = 0.4846\nsamples = 325\nvalue = [134, 191]"] ;
124 -> 134 ;
135 [label="gini = 0.2975\nsamples = 22\nvalue = [18, 4]"] ;
134 -> 135 ;
136 [label="gini = 0.4725\nsamples = 303\nvalue = [116, 187]"] ;
134 -> 136 ;
137 [label="X[13] <= 2.5\ngini = 0.32\nsamples = 60\nvalue = [12, 48]"] ;
123 -> 137 ;
138 [label="X[3] <= 0.5\ngini = 0.2008\nsamples = 53\nvalue = [6, 47]"] ;
137 -> 138 ;
139 [label="gini = 0.0\nsamples = 2\nvalue = [0, 2]"] ;
138 -> 139 ;
140 [label="gini = 0.2076\nsamples = 51\nvalue = [6, 45]"] ;
138 -> 140 ;
141 [label="gini = 0.2449\nsamples = 7\nvalue = [6, 1]"] ;
137 -> 141 ;
142 [label="X[19] <= 0.5\ngini = 0.4198\nsamples = 1004\nvalue = [703, 301]"] ;
108 -> 142 ;
143 [label="X[13] <= 2.5\ngini = 0.421\nsamples = 83\nvalue = [25, 58]"] ;
142 -> 143 ;
144 [label="X[18] <= 0.5\ngini = 0.3539\nsamples = 74\nvalue = [17, 57]"] ;
143 -> 144 ;
145 [label="X[3] <= 0.5\ngini = 0.32\nsamples = 60\nvalue = [12, 48]"] ;
144 -> 145 ;
146 [label="gini = 0.2188\nsamples = 8\nvalue = [1, 7]"] ;
145 -> 146 ;
147 [label="X[13] <= 1.0\ngini = 0.3336\nsamples = 52\nvalue = [11, 41]"] ;
145 -> 147 ;
148 [label="gini = 0.375\nsamples = 8\nvalue = [2, 6]"] ;
147 -> 148 ;
149 [label="gini = 0.3254\nsamples = 44\nvalue = [9, 35]"] ;
147 -> 149 ;
150 [label="X[13] <= 1.0\ngini = 0.4592\nsamples = 14\nvalue = [5, 9]"] ;
144 -> 150 ;
151 [label="gini = 0.0\nsamples = 4\nvalue = [0, 4]"] ;
150 -> 151 ;
152 [label="gini = 0.5\nsamples = 10\nvalue = [5, 5]"] ;
150 -> 152 ;
153 [label="gini = 0.1975\nsamples = 9\nvalue = [8, 1]"] ;
143 -> 153 ;
154 [label="X[13] <= 1.5\ngini = 0.3885\nsamples = 921\nvalue = [678, 243]"] ;
142 -> 154 ;
155 [label="X[3] <= 0.5\ngini = 0.2515\nsamples = 61\nvalue = [52, 9]"] ;
154 -> 155 ;
156 [label="gini = 0.0\nsamples = 13\nvalue = [13, 0]"] ;
155 -> 156 ;
157 [label="X[18] <= 0.5\ngini = 0.3047\nsamples = 48\nvalue = [39, 9]"] ;
155 -> 157 ;
158 [label="gini = 0.2778\nsamples = 42\nvalue = [35, 7]"] ;
157 -> 158 ;
159 [label="gini = 0.4444\nsamples = 6\nvalue = [4, 2]"] ;
157 -> 159 ;
160 [label="X[18] <= 0.5\ngini = 0.3961\nsamples = 860\nvalue = [626, 234]"] ;
154 -> 160 ;
161 [label="X[13] <= 2.5\ngini = 0.3852\nsamples = 622\nvalue = [460, 162]"] ;
160 -> 161 ;
162 [label="X[3] <= 0.5\ngini = 0.3343\nsamples = 443\nvalue = [349, 94]"] ;
161 -> 162 ;
163 [label="gini = 0.48\nsamples = 5\nvalue = [2, 3]"] ;
162 -> 163 ;
164 [label="gini = 0.3292\nsamples = 438\nvalue = [347, 91]"] ;
162 -> 164 ;
165 [label="gini = 0.4711\nsamples = 179\nvalue = [111, 68]"] ;
161 -> 165 ;
166 [label="X[13] <= 2.5\ngini = 0.422\nsamples = 238\nvalue = [166, 72]"] ;
160 -> 166 ;
167 [label="X[3] <= 0.5\ngini = 0.4738\nsamples = 179\nvalue = [110, 69]"] ;
166 -> 167 ;
168 [label="gini = 0.375\nsamples = 8\nvalue = [6, 2]"] ;
167 -> 168 ;
169 [label="gini = 0.4766\nsamples = 171\nvalue = [104, 67]"] ;
167 -> 169 ;
170 [label="X[3] <= 0.5\ngini = 0.0965\nsamples = 59\nvalue = [56, 3]"] ;
166 -> 170 ;
171 [label="gini = 0.0\nsamples = 15\nvalue = [15, 0]"] ;
170 -> 171 ;
172 [label="gini = 0.1271\nsamples = 44\nvalue = [41, 3]"] ;
170 -> 172 ;
173 [label="X[3] <= 0.5\ngini = 0.4219\nsamples = 2672\nvalue = [1864, 808]"] ;
107 -> 173 ;
174 [label="X[13] <= 2.5\ngini = 0.487\nsamples = 410\nvalue = [238, 172]"] ;
173 -> 174 ;
175 [label="X[13] <= 1.5\ngini = 0.3914\nsamples = 251\nvalue = [184, 67]"] ;
174 -> 175 ;
176 [label="X[19] <= 0.5\ngini = 0.0907\nsamples = 21\nvalue = [20, 1]"] ;
175 -> 176 ;
177 [label="X[0] <= 0.5\ngini = 0.1975\nsamples = 9\nvalue = [8, 1]"] ;
176 -> 177 ;
178 [label="gini = 0.0\nsamples = 6\nvalue = [6, 0]"] ;
177 -> 178 ;
179 [label="X[13] <= 0.5\ngini = 0.4444\nsamples = 3\nvalue = [2, 1]"] ;
177 -> 179 ;
180 [label="gini = 0.0\nsamples = 2\nvalue = [2, 0]"] ;
179 -> 180 ;
181 [label="gini = 0.0\nsamples = 1\nvalue = [0, 1]"] ;
179 -> 181 ;
182 [label="gini = 0.0\nsamples = 12\nvalue = [12, 0]"] ;
176 -> 182 ;
183 [label="X[19] <= 0.5\ngini = 0.4092\nsamples = 230\nvalue = [164, 66]"] ;
175 -> 183 ;
184 [label="X[0] <= 0.5\ngini = 0.3599\nsamples = 34\nvalue = [26, 8]"] ;
183 -> 184 ;
185 [label="gini = 0.0\nsamples = 18\nvalue = [18, 0]"] ;
184 -> 185 ;
186 [label="gini = 0.5\nsamples = 16\nvalue = [8, 8]"] ;
184 -> 186 ;
187 [label="X[0] <= 0.5\ngini = 0.4167\nsamples = 196\nvalue = [138, 58]"] ;
183 -> 187 ;
188 [label="gini = 0.4898\nsamples = 35\nvalue = [20, 15]"] ;
187 -> 188 ;
189 [label="gini = 0.3915\nsamples = 161\nvalue = [118, 43]"] ;
187 -> 189 ;
190 [label="X[0] <= 0.5\ngini = 0.4486\nsamples = 159\nvalue = [54, 105]"] ;
174 -> 190 ;
191 [label="X[19] <= 0.5\ngini = 0.352\nsamples = 136\nvalue = [31, 105]"] ;
190 -> 191 ;
192 [label="gini = 0.0\nsamples = 9\nvalue = [9, 0]"] ;
191 -> 192 ;
193 [label="gini = 0.2864\nsamples = 127\nvalue = [22, 105]"] ;
191 -> 193 ;
194 [label="gini = 0.0\nsamples = 23\nvalue = [23, 0]"] ;
190 -> 194 ;
195 [label="X[0] <= 0.5\ngini = 0.4042\nsamples = 2262\nvalue = [1626, 636]"] ;
173 -> 195 ;
196 [label="X[13] <= 2.5\ngini = 0.2901\nsamples = 784\nvalue = [646, 138]"] ;
195 -> 196 ;
197 [label="X[13] <= 1.5\ngini = 0.3163\nsamples = 589\nvalue = [473, 116]"] ;
196 -> 197 ;
198 [label="gini = 0.0\nsamples = 6\nvalue = [6, 0]"] ;
197 -> 198 ;
199 [label="X[18] <= 0.5\ngini = 0.3188\nsamples = 583\nvalue = [467, 116]"] ;
197 -> 199 ;
200 [label="X[19] <= 0.5\ngini = 0.3208\nsamples = 578\nvalue = [462, 116]"] ;
199 -> 200 ;
201 [label="gini = 0.2778\nsamples = 6\nvalue = [5, 1]"] ;
200 -> 201 ;
202 [label="gini = 0.3213\nsamples = 572\nvalue = [457, 115]"] ;
200 -> 202 ;
203 [label="gini = 0.0\nsamples = 5\nvalue = [5, 0]"] ;
199 -> 203 ;
204 [label="X[19] <= 0.5\ngini = 0.2002\nsamples = 195\nvalue = [173, 22]"] ;
196 -> 204 ;
205 [label="gini = 0.0\nsamples = 5\nvalue = [5, 0]"] ;
204 -> 205 ;
206 [label="gini = 0.2048\nsamples = 190\nvalue = [168, 22]"] ;
204 -> 206 ;
207 [label="X[13] <= 1.5\ngini = 0.4468\nsamples = 1478\nvalue = [980, 498]"] ;
195 -> 207 ;
208 [label="X[18] <= 0.5\ngini = 0.3488\nsamples = 120\nvalue = [93, 27]"] ;
207 -> 208 ;
209 [label="X[13] <= 0.5\ngini = 0.3704\nsamples = 110\nvalue = [83, 27]"] ;
208 -> 209 ;
210 [label="gini = 0.0\nsamples = 2\nvalue = [2, 0]"] ;
209 -> 210 ;
211 [label="gini = 0.375\nsamples = 108\nvalue = [81, 27]"] ;
209 -> 211 ;
212 [label="gini = 0.0\nsamples = 10\nvalue = [10, 0]"] ;
208 -> 212 ;
213 [label="X[13] <= 2.5\ngini = 0.4531\nsamples = 1358\nvalue = [887, 471]"] ;
207 -> 213 ;
214 [label="X[18] <= 0.5\ngini = 0.4633\nsamples = 1119\nvalue = [711, 408]"] ;
213 -> 214 ;
215 [label="X[19] <= 0.5\ngini = 0.4815\nsamples = 760\nvalue = [453, 307]"] ;
214 -> 215 ;
216 [label="gini = 0.4983\nsamples = 102\nvalue = [54, 48]"] ;
215 -> 216 ;
217 [label="gini = 0.4774\nsamples = 658\nvalue = [399, 259]"] ;
215 -> 217 ;
218 [label="X[19] <= 0.5\ngini = 0.4044\nsamples = 359\nvalue = [258, 101]"] ;
214 -> 218 ;
219 [label="gini = 0.375\nsamples = 16\nvalue = [4, 12]"] ;
218 -> 219 ;
220 [label="gini = 0.3843\nsamples = 343\nvalue = [254, 89]"] ;
218 -> 220 ;
221 [label="X[18] <= 0.5\ngini = 0.3882\nsamples = 239\nvalue = [176, 63]"] ;
213 -> 221 ;
222 [label="X[19] <= 0.5\ngini = 0.3367\nsamples = 196\nvalue = [154, 42]"] ;
221 -> 222 ;
223 [label="gini = 0.1551\nsamples = 59\nvalue = [54, 5]"] ;
222 -> 223 ;
224 [label="gini = 0.3943\nsamples = 137\nvalue = [100, 37]"] ;
222 -> 224 ;
225 [label="X[19] <= 0.5\ngini = 0.4997\nsamples = 43\nvalue = [22, 21]"] ;
221 -> 225 ;
226 [label="gini = 0.0\nsamples = 12\nvalue = [0, 12]"] ;
225 -> 226 ;
227 [label="gini = 0.4121\nsamples = 31\nvalue = [22, 9]"] ;
225 -> 227 ;
228 [label="X[19] <= 0.5\ngini = 0.3727\nsamples = 2701\nvalue = [2032, 669]"] ;
60 -> 228 ;
229 [label="X[24] <= 0.5\ngini = 0.4694\nsamples = 287\nvalue = [179, 108]"] ;
228 -> 229 ;
230 [label="X[3] <= 0.5\ngini = 0.3851\nsamples = 73\nvalue = [19, 54]"] ;
229 -> 230 ;
231 [label="X[13] <= 2.5\ngini = 0.32\nsamples = 10\nvalue = [8, 2]"] ;
230 -> 231 ;
232 [label="gini = 0.48\nsamples = 5\nvalue = [3, 2]"] ;
231 -> 232 ;
233 [label="gini = 0.0\nsamples = 5\nvalue = [5, 0]"] ;
231 -> 233 ;
234 [label="X[21] <= 1.5\ngini = 0.2882\nsamples = 63\nvalue = [11, 52]"] ;
230 -> 234 ;
235 [label="X[13] <= 2.5\ngini = 0.4444\nsamples = 12\nvalue = [4, 8]"] ;
234 -> 235 ;
236 [label="gini = 0.0\nsamples = 2\nvalue = [0, 2]"] ;
235 -> 236 ;
237 [label="gini = 0.48\nsamples = 10\nvalue = [4, 6]"] ;
235 -> 237 ;
238 [label="X[13] <= 2.5\ngini = 0.2368\nsamples = 51\nvalue = [7, 44]"] ;
234 -> 238 ;
239 [label="X[13] <= 1.0\ngini = 0.3496\nsamples = 31\nvalue = [7, 24]"] ;
238 -> 239 ;
240 [label="gini = 0.4444\nsamples = 3\nvalue = [1, 2]"] ;
239 -> 240 ;
241 [label="gini = 0.3367\nsamples = 28\nvalue = [6, 22]"] ;
239 -> 241 ;
242 [label="gini = 0.0\nsamples = 20\nvalue = [0, 20]"] ;
238 -> 242 ;
243 [label="X[21] <= 2.5\ngini = 0.3773\nsamples = 214\nvalue = [160, 54]"] ;
229 -> 243 ;
244 [label="X[21] <= 1.5\ngini = 0.3408\nsamples = 202\nvalue = [158, 44]"] ;
243 -> 244 ;
245 [label="X[3] <= 0.5\ngini = 0.3546\nsamples = 178\nvalue = [137, 41]"] ;
244 -> 245 ;
246 [label="X[11] <= 0.5\ngini = 0.2854\nsamples = 58\nvalue = [48, 10]"] ;
245 -> 246 ;
247 [label="X[13] <= 2.5\ngini = 0.1748\nsamples = 31\nvalue = [28, 3]"] ;
246 -> 247 ;
248 [label="gini = 0.1244\nsamples = 15\nvalue = [14, 1]"] ;
247 -> 248 ;
249 [label="gini = 0.2188\nsamples = 16\nvalue = [14, 2]"] ;
247 -> 249 ;
250 [label="gini = 0.3841\nsamples = 27\nvalue = [20, 7]"] ;
246 -> 250 ;
251 [label="X[13] <= 1.5\ngini = 0.3832\nsamples = 120\nvalue = [89, 31]"] ;
245 -> 251 ;
252 [label="gini = 0.0\nsamples = 1\nvalue = [1, 0]"] ;
251 -> 252 ;
253 [label="X[13] <= 2.5\ngini = 0.3853\nsamples = 119\nvalue = [88, 31]"] ;
251 -> 253 ;
254 [label="X[11] <= 0.5\ngini = 0.3991\nsamples = 69\nvalue = [50, 19]"] ;
253 -> 254 ;
255 [label="gini = 0.3835\nsamples = 58\nvalue = [43, 15]"] ;
254 -> 255 ;
256 [label="gini = 0.4628\nsamples = 11\nvalue = [7, 4]"] ;
254 -> 256 ;
257 [label="X[11] <= 0.5\ngini = 0.3648\nsamples = 50\nvalue = [38, 12]"] ;
253 -> 257 ;
258 [label="gini = 0.375\nsamples = 48\nvalue = [36, 12]"] ;
257 -> 258 ;
259 [label="gini = 0.0\nsamples = 2\nvalue = [2, 0]"] ;
257 -> 259 ;
260 [label="X[13] <= 2.5\ngini = 0.2188\nsamples = 24\nvalue = [21, 3]"] ;
244 -> 260 ;
261 [label="X[11] <= 0.5\ngini = 0.3367\nsamples = 14\nvalue = [11, 3]"] ;
260 -> 261 ;
262 [label="gini = 0.4444\nsamples = 3\nvalue = [2, 1]"] ;
261 -> 262 ;
263 [label="gini = 0.2975\nsamples = 11\nvalue = [9, 2]"] ;
261 -> 263 ;
264 [label="gini = 0.0\nsamples = 10\nvalue = [10, 0]"] ;
260 -> 264 ;
265 [label="X[3] <= 0.5\ngini = 0.2778\nsamples = 12\nvalue = [2, 10]"] ;
243 -> 265 ;
266 [label="gini = 0.0\nsamples = 9\nvalue = [0, 9]"] ;
265 -> 266 ;
267 [label="gini = 0.4444\nsamples = 3\nvalue = [2, 1]"] ;
265 -> 267 ;
268 [label="X[18] <= 0.5\ngini = 0.3568\nsamples = 2414\nvalue = [1853, 561]"] ;
228 -> 268 ;
269 [label="X[3] <= 0.5\ngini = 0.3151\nsamples = 1567\nvalue = [1260, 307]"] ;
268 -> 269 ;
270 [label="X[21] <= 2.5\ngini = 0.2149\nsamples = 294\nvalue = [258, 36]"] ;
269 -> 270 ;
271 [label="X[21] <= 1.5\ngini = 0.1364\nsamples = 231\nvalue = [214, 17]"] ;
270 -> 271 ;
272 [label="X[24] <= 0.5\ngini = 0.1889\nsamples = 161\nvalue = [144, 17]"] ;
271 -> 272 ;
273 [label="X[13] <= 2.5\ngini = 0.4444\nsamples = 6\nvalue = [4, 2]"] ;
272 -> 273 ;
274 [label="gini = 0.48\nsamples = 5\nvalue = [3, 2]"] ;
273 -> 274 ;
275 [label="gini = 0.0\nsamples = 1\nvalue = [1, 0]"] ;
273 -> 275 ;
276 [label="X[13] <= 2.5\ngini = 0.1748\nsamples = 155\nvalue = [140, 15]"] ;
272 -> 276 ;
277 [label="gini = 0.2166\nsamples = 89\nvalue = [78, 11]"] ;
276 -> 277 ;
278 [label="gini = 0.1139\nsamples = 66\nvalue = [62, 4]"] ;
276 -> 278 ;
279 [label="gini = 0.0\nsamples = 70\nvalue = [70, 0]"] ;
271 -> 279 ;
280 [label="X[21] <= 3.5\ngini = 0.4213\nsamples = 63\nvalue = [44, 19]"] ;
270 -> 280 ;
281 [label="gini = 0.0\nsamples = 2\nvalue = [0, 2]"] ;
280 -> 281 ;
282 [label="X[13] <= 2.5\ngini = 0.402\nsamples = 61\nvalue = [44, 17]"] ;
280 -> 282 ;
283 [label="X[13] <= 1.5\ngini = 0.4398\nsamples = 49\nvalue = [33, 16]"] ;
282 -> 283 ;
284 [label="gini = 0.0\nsamples = 6\nvalue = [6, 0]"] ;
283 -> 284 ;
285 [label="X[21] <= 4.5\ngini = 0.4673\nsamples = 43\nvalue = [27, 16]"] ;
283 -> 285 ;
286 [label="gini = 0.4444\nsamples = 3\nvalue = [1, 2]"] ;
285 -> 286 ;
287 [label="gini = 0.455\nsamples = 40\nvalue = [26, 14]"] ;
285 -> 287 ;
288 [label="X[24] <= 0.5\ngini = 0.1528\nsamples = 12\nvalue = [11, 1]"] ;
282 -> 288 ;
289 [label="gini = 0.0\nsamples = 2\nvalue = [2, 0]"] ;
288 -> 289 ;
290 [label="gini = 0.18\nsamples = 10\nvalue = [9, 1]"] ;
288 -> 290 ;
291 [label="X[21] <= 4.5\ngini = 0.3351\nsamples = 1273\nvalue = [1002, 271]"] ;
269 -> 291 ;
292 [label="X[13] <= 2.5\ngini = 0.3626\nsamples = 1097\nvalue = [836, 261]"] ;
291 -> 292 ;
293 [label="X[24] <= 0.5\ngini = 0.318\nsamples = 943\nvalue = [756, 187]"] ;
292 -> 293 ;
294 [label="X[21] <= 1.5\ngini = 0.1783\nsamples = 374\nvalue = [337, 37]"] ;
293 -> 294 ;
295 [label="gini = 0.3394\nsamples = 60\nvalue = [47, 13]"] ;
294 -> 295 ;
296 [label="X[13] <= 0.5\ngini = 0.1412\nsamples = 314\nvalue = [290, 24]"] ;
294 -> 296 ;
297 [label="gini = 0.4444\nsamples = 3\nvalue = [1, 2]"] ;
296 -> 297 ;
298 [label="X[21] <= 2.5\ngini = 0.1315\nsamples = 311\nvalue = [289, 22]"] ;
296 -> 298 ;
299 [label="gini = 0.1046\nsamples = 271\nvalue = [256, 15]"] ;
298 -> 299 ;
300 [label="X[13] <= 1.5\ngini = 0.2887\nsamples = 40\nvalue = [33, 7]"] ;
298 -> 300 ;
301 [label="gini = 0.0\nsamples = 29\nvalue = [29, 0]"] ;
300 -> 301 ;
302 [label="X[21] <= 3.5\ngini = 0.4628\nsamples = 11\nvalue = [4, 7]"] ;
300 -> 302 ;
303 [label="gini = 0.32\nsamples = 5\nvalue = [4, 1]"] ;
302 -> 303 ;
304 [label="gini = 0.0\nsamples = 6\nvalue = [0, 6]"] ;
302 -> 304 ;
305 [label="X[21] <= 1.5\ngini = 0.3882\nsamples = 569\nvalue = [419, 150]"] ;
293 -> 305 ;
306 [label="X[13] <= 1.5\ngini = 0.3691\nsamples = 475\nvalue = [359, 116]"] ;
305 -> 306 ;
307 [label="gini = 0.0\nsamples = 4\nvalue = [4, 0]"] ;
306 -> 307 ;
308 [label="gini = 0.3713\nsamples = 471\nvalue = [355, 116]"] ;
306 -> 308 ;
309 [label="X[21] <= 2.5\ngini = 0.4617\nsamples = 94\nvalue = [60, 34]"] ;
305 -> 309 ;
310 [label="X[13] <= 1.5\ngini = 0.4567\nsamples = 34\nvalue = [12, 22]"] ;
309 -> 310 ;
311 [label="gini = 0.4898\nsamples = 7\nvalue = [4, 3]"] ;
310 -> 311 ;
312 [label="gini = 0.417\nsamples = 27\nvalue = [8, 19]"] ;
310 -> 312 ;
313 [label="X[21] <= 3.5\ngini = 0.32\nsamples = 60\nvalue = [48, 12]"] ;
309 -> 313 ;
314 [label="gini = 0.0\nsamples = 16\nvalue = [16, 0]"] ;
313 -> 314 ;
315 [label="X[13] <= 1.5\ngini = 0.3967\nsamples = 44\nvalue = [32, 12]"] ;
313 -> 315 ;
316 [label="gini = 0.2975\nsamples = 33\nvalue = [27, 6]"] ;
315 -> 316 ;
317 [label="gini = 0.4959\nsamples = 11\nvalue = [5, 6]"] ;
315 -> 317 ;
318 [label="X[24] <= 0.5\ngini = 0.4992\nsamples = 154\nvalue = [80, 74]"] ;
292 -> 318 ;
319 [label="X[21] <= 1.5\ngini = 0.4726\nsamples = 94\nvalue = [36, 58]"] ;
318 -> 319 ;
320 [label="gini = 0.495\nsamples = 40\nvalue = [18, 22]"] ;
319 -> 320 ;
321 [label="X[21] <= 3.0\ngini = 0.4444\nsamples = 54\nvalue = [18, 36]"] ;
319 -> 321 ;
322 [label="gini = 0.4527\nsamples = 52\nvalue = [18, 34]"] ;
321 -> 322 ;
323 [label="gini = 0.0\nsamples = 2\nvalue = [0, 2]"] ;
321 -> 323 ;
324 [label="X[21] <= 1.5\ngini = 0.3911\nsamples = 60\nvalue = [44, 16]"] ;
318 -> 324 ;
325 [label="gini = 0.3792\nsamples = 59\nvalue = [44, 15]"] ;
324 -> 325 ;
326 [label="gini = 0.0\nsamples = 1\nvalue = [0, 1]"] ;
324 -> 326 ;
327 [label="X[13] <= 2.5\ngini = 0.1072\nsamples = 176\nvalue = [166, 10]"] ;
291 -> 327 ;
328 [label="gini = 0.2604\nsamples = 26\nvalue = [22, 4]"] ;
327 -> 328 ;
329 [label="gini = 0.0768\nsamples = 150\nvalue = [144, 6]"] ;
327 -> 329 ;
330 [label="X[21] <= 2.5\ngini = 0.4199\nsamples = 847\nvalue = [593, 254]"] ;
268 -> 330 ;
331 [label="X[13] <= 1.5\ngini = 0.4329\nsamples = 786\nvalue = [537, 249]"] ;
330 -> 331 ;
332 [label="X[21] <= 1.5\ngini = 0.327\nsamples = 102\nvalue = [81, 21]"] ;
331 -> 332 ;
333 [label="X[24] <= 0.5\ngini = 0.1954\nsamples = 82\nvalue = [73, 9]"] ;
332 -> 333 ;
334 [label="gini = 0.4444\nsamples = 21\nvalue = [14, 7]"] ;
333 -> 334 ;
335 [label="gini = 0.0634\nsamples = 61\nvalue = [59, 2]"] ;
333 -> 335 ;
336 [label="gini = 0.48\nsamples = 20\nvalue = [8, 12]"] ;
332 -> 336 ;
337 [label="X[21] <= 1.5\ngini = 0.4444\nsamples = 684\nvalue = [456, 228]"] ;
331 -> 337 ;
338 [label="X[13] <= 2.5\ngini = 0.4552\nsamples = 588\nvalue = [382, 206]"] ;
337 -> 338 ;
339 [label="X[3] <= 0.5\ngini = 0.4499\nsamples = 515\nvalue = [339, 176]"] ;
338 -> 339 ;
340 [label="X[24] <= 0.5\ngini = 0.4027\nsamples = 68\nvalue = [49, 19]"] ;
339 -> 340 ;
341 [label="gini = 0.4824\nsamples = 32\nvalue = [19, 13]"] ;
340 -> 341 ;
342 [label="gini = 0.2778\nsamples = 36\nvalue = [30, 6]"] ;
340 -> 342 ;
343 [label="X[24] <= 0.5\ngini = 0.4557\nsamples = 447\nvalue = [290, 157]"] ;
339 -> 343 ;
344 [label="gini = 0.4592\nsamples = 112\nvalue = [72, 40]"] ;
343 -> 344 ;
345 [label="gini = 0.4546\nsamples = 335\nvalue = [218, 117]"] ;
343 -> 345 ;
346 [label="X[3] <= 0.5\ngini = 0.4841\nsamples = 73\nvalue = [43, 30]"] ;
338 -> 346 ;
347 [label="gini = 0.4537\nsamples = 23\nvalue = [8, 15]"] ;
346 -> 347 ;
348 [label="X[24] <= 0.5\ngini = 0.42\nsamples = 50\nvalue = [35, 15]"] ;
346 -> 348 ;
349 [label="gini = 0.2934\nsamples = 28\nvalue = [23, 5]"] ;
348 -> 349 ;
350 [label="gini = 0.4959\nsamples = 22\nvalue = [12, 10]"] ;
348 -> 350 ;
351 [label="X[3] <= 0.5\ngini = 0.3533\nsamples = 96\nvalue = [74, 22]"] ;
337 -> 351 ;
352 [label="gini = 0.0\nsamples = 26\nvalue = [26, 0]"] ;
351 -> 352 ;
353 [label="X[24] <= 0.5\ngini = 0.431\nsamples = 70\nvalue = [48, 22]"] ;
351 -> 353 ;
354 [label="X[13] <= 2.5\ngini = 0.375\nsamples = 28\nvalue = [21, 7]"] ;
353 -> 354 ;
355 [label="gini = 0.2188\nsamples = 8\nvalue = [7, 1]"] ;
354 -> 355 ;
356 [label="gini = 0.42\nsamples = 20\nvalue = [14, 6]"] ;
354 -> 356 ;
357 [label="X[13] <= 2.5\ngini = 0.4592\nsamples = 42\nvalue = [27, 15]"] ;
353 -> 357 ;
358 [label="gini = 0.4688\nsamples = 40\nvalue = [25, 15]"] ;
357 -> 358 ;
359 [label="gini = 0.0\nsamples = 2\nvalue = [2, 0]"] ;
357 -> 359 ;
360 [label="gini = 0.1505\nsamples = 61\nvalue = [56, 5]"] ;
330 -> 360 ;
361 [label="X[13] <= 1.5\ngini = 0.4926\nsamples = 6666\nvalue = [3739, 2927]"] ;
1 -> 361 ;
362 [label="X[18] <= 0.5\ngini = 0.483\nsamples = 537\nvalue = [219, 318]"] ;
361 -> 362 ;
363 [label="X[24] <= 0.5\ngini = 0.4669\nsamples = 501\nvalue = [186, 315]"] ;
362 -> 363 ;
364 [label="X[19] <= 0.5\ngini = 0.1572\nsamples = 93\nvalue = [8, 85]"] ;
363 -> 364 ;
365 [label="gini = 0.0\nsamples = 85\nvalue = [0, 85]"] ;
364 -> 365 ;
366 [label="gini = 0.0\nsamples = 8\nvalue = [8, 0]"] ;
364 -> 366 ;
367 [label="X[19] <= 0.5\ngini = 0.4919\nsamples = 408\nvalue = [178, 230]"] ;
363 -> 367 ;
368 [label="X[11] <= 0.5\ngini = 0.2086\nsamples = 93\nvalue = [82, 11]"] ;
367 -> 368 ;
369 [label="gini = 0.0\nsamples = 43\nvalue = [43, 0]"] ;
368 -> 369 ;
370 [label="X[0] <= 0.5\ngini = 0.3432\nsamples = 50\nvalue = [39, 11]"] ;
368 -> 370 ;
371 [label="gini = 0.0\nsamples = 2\nvalue = [2, 0]"] ;
370 -> 371 ;
372 [label="X[3] <= 0.5\ngini = 0.3533\nsamples = 48\nvalue = [37, 11]"] ;
370 -> 372 ;
373 [label="gini = 0.375\nsamples = 36\nvalue = [27, 9]"] ;
372 -> 373 ;
374 [label="gini = 0.2778\nsamples = 12\nvalue = [10, 2]"] ;
372 -> 374 ;
375 [label="X[21] <= 0.5\ngini = 0.4238\nsamples = 315\nvalue = [96, 219]"] ;
367 -> 375 ;
376 [label="X[3] <= 0.5\ngini = 0.3881\nsamples = 296\nvalue = [78, 218]"] ;
375 -> 376 ;
377 [label="gini = 0.0\nsamples = 2\nvalue = [0, 2]"] ;
376 -> 377 ;
378 [label="X[0] <= 0.5\ngini = 0.3898\nsamples = 294\nvalue = [78, 216]"] ;
376 -> 378 ;
379 [label="gini = 0.3662\nsamples = 29\nvalue = [7, 22]"] ;
378 -> 379 ;
380 [label="gini = 0.3923\nsamples = 265\nvalue = [71, 194]"] ;
378 -> 380 ;
381 [label="X[21] <= 1.5\ngini = 0.0997\nsamples = 19\nvalue = [18, 1]"] ;
375 -> 381 ;
382 [label="gini = 0.1653\nsamples = 11\nvalue = [10, 1]"] ;
381 -> 382 ;
383 [label="gini = 0.0\nsamples = 8\nvalue = [8, 0]"] ;
381 -> 383 ;
384 [label="X[24] <= 0.5\ngini = 0.1528\nsamples = 36\nvalue = [33, 3]"] ;
362 -> 384 ;
385 [label="gini = 0.0\nsamples = 13\nvalue = [13, 0]"] ;
384 -> 385 ;
386 [label="X[21] <= 0.5\ngini = 0.2268\nsamples = 23\nvalue = [20, 3]"] ;
384 -> 386 ;
387 [label="gini = 0.2604\nsamples = 13\nvalue = [11, 2]"] ;
386 -> 387 ;
388 [label="gini = 0.18\nsamples = 10\nvalue = [9, 1]"] ;
386 -> 388 ;
389 [label="X[3] <= 0.5\ngini = 0.489\nsamples = 6129\nvalue = [3520, 2609]"] ;
361 -> 389 ;
390 [label="X[24] <= 0.5\ngini = 0.4968\nsamples = 854\nvalue = [393, 461]"] ;
389 -> 390 ;
391 [label="X[21] <= 1.0\ngini = 0.2794\nsamples = 137\nvalue = [23, 114]"] ;
390 -> 391 ;
392 [label="X[0] <= 0.5\ngini = 0.0517\nsamples = 113\nvalue = [3, 110]"] ;
391 -> 392 ;
393 [label="gini = 0.0\nsamples = 103\nvalue = [0, 103]"] ;
392 -> 393 ;
394 [label="X[11] <= 0.5\ngini = 0.42\nsamples = 10\nvalue = [3, 7]"] ;
392 -> 394 ;
395 [label="X[13] <= 2.5\ngini = 0.32\nsamples = 5\nvalue = [1, 4]"] ;
394 -> 395 ;
396 [label="gini = 0.0\nsamples = 2\nvalue = [0, 2]"] ;
395 -> 396 ;
397 [label="gini = 0.4444\nsamples = 3\nvalue = [1, 2]"] ;
395 -> 397 ;
398 [label="X[13] <= 2.5\ngini = 0.48\nsamples = 5\nvalue = [2, 3]"] ;
394 -> 398 ;
399 [label="gini = 0.5\nsamples = 4\nvalue = [2, 2]"] ;
398 -> 399 ;
400 [label="gini = 0.0\nsamples = 1\nvalue = [0, 1]"] ;
398 -> 400 ;
401 [label="X[21] <= 3.5\ngini = 0.2778\nsamples = 24\nvalue = [20, 4]"] ;
391 -> 401 ;
402 [label="gini = 0.0\nsamples = 18\nvalue = [18, 0]"] ;
401 -> 402 ;
403 [label="X[13] <= 2.5\ngini = 0.4444\nsamples = 6\nvalue = [2, 4]"] ;
401 -> 403 ;
404 [label="gini = 0.0\nsamples = 4\nvalue = [0, 4]"] ;
403 -> 404 ;
405 [label="gini = 0.0\nsamples = 2\nvalue = [2, 0]"] ;
403 -> 405 ;
406 [label="X[13] <= 2.5\ngini = 0.4995\nsamples = 717\nvalue = [370, 347]"] ;
390 -> 406 ;
407 [label="X[19] <= 0.5\ngini = 0.4896\nsamples = 535\nvalue = [229, 306]"] ;
406 -> 407 ;
408 [label="X[0] <= 0.5\ngini = 0.4989\nsamples = 323\nvalue = [169, 154]"] ;
407 -> 408 ;
409 [label="X[11] <= 0.5\ngini = 0.2645\nsamples = 51\nvalue = [43, 8]"] ;
408 -> 409 ;
410 [label="gini = 0.2149\nsamples = 49\nvalue = [43, 6]"] ;
409 -> 410 ;
411 [label="gini = 0.0\nsamples = 2\nvalue = [0, 2]"] ;
409 -> 411 ;
412 [label="X[11] <= 0.5\ngini = 0.4973\nsamples = 272\nvalue = [126, 146]"] ;
408 -> 412 ;
413 [label="X[21] <= 1.5\ngini = 0.4878\nsamples = 230\nvalue = [97, 133]"] ;
412 -> 413 ;
414 [label="X[21] <= 0.5\ngini = 0.4471\nsamples = 163\nvalue = [55, 108]"] ;
413 -> 414 ;
415 [label="gini = 0.4472\nsamples = 160\nvalue = [54, 106]"] ;
414 -> 415 ;
416 [label="gini = 0.4444\nsamples = 3\nvalue = [1, 2]"] ;
414 -> 416 ;
417 [label="X[21] <= 6.0\ngini = 0.4678\nsamples = 67\nvalue = [42, 25]"] ;
413 -> 417 ;
418 [label="X[21] <= 3.5\ngini = 0.2449\nsamples = 21\nvalue = [18, 3]"] ;
417 -> 418 ;
419 [label="X[21] <= 2.5\ngini = 0.355\nsamples = 13\nvalue = [10, 3]"] ;
418 -> 419 ;
420 [label="gini = 0.32\nsamples = 10\nvalue = [8, 2]"] ;
419 -> 420 ;
421 [label="gini = 0.4444\nsamples = 3\nvalue = [2, 1]"] ;
419 -> 421 ;
422 [label="gini = 0.0\nsamples = 8\nvalue = [8, 0]"] ;
418 -> 422 ;
423 [label="gini = 0.4991\nsamples = 46\nvalue = [24, 22]"] ;
417 -> 423 ;
424 [label="gini = 0.4274\nsamples = 42\nvalue = [29, 13]"] ;
412 -> 424 ;
425 [label="X[21] <= 0.5\ngini = 0.4058\nsamples = 212\nvalue = [60, 152]"] ;
407 -> 425 ;
426 [label="X[0] <= 0.5\ngini = 0.3003\nsamples = 125\nvalue = [23, 102]"] ;
425 -> 426 ;
427 [label="gini = 0.3911\nsamples = 15\nvalue = [4, 11]"] ;
426 -> 427 ;
428 [label="gini = 0.2858\nsamples = 110\nvalue = [19, 91]"] ;
426 -> 428 ;
429 [label="X[21] <= 3.0\ngini = 0.4888\nsamples = 87\nvalue = [37, 50]"] ;
425 -> 429 ;
430 [label="X[21] <= 1.5\ngini = 0.4916\nsamples = 85\nvalue = [37, 48]"] ;
429 -> 430 ;
431 [label="gini = 0.4821\nsamples = 74\nvalue = [30, 44]"] ;
430 -> 431 ;
432 [label="gini = 0.4628\nsamples = 11\nvalue = [7, 4]"] ;
430 -> 432 ;
433 [label="gini = 0.0\nsamples = 2\nvalue = [0, 2]"] ;
429 -> 433 ;
434 [label="X[21] <= 6.0\ngini = 0.3491\nsamples = 182\nvalue = [141, 41]"] ;
406 -> 434 ;
435 [label="X[21] <= 0.5\ngini = 0.3066\nsamples = 164\nvalue = [133, 31]"] ;
434 -> 435 ;
436 [label="X[0] <= 0.5\ngini = 0.375\nsamples = 120\nvalue = [90, 30]"] ;
435 -> 436 ;
437 [label="gini = 0.0\nsamples = 32\nvalue = [32, 0]"] ;
436 -> 437 ;
438 [label="X[19] <= 0.5\ngini = 0.4494\nsamples = 88\nvalue = [58, 30]"] ;
436 -> 438 ;
439 [label="X[11] <= 0.5\ngini = 0.4303\nsamples = 83\nvalue = [57, 26]"] ;
438 -> 439 ;
440 [label="gini = 0.4614\nsamples = 72\nvalue = [46, 26]"] ;
439 -> 440 ;
441 [label="gini = 0.0\nsamples = 11\nvalue = [11, 0]"] ;
439 -> 441 ;
442 [label="gini = 0.32\nsamples = 5\nvalue = [1, 4]"] ;
438 -> 442 ;
443 [label="X[11] <= 0.5\ngini = 0.0444\nsamples = 44\nvalue = [43, 1]"] ;
435 -> 443 ;
444 [label="gini = 0.0\nsamples = 25\nvalue = [25, 0]"] ;
443 -> 444 ;
445 [label="X[21] <= 1.5\ngini = 0.0997\nsamples = 19\nvalue = [18, 1]"] ;
443 -> 445 ;
446 [label="gini = 0.5\nsamples = 2\nvalue = [1, 1]"] ;
445 -> 446 ;
447 [label="gini = 0.0\nsamples = 17\nvalue = [17, 0]"] ;
445 -> 447 ;
448 [label="gini = 0.4938\nsamples = 18\nvalue = [8, 10]"] ;
434 -> 448 ;
449 [label="X[19] <= 0.5\ngini = 0.4828\nsamples = 5275\nvalue = [3127, 2148]"] ;
389 -> 449 ;
450 [label="X[24] <= 0.5\ngini = 0.4412\nsamples = 1455\nvalue = [977, 478]"] ;
449 -> 450 ;
451 [label="X[21] <= 0.5\ngini = 0.4961\nsamples = 443\nvalue = [202, 241]"] ;
450 -> 451 ;
452 [label="X[0] <= 0.5\ngini = 0.4938\nsamples = 234\nvalue = [130, 104]"] ;
451 -> 452 ;
453 [label="X[13] <= 2.5\ngini = 0.4924\nsamples = 162\nvalue = [71, 91]"] ;
452 -> 453 ;
454 [label="X[11] <= 0.5\ngini = 0.4989\nsamples = 86\nvalue = [45, 41]"] ;
453 -> 454 ;
455 [label="gini = 0.4964\nsamples = 83\nvalue = [45, 38]"] ;
454 -> 455 ;
456 [label="gini = 0.0\nsamples = 3\nvalue = [0, 3]"] ;
454 -> 456 ;
457 [label="gini = 0.4501\nsamples = 76\nvalue = [26, 50]"] ;
453 -> 457 ;
458 [label="X[11] <= 0.5\ngini = 0.2959\nsamples = 72\nvalue = [59, 13]"] ;
452 -> 458 ;
459 [label="X[13] <= 2.5\ngini = 0.0666\nsamples = 29\nvalue = [28, 1]"] ;
458 -> 459 ;
460 [label="gini = 0.0713\nsamples = 27\nvalue = [26, 1]"] ;
459 -> 460 ;
461 [label="gini = 0.0\nsamples = 2\nvalue = [2, 0]"] ;
459 -> 461 ;
462 [label="X[13] <= 2.5\ngini = 0.4024\nsamples = 43\nvalue = [31, 12]"] ;
458 -> 462 ;
463 [label="gini = 0.4664\nsamples = 27\nvalue = [17, 10]"] ;
462 -> 463 ;
464 [label="gini = 0.2188\nsamples = 16\nvalue = [14, 2]"] ;
462 -> 464 ;
465 [label="X[21] <= 1.5\ngini = 0.4516\nsamples = 209\nvalue = [72, 137]"] ;
451 -> 465 ;
466 [label="X[13] <= 2.5\ngini = 0.3875\nsamples = 175\nvalue = [46, 129]"] ;
465 -> 466 ;
467 [label="X[11] <= 0.5\ngini = 0.2449\nsamples = 105\nvalue = [15, 90]"] ;
466 -> 467 ;
468 [label="gini = 0.2887\nsamples = 80\nvalue = [14, 66]"] ;
467 -> 468 ;
469 [label="gini = 0.0768\nsamples = 25\nvalue = [1, 24]"] ;
467 -> 469 ;
470 [label="gini = 0.4935\nsamples = 70\nvalue = [31, 39]"] ;
466 -> 470 ;
471 [label="X[13] <= 2.5\ngini = 0.3599\nsamples = 34\nvalue = [26, 8]"] ;
465 -> 471 ;
472 [label="X[11] <= 0.5\ngini = 0.4688\nsamples = 16\nvalue = [10, 6]"] ;
471 -> 472 ;
473 [label="gini = 0.5\nsamples = 12\nvalue = [6, 6]"] ;
472 -> 473 ;
474 [label="gini = 0.0\nsamples = 4\nvalue = [4, 0]"] ;
472 -> 474 ;
475 [label="X[21] <= 2.5\ngini = 0.1975\nsamples = 18\nvalue = [16, 2]"] ;
471 -> 475 ;
476 [label="gini = 0.0\nsamples = 12\nvalue = [12, 0]"] ;
475 -> 476 ;
477 [label="gini = 0.4444\nsamples = 6\nvalue = [4, 2]"] ;
475 -> 477 ;
478 [label="X[0] <= 0.5\ngini = 0.3587\nsamples = 1012\nvalue = [775, 237]"] ;
450 -> 478 ;
479 [label="X[11] <= 0.5\ngini = 0.4827\nsamples = 145\nvalue = [86, 59]"] ;
478 -> 479 ;
480 [label="X[13] <= 2.5\ngini = 0.4916\nsamples = 85\nvalue = [37, 48]"] ;
479 -> 480 ;
481 [label="gini = 0.474\nsamples = 57\nvalue = [22, 35]"] ;
480 -> 481 ;
482 [label="gini = 0.4974\nsamples = 28\nvalue = [15, 13]"] ;
480 -> 482 ;
483 [label="X[13] <= 2.5\ngini = 0.2994\nsamples = 60\nvalue = [49, 11]"] ;
479 -> 483 ;
484 [label="gini = 0.32\nsamples = 55\nvalue = [44, 11]"] ;
483 -> 484 ;
485 [label="gini = 0.0\nsamples = 5\nvalue = [5, 0]"] ;
483 -> 485 ;
486 [label="X[11] <= 0.5\ngini = 0.3263\nsamples = 867\nvalue = [689, 178]"] ;
478 -> 486 ;
487 [label="X[21] <= 0.5\ngini = 0.2418\nsamples = 526\nvalue = [452, 74]"] ;
486 -> 487 ;
488 [label="X[13] <= 2.5\ngini = 0.3018\nsamples = 324\nvalue = [264, 60]"] ;
487 -> 488 ;
489 [label="gini = 0.3377\nsamples = 251\nvalue = [197, 54]"] ;
488 -> 489 ;
490 [label="gini = 0.1509\nsamples = 73\nvalue = [67, 6]"] ;
488 -> 490 ;
491 [label="X[21] <= 5.0\ngini = 0.129\nsamples = 202\nvalue = [188, 14]"] ;
487 -> 491 ;
492 [label="X[13] <= 2.5\ngini = 0.1699\nsamples = 128\nvalue = [116, 12]"] ;
491 -> 492 ;
493 [label="X[21] <= 1.5\ngini = 0.2014\nsamples = 88\nvalue = [78, 10]"] ;
492 -> 493 ;
494 [label="gini = 0.2311\nsamples = 45\nvalue = [39, 6]"] ;
493 -> 494 ;
495 [label="X[21] <= 2.5\ngini = 0.1687\nsamples = 43\nvalue = [39, 4]"] ;
493 -> 495 ;
496 [label="gini = 0.1567\nsamples = 35\nvalue = [32, 3]"] ;
495 -> 496 ;
497 [label="gini = 0.2188\nsamples = 8\nvalue = [7, 1]"] ;
495 -> 497 ;
498 [label="gini = 0.095\nsamples = 40\nvalue = [38, 2]"] ;
492 -> 498 ;
499 [label="X[13] <= 2.5\ngini = 0.0526\nsamples = 74\nvalue = [72, 2]"] ;
491 -> 499 ;
500 [label="gini = 0.074\nsamples = 52\nvalue = [50, 2]"] ;
499 -> 500 ;
501 [label="gini = 0.0\nsamples = 22\nvalue = [22, 0]"] ;
499 -> 501 ;
502 [label="X[13] <= 2.5\ngini = 0.4239\nsamples = 341\nvalue = [237, 104]"] ;
486 -> 502 ;
503 [label="X[21] <= 7.5\ngini = 0.4459\nsamples = 295\nvalue = [196, 99]"] ;
502 -> 503 ;
504 [label="X[21] <= 1.5\ngini = 0.4405\nsamples = 287\nvalue = [193, 94]"] ;
503 -> 504 ;
505 [label="X[21] <= 0.5\ngini = 0.4626\nsamples = 201\nvalue = [128, 73]"] ;
504 -> 505 ;
506 [label="X[18] <= 0.5\ngini = 0.4583\nsamples = 194\nvalue = [125, 69]"] ;
505 -> 506 ;
507 [label="gini = 0.4604\nsamples = 192\nvalue = [123, 69]"] ;
506 -> 507 ;
508 [label="gini = 0.0\nsamples = 2\nvalue = [2, 0]"] ;
506 -> 508 ;
509 [label="gini = 0.4898\nsamples = 7\nvalue = [3, 4]"] ;
505 -> 509 ;
510 [label="X[21] <= 5.0\ngini = 0.3691\nsamples = 86\nvalue = [65, 21]"] ;
504 -> 510 ;
511 [label="X[21] <= 2.5\ngini = 0.3441\nsamples = 77\nvalue = [60, 17]"] ;
510 -> 511 ;
512 [label="gini = 0.355\nsamples = 26\nvalue = [20, 6]"] ;
511 -> 512 ;
513 [label="gini = 0.3383\nsamples = 51\nvalue = [40, 11]"] ;
511 -> 513 ;
514 [label="gini = 0.4938\nsamples = 9\nvalue = [5, 4]"] ;
510 -> 514 ;
515 [label="gini = 0.4688\nsamples = 8\nvalue = [3, 5]"] ;
503 -> 515 ;
516 [label="X[21] <= 0.5\ngini = 0.1938\nsamples = 46\nvalue = [41, 5]"] ;
502 -> 516 ;
517 [label="gini = 0.32\nsamples = 15\nvalue = [12, 3]"] ;
516 -> 517 ;
518 [label="X[21] <= 4.5\ngini = 0.1207\nsamples = 31\nvalue = [29, 2]"] ;
516 -> 518 ;
519 [label="X[21] <= 1.5\ngini = 0.1327\nsamples = 28\nvalue = [26, 2]"] ;
518 -> 519 ;
520 [label="gini = 0.0\nsamples = 2\nvalue = [2, 0]"] ;
519 -> 520 ;
521 [label="gini = 0.142\nsamples = 26\nvalue = [24, 2]"] ;
519 -> 521 ;
522 [label="gini = 0.0\nsamples = 3\nvalue = [3, 0]"] ;
518 -> 522 ;
523 [label="X[24] <= 0.5\ngini = 0.4921\nsamples = 3820\nvalue = [2150, 1670]"] ;
449 -> 523 ;
524 [label="X[13] <= 2.5\ngini = 0.4209\nsamples = 372\nvalue = [260, 112]"] ;
523 -> 524 ;
525 [label="X[21] <= 0.5\ngini = 0.4592\nsamples = 266\nvalue = [171, 95]"] ;
524 -> 525 ;
526 [label="X[0] <= 0.5\ngini = 0.4321\nsamples = 190\nvalue = [130, 60]"] ;
525 -> 526 ;
527 [label="gini = 0.4152\nsamples = 85\nvalue = [60, 25]"] ;
526 -> 527 ;
528 [label="X[18] <= 0.5\ngini = 0.4444\nsamples = 105\nvalue = [70, 35]"] ;
526 -> 528 ;
529 [label="gini = 0.4673\nsamples = 43\nvalue = [27, 16]"] ;
528 -> 529 ;
530 [label="gini = 0.4251\nsamples = 62\nvalue = [43, 19]"] ;
528 -> 530 ;
531 [label="X[18] <= 0.5\ngini = 0.4969\nsamples = 76\nvalue = [41, 35]"] ;
525 -> 531 ;
532 [label="X[21] <= 1.5\ngini = 0.4405\nsamples = 58\nvalue = [39, 19]"] ;
531 -> 532 ;
533 [label="gini = 0.3578\nsamples = 30\nvalue = [23, 7]"] ;
532 -> 533 ;
534 [label="gini = 0.4898\nsamples = 28\nvalue = [16, 12]"] ;
532 -> 534 ;
535 [label="gini = 0.1975\nsamples = 18\nvalue = [2, 16]"] ;
531 -> 535 ;
536 [label="X[0] <= 0.5\ngini = 0.2693\nsamples = 106\nvalue = [89, 17]"] ;
524 -> 536 ;
537 [label="gini = 0.4444\nsamples = 9\nvalue = [6, 3]"] ;
536 -> 537 ;
538 [label="X[21] <= 0.5\ngini = 0.247\nsamples = 97\nvalue = [83, 14]"] ;
536 -> 538 ;
539 [label="X[18] <= 0.5\ngini = 0.32\nsamples = 25\nvalue = [20, 5]"] ;
538 -> 539 ;
540 [label="gini = 0.2907\nsamples = 17\nvalue = [14, 3]"] ;
539 -> 540 ;
541 [label="gini = 0.375\nsamples = 8\nvalue = [6, 2]"] ;
539 -> 541 ;
542 [label="X[21] <= 1.5\ngini = 0.2188\nsamples = 72\nvalue = [63, 9]"] ;
538 -> 542 ;
543 [label="gini = 0.0\nsamples = 16\nvalue = [16, 0]"] ;
542 -> 543 ;
544 [label="gini = 0.2698\nsamples = 56\nvalue = [47, 9]"] ;
542 -> 544 ;
545 [label="X[21] <= 4.5\ngini = 0.4954\nsamples = 3448\nvalue = [1890, 1558]"] ;
523 -> 545 ;
546 [label="X[0] <= 0.5\ngini = 0.4939\nsamples = 3338\nvalue = [1853, 1485]"] ;
545 -> 546 ;
547 [label="X[18] <= 0.5\ngini = 0.4587\nsamples = 362\nvalue = [233, 129]"] ;
546 -> 547 ;
548 [label="X[13] <= 2.5\ngini = 0.4567\nsamples = 360\nvalue = [233, 127]"] ;
547 -> 548 ;
549 [label="gini = 0.4444\nsamples = 273\nvalue = [182, 91]"] ;
548 -> 549 ;
550 [label="gini = 0.4851\nsamples = 87\nvalue = [51, 36]"] ;
548 -> 550 ;
551 [label="gini = 0.0\nsamples = 2\nvalue = [0, 2]"] ;
547 -> 551 ;
552 [label="X[21] <= 0.5\ngini = 0.4961\nsamples = 2976\nvalue = [1620, 1356]"] ;
546 -> 552 ;
553 [label="X[13] <= 2.5\ngini = 0.4984\nsamples = 2039\nvalue = [1078, 961]"] ;
552 -> 553 ;
554 [label="X[11] <= 0.5\ngini = 0.4966\nsamples = 1674\nvalue = [906, 768]"] ;
553 -> 554 ;
555 [label="gini = 0.32\nsamples = 5\nvalue = [1, 4]"] ;
554 -> 555 ;
556 [label="X[18] <= 0.5\ngini = 0.4964\nsamples = 1669\nvalue = [905, 764]"] ;
554 -> 556 ;
557 [label="gini = 0.4963\nsamples = 1421\nvalue = [772, 649]"] ;
556 -> 557 ;
558 [label="gini = 0.4974\nsamples = 248\nvalue = [133, 115]"] ;
556 -> 558 ;
559 [label="X[18] <= 0.5\ngini = 0.4983\nsamples = 365\nvalue = [172, 193]"] ;
553 -> 559 ;
560 [label="gini = 0.4967\nsamples = 333\nvalue = [153, 180]"] ;
559 -> 560 ;
561 [label="gini = 0.4824\nsamples = 32\nvalue = [19, 13]"] ;
559 -> 561 ;
562 [label="X[13] <= 2.5\ngini = 0.4877\nsamples = 937\nvalue = [542, 395]"] ;
552 -> 562 ;
563 [label="X[21] <= 1.5\ngini = 0.4955\nsamples = 809\nvalue = [443, 366]"] ;
562 -> 563 ;
564 [label="X[18] <= 0.5\ngini = 0.4864\nsamples = 589\nvalue = [343, 246]"] ;
563 -> 564 ;
565 [label="gini = 0.4879\nsamples = 417\nvalue = [241, 176]"] ;
564 -> 565 ;
566 [label="gini = 0.4827\nsamples = 172\nvalue = [102, 70]"] ;
564 -> 566 ;
567 [label="X[18] <= 0.5\ngini = 0.4959\nsamples = 220\nvalue = [100, 120]"] ;
563 -> 567 ;
568 [label="X[21] <= 2.5\ngini = 0.4898\nsamples = 196\nvalue = [84, 112]"] ;
567 -> 568 ;
569 [label="gini = 0.4743\nsamples = 150\nvalue = [58, 92]"] ;
568 -> 569 ;
570 [label="X[21] <= 3.5\ngini = 0.4915\nsamples = 46\nvalue = [26, 20]"] ;
568 -> 570 ;
571 [label="gini = 0.4983\nsamples = 34\nvalue = [18, 16]"] ;
570 -> 571 ;
572 [label="gini = 0.4444\nsamples = 12\nvalue = [8, 4]"] ;
570 -> 572 ;
573 [label="gini = 0.4444\nsamples = 24\nvalue = [16, 8]"] ;
567 -> 573 ;
574 [label="X[21] <= 1.5\ngini = 0.3505\nsamples = 128\nvalue = [99, 29]"] ;
562 -> 574 ;
575 [label="gini = 0.2688\nsamples = 75\nvalue = [63, 12]"] ;
574 -> 575 ;
576 [label="X[21] <= 2.5\ngini = 0.4357\nsamples = 53\nvalue = [36, 17]"] ;
574 -> 576 ;
577 [label="gini = 0.4306\nsamples = 51\nvalue = [35, 16]"] ;
576 -> 577 ;
578 [label="gini = 0.5\nsamples = 2\nvalue = [1, 1]"] ;
576 -> 578 ;
579 [label="X[21] <= 6.0\ngini = 0.4464\nsamples = 110\nvalue = [37, 73]"] ;
545 -> 579 ;
580 [label="gini = 0.2401\nsamples = 43\nvalue = [6, 37]"] ;
579 -> 580 ;
581 [label="X[21] <= 7.5\ngini = 0.4972\nsamples = 67\nvalue = [31, 36]"] ;
579 -> 581 ;
582 [label="gini = 0.4444\nsamples = 12\nvalue = [4, 8]"] ;
581 -> 582 ;
583 [label="gini = 0.4998\nsamples = 55\nvalue = [27, 28]"] ;
581 -> 583 ;
584 [label="X[22] <= 0.5\ngini = 0.4295\nsamples = 19260\nvalue = [6013, 13247]"] ;
0 -> 584 [labeldistance=2.5, labelangle=-45, headlabel="False"] ;
585 [label="X[13] <= 2.5\ngini = 0.4703\nsamples = 5404\nvalue = [2044, 3360]"] ;
584 -> 585 ;
586 [label="X[21] <= 1.5\ngini = 0.4645\nsamples = 4928\nvalue = [1807, 3121]"] ;
585 -> 586 ;
587 [label="X[24] <= 0.5\ngini = 0.4709\nsamples = 4364\nvalue = [1656, 2708]"] ;
586 -> 587 ;
588 [label="X[13] <= 1.5\ngini = 0.3384\nsamples = 292\nvalue = [63, 229]"] ;
587 -> 588 ;
589 [label="X[0] <= 0.5\ngini = 0.5\nsamples = 12\nvalue = [6, 6]"] ;
588 -> 589 ;
590 [label="X[20] <= 0.5\ngini = 0.2449\nsamples = 7\nvalue = [1, 6]"] ;
589 -> 590 ;
591 [label="gini = 0.0\nsamples = 3\nvalue = [0, 3]"] ;
590 -> 591 ;
592 [label="X[3] <= 0.5\ngini = 0.375\nsamples = 4\nvalue = [1, 3]"] ;
590 -> 592 ;
593 [label="gini = 0.0\nsamples = 2\nvalue = [0, 2]"] ;
592 -> 593 ;
594 [label="gini = 0.5\nsamples = 2\nvalue = [1, 1]"] ;
592 -> 594 ;
595 [label="gini = 0.0\nsamples = 5\nvalue = [5, 0]"] ;
589 -> 595 ;
596 [label="X[21] <= 0.5\ngini = 0.3243\nsamples = 280\nvalue = [57, 223]"] ;
588 -> 596 ;
597 [label="X[0] <= 0.5\ngini = 0.294\nsamples = 229\nvalue = [41, 188]"] ;
596 -> 597 ;
598 [label="gini = 0.0\nsamples = 3\nvalue = [0, 3]"] ;
597 -> 598 ;
599 [label="X[20] <= 0.5\ngini = 0.297\nsamples = 226\nvalue = [41, 185]"] ;
597 -> 599 ;
600 [label="gini = 0.0\nsamples = 3\nvalue = [0, 3]"] ;
599 -> 600 ;
601 [label="X[19] <= 0.5\ngini = 0.3001\nsamples = 223\nvalue = [41, 182]"] ;
599 -> 601 ;
602 [label="X[18] <= 0.5\ngini = 0.3457\nsamples = 9\nvalue = [2, 7]"] ;
601 -> 602 ;
603 [label="gini = 0.0\nsamples = 7\nvalue = [0, 7]"] ;
602 -> 603 ;
604 [label="gini = 0.0\nsamples = 2\nvalue = [2, 0]"] ;
602 -> 604 ;
605 [label="X[18] <= 0.5\ngini = 0.2981\nsamples = 214\nvalue = [39, 175]"] ;
601 -> 605 ;
606 [label="gini = 0.307\nsamples = 132\nvalue = [25, 107]"] ;
605 -> 606 ;
607 [label="gini = 0.2832\nsamples = 82\nvalue = [14, 68]"] ;
605 -> 607 ;
608 [label="X[18] <= 0.5\ngini = 0.4306\nsamples = 51\nvalue = [16, 35]"] ;
596 -> 608 ;
609 [label="gini = 0.4297\nsamples = 48\nvalue = [15, 33]"] ;
608 -> 609 ;
610 [label="gini = 0.4444\nsamples = 3\nvalue = [1, 2]"] ;
608 -> 610 ;
611 [label="X[19] <= 0.5\ngini = 0.4763\nsamples = 4072\nvalue = [1593, 2479]"] ;
587 -> 611 ;
612 [label="X[18] <= 0.5\ngini = 0.4995\nsamples = 213\nvalue = [110, 103]"] ;
611 -> 612 ;
613 [label="X[13] <= 1.5\ngini = 0.4624\nsamples = 113\nvalue = [72, 41]"] ;
612 -> 613 ;
614 [label="X[3] <= 0.5\ngini = 0.4844\nsamples = 17\nvalue = [7, 10]"] ;
613 -> 614 ;
615 [label="gini = 0.0\nsamples = 2\nvalue = [0, 2]"] ;
614 -> 615 ;
616 [label="X[11] <= 0.5\ngini = 0.4978\nsamples = 15\nvalue = [7, 8]"] ;
614 -> 616 ;
617 [label="gini = 0.4959\nsamples = 11\nvalue = [5, 6]"] ;
616 -> 617 ;
618 [label="gini = 0.5\nsamples = 4\nvalue = [2, 2]"] ;
616 -> 618 ;
619 [label="X[11] <= 0.5\ngini = 0.4373\nsamples = 96\nvalue = [65, 31]"] ;
613 -> 619 ;
620 [label="gini = 0.4699\nsamples = 53\nvalue = [33, 20]"] ;
619 -> 620 ;
621 [label="X[21] <= 0.5\ngini = 0.3807\nsamples = 43\nvalue = [32, 11]"] ;
619 -> 621 ;
622 [label="X[20] <= 0.5\ngini = 0.3418\nsamples = 32\nvalue = [25, 7]"] ;
621 -> 622 ;
623 [label="gini = 0.5\nsamples = 2\nvalue = [1, 1]"] ;
622 -> 623 ;
624 [label="gini = 0.32\nsamples = 30\nvalue = [24, 6]"] ;
622 -> 624 ;
625 [label="gini = 0.4628\nsamples = 11\nvalue = [7, 4]"] ;
621 -> 625 ;
626 [label="gini = 0.4712\nsamples = 100\nvalue = [38, 62]"] ;
612 -> 626 ;
627 [label="X[18] <= 0.5\ngini = 0.4732\nsamples = 3859\nvalue = [1483, 2376]"] ;
611 -> 627 ;
628 [label="X[13] <= 1.5\ngini = 0.4498\nsamples = 1593\nvalue = [544, 1049]"] ;
627 -> 628 ;
629 [label="X[21] <= 0.5\ngini = 0.487\nsamples = 62\nvalue = [36, 26]"] ;
628 -> 629 ;
630 [label="gini = 0.4826\nsamples = 59\nvalue = [35, 24]"] ;
629 -> 630 ;
631 [label="gini = 0.4444\nsamples = 3\nvalue = [1, 2]"] ;
629 -> 631 ;
632 [label="X[20] <= 0.5\ngini = 0.4434\nsamples = 1531\nvalue = [508, 1023]"] ;
628 -> 632 ;
633 [label="gini = 0.0\nsamples = 6\nvalue = [0, 6]"] ;
632 -> 633 ;
634 [label="X[3] <= 0.5\ngini = 0.4443\nsamples = 1525\nvalue = [508, 1017]"] ;
632 -> 634 ;
635 [label="gini = 0.0\nsamples = 3\nvalue = [0, 3]"] ;
634 -> 635 ;
636 [label="X[21] <= 0.5\ngini = 0.4447\nsamples = 1522\nvalue = [508, 1014]"] ;
634 -> 636 ;
637 [label="X[0] <= 0.5\ngini = 0.4468\nsamples = 840\nvalue = [283, 557]"] ;
636 -> 637 ;
638 [label="gini = 0.4527\nsamples = 26\nvalue = [9, 17]"] ;
637 -> 638 ;
639 [label="gini = 0.4466\nsamples = 814\nvalue = [274, 540]"] ;
637 -> 639 ;
640 [label="gini = 0.4421\nsamples = 682\nvalue = [225, 457]"] ;
636 -> 640 ;
641 [label="X[21] <= 0.5\ngini = 0.4853\nsamples = 2266\nvalue = [939, 1327]"] ;
627 -> 641 ;
642 [label="X[20] <= 0.5\ngini = 0.4723\nsamples = 1486\nvalue = [568, 918]"] ;
641 -> 642 ;
643 [label="gini = 0.0\nsamples = 2\nvalue = [0, 2]"] ;
642 -> 643 ;
644 [label="X[13] <= 1.5\ngini = 0.4725\nsamples = 1484\nvalue = [568, 916]"] ;
642 -> 644 ;
645 [label="gini = 0.4663\nsamples = 154\nvalue = [57, 97]"] ;
644 -> 645 ;
646 [label="gini = 0.4732\nsamples = 1330\nvalue = [511, 819]"] ;
644 -> 646 ;
647 [label="X[13] <= 1.5\ngini = 0.4988\nsamples = 780\nvalue = [371, 409]"] ;
641 -> 647 ;
648 [label="gini = 0.455\nsamples = 40\nvalue = [26, 14]"] ;
647 -> 648 ;
649 [label="gini = 0.4977\nsamples = 740\nvalue = [345, 395]"] ;
647 -> 649 ;
650 [label="X[24] <= 0.5\ngini = 0.3921\nsamples = 564\nvalue = [151, 413]"] ;
586 -> 650 ;
651 [label="X[18] <= 0.5\ngini = 0.4984\nsamples = 53\nvalue = [28, 25]"] ;
650 -> 651 ;
652 [label="X[20] <= 0.5\ngini = 0.32\nsamples = 5\nvalue = [1, 4]"] ;
651 -> 652 ;
653 [label="gini = 0.0\nsamples = 1\nvalue = [0, 1]"] ;
652 -> 653 ;
654 [label="gini = 0.375\nsamples = 4\nvalue = [1, 3]"] ;
652 -> 654 ;
655 [label="X[21] <= 2.5\ngini = 0.4922\nsamples = 48\nvalue = [27, 21]"] ;
651 -> 655 ;
656 [label="gini = 0.5\nsamples = 2\nvalue = [1, 1]"] ;
655 -> 656 ;
657 [label="gini = 0.4915\nsamples = 46\nvalue = [26, 20]"] ;
655 -> 657 ;
658 [label="X[21] <= 2.5\ngini = 0.3655\nsamples = 511\nvalue = [123, 388]"] ;
650 -> 658 ;
659 [label="X[18] <= 0.5\ngini = 0.3953\nsamples = 354\nvalue = [96, 258]"] ;
658 -> 659 ;
660 [label="X[20] <= 0.5\ngini = 0.4905\nsamples = 58\nvalue = [33, 25]"] ;
659 -> 660 ;
661 [label="gini = 0.0\nsamples = 1\nvalue = [0, 1]"] ;
660 -> 661 ;
662 [label="gini = 0.4875\nsamples = 57\nvalue = [33, 24]"] ;
660 -> 662 ;
663 [label="X[13] <= 1.5\ngini = 0.3351\nsamples = 296\nvalue = [63, 233]"] ;
659 -> 663 ;
664 [label="gini = 0.4444\nsamples = 24\nvalue = [8, 16]"] ;
663 -> 664 ;
665 [label="gini = 0.3226\nsamples = 272\nvalue = [55, 217]"] ;
663 -> 665 ;
666 [label="X[3] <= 0.5\ngini = 0.2848\nsamples = 157\nvalue = [27, 130]"] ;
658 -> 666 ;
667 [label="X[20] <= 0.5\ngini = 0.4875\nsamples = 19\nvalue = [8, 11]"] ;
666 -> 667 ;
668 [label="gini = 0.0\nsamples = 2\nvalue = [0, 2]"] ;
667 -> 668 ;
669 [label="gini = 0.4983\nsamples = 17\nvalue = [8, 9]"] ;
667 -> 669 ;
670 [label="X[13] <= 1.5\ngini = 0.2375\nsamples = 138\nvalue = [19, 119]"] ;
666 -> 670 ;
671 [label="gini = 0.1207\nsamples = 31\nvalue = [2, 29]"] ;
670 -> 671 ;
672 [label="gini = 0.2673\nsamples = 107\nvalue = [17, 90]"] ;
670 -> 672 ;
673 [label="X[18] <= 0.5\ngini = 0.5\nsamples = 476\nvalue = [237, 239]"] ;
585 -> 673 ;
674 [label="X[21] <= 2.5\ngini = 0.4581\nsamples = 197\nvalue = [127, 70]"] ;
673 -> 674 ;
675 [label="X[24] <= 0.5\ngini = 0.4088\nsamples = 178\nvalue = [127, 51]"] ;
674 -> 675 ;
676 [label="X[3] <= 0.5\ngini = 0.4783\nsamples = 48\nvalue = [19, 29]"] ;
675 -> 676 ;
677 [label="gini = 0.0\nsamples = 2\nvalue = [2, 0]"] ;
676 -> 677 ;
678 [label="X[0] <= 0.5\ngini = 0.466\nsamples = 46\nvalue = [17, 29]"] ;
676 -> 678 ;
679 [label="gini = 0.0\nsamples = 6\nvalue = [0, 6]"] ;
678 -> 679 ;
680 [label="X[21] <= 0.5\ngini = 0.4888\nsamples = 40\nvalue = [17, 23]"] ;
678 -> 680 ;
681 [label="gini = 0.4567\nsamples = 17\nvalue = [6, 11]"] ;
680 -> 681 ;
682 [label="gini = 0.4991\nsamples = 23\nvalue = [11, 12]"] ;
680 -> 682 ;
683 [label="X[21] <= 0.5\ngini = 0.2812\nsamples = 130\nvalue = [108, 22]"] ;
675 -> 683 ;
684 [label="X[0] <= 0.5\ngini = 0.2112\nsamples = 75\nvalue = [66, 9]"] ;
683 -> 684 ;
685 [label="gini = 0.0\nsamples = 12\nvalue = [12, 0]"] ;
684 -> 685 ;
686 [label="X[11] <= 0.5\ngini = 0.2449\nsamples = 63\nvalue = [54, 9]"] ;
684 -> 686 ;
687 [label="gini = 0.1244\nsamples = 15\nvalue = [14, 1]"] ;
686 -> 687 ;
688 [label="gini = 0.2778\nsamples = 48\nvalue = [40, 8]"] ;
686 -> 688 ;
689 [label="X[21] <= 1.5\ngini = 0.361\nsamples = 55\nvalue = [42, 13]"] ;
683 -> 689 ;
690 [label="gini = 0.3702\nsamples = 53\nvalue = [40, 13]"] ;
689 -> 690 ;
691 [label="gini = 0.0\nsamples = 2\nvalue = [2, 0]"] ;
689 -> 691 ;
692 [label="gini = 0.0\nsamples = 19\nvalue = [0, 19]"] ;
674 -> 692 ;
693 [label="X[21] <= 1.5\ngini = 0.4776\nsamples = 279\nvalue = [110, 169]"] ;
673 -> 693 ;
694 [label="X[21] <= 0.5\ngini = 0.4615\nsamples = 263\nvalue = [95, 168]"] ;
693 -> 694 ;
695 [label="X[24] <= 0.5\ngini = 0.4675\nsamples = 196\nvalue = [73, 123]"] ;
694 -> 695 ;
696 [label="gini = 0.4321\nsamples = 19\nvalue = [6, 13]"] ;
695 -> 696 ;
697 [label="X[19] <= 0.5\ngini = 0.4705\nsamples = 177\nvalue = [67, 110]"] ;
695 -> 697 ;
698 [label="gini = 0.5\nsamples = 4\nvalue = [2, 2]"] ;
697 -> 698 ;
699 [label="gini = 0.4691\nsamples = 173\nvalue = [65, 108]"] ;
697 -> 699 ;
700 [label="gini = 0.4411\nsamples = 67\nvalue = [22, 45]"] ;
694 -> 700 ;
701 [label="X[24] <= 0.5\ngini = 0.1172\nsamples = 16\nvalue = [15, 1]"] ;
693 -> 701 ;
702 [label="gini = 0.0\nsamples = 4\nvalue = [4, 0]"] ;
701 -> 702 ;
703 [label="gini = 0.1528\nsamples = 12\nvalue = [11, 1]"] ;
701 -> 703 ;
704 [label="X[13] <= 1.5\ngini = 0.4088\nsamples = 13856\nvalue = [3969, 9887]"] ;
584 -> 704 ;
705 [label="X[19] <= 0.5\ngini = 0.4822\nsamples = 2105\nvalue = [854, 1251]"] ;
704 -> 705 ;
706 [label="gini = 0.0\nsamples = 205\nvalue = [0, 205]"] ;
705 -> 706 ;
707 [label="X[21] <= 1.5\ngini = 0.4949\nsamples = 1900\nvalue = [854, 1046]"] ;
705 -> 707 ;
708 [label="X[18] <= 0.5\ngini = 0.4884\nsamples = 1616\nvalue = [685, 931]"] ;
707 -> 708 ;
709 [label="X[21] <= 0.5\ngini = 0.4991\nsamples = 585\nvalue = [280, 305]"] ;
708 -> 709 ;
710 [label="X[20] <= 0.5\ngini = 0.4898\nsamples = 385\nvalue = [165, 220]"] ;
709 -> 710 ;
711 [label="gini = 0.0\nsamples = 1\nvalue = [1, 0]"] ;
710 -> 711 ;
712 [label="gini = 0.4894\nsamples = 384\nvalue = [164, 220]"] ;
710 -> 712 ;
713 [label="gini = 0.4888\nsamples = 200\nvalue = [115, 85]"] ;
709 -> 713 ;
714 [label="X[24] <= 0.5\ngini = 0.477\nsamples = 1031\nvalue = [405, 626]"] ;
708 -> 714 ;
715 [label="gini = 0.375\nsamples = 4\nvalue = [3, 1]"] ;
714 -> 715 ;
716 [label="X[21] <= 0.5\ngini = 0.4764\nsamples = 1027\nvalue = [402, 625]"] ;
714 -> 716 ;
717 [label="gini = 0.4749\nsamples = 719\nvalue = [279, 440]"] ;
716 -> 717 ;
718 [label="gini = 0.4797\nsamples = 308\nvalue = [123, 185]"] ;
716 -> 718 ;
719 [label="X[21] <= 2.5\ngini = 0.4819\nsamples = 284\nvalue = [169, 115]"] ;
707 -> 719 ;
720 [label="X[18] <= 0.5\ngini = 0.4263\nsamples = 237\nvalue = [164, 73]"] ;
719 -> 720 ;
721 [label="X[24] <= 0.5\ngini = 0.3457\nsamples = 9\nvalue = [2, 7]"] ;
720 -> 721 ;
722 [label="gini = 0.4444\nsamples = 3\nvalue = [1, 2]"] ;
721 -> 722 ;
723 [label="gini = 0.2778\nsamples = 6\nvalue = [1, 5]"] ;
721 -> 723 ;
724 [label="gini = 0.4114\nsamples = 228\nvalue = [162, 66]"] ;
720 -> 724 ;
725 [label="X[21] <= 6.5\ngini = 0.1901\nsamples = 47\nvalue = [5, 42]"] ;
719 -> 725 ;
726 [label="X[21] <= 4.0\ngini = 0.1761\nsamples = 41\nvalue = [4, 37]"] ;
725 -> 726 ;
727 [label="gini = 0.1841\nsamples = 39\nvalue = [4, 35]"] ;
726 -> 727 ;
728 [label="gini = 0.0\nsamples = 2\nvalue = [0, 2]"] ;
726 -> 728 ;
729 [label="gini = 0.2778\nsamples = 6\nvalue = [1, 5]"] ;
725 -> 729 ;
730 [label="X[13] <= 2.5\ngini = 0.3896\nsamples = 11751\nvalue = [3115, 8636]"] ;
704 -> 730 ;
731 [label="X[11] <= 0.5\ngini = 0.3815\nsamples = 10726\nvalue = [2752, 7974]"] ;
730 -> 731 ;
732 [label="X[19] <= 0.5\ngini = 0.0713\nsamples = 108\nvalue = [4, 104]"] ;
731 -> 732 ;
733 [label="X[21] <= 0.5\ngini = 0.0374\nsamples = 105\nvalue = [2, 103]"] ;
732 -> 733 ;
734 [label="gini = 0.0849\nsamples = 45\nvalue = [2, 43]"] ;
733 -> 734 ;
735 [label="gini = 0.0\nsamples = 60\nvalue = [0, 60]"] ;
733 -> 735 ;
736 [label="gini = 0.4444\nsamples = 3\nvalue = [2, 1]"] ;
732 -> 736 ;
737 [label="X[21] <= 1.5\ngini = 0.3837\nsamples = 10618\nvalue = [2748, 7870]"] ;
731 -> 737 ;
738 [label="X[24] <= 0.5\ngini = 0.3931\nsamples = 8880\nvalue = [2387, 6493]"] ;
737 -> 738 ;
739 [label="X[18] <= 0.5\ngini = 0.4722\nsamples = 123\nvalue = [76, 47]"] ;
738 -> 739 ;
740 [label="gini = 0.4567\nsamples = 68\nvalue = [44, 24]"] ;
739 -> 740 ;
741 [label="gini = 0.4866\nsamples = 55\nvalue = [32, 23]"] ;
739 -> 741 ;
742 [label="X[19] <= 0.5\ngini = 0.3885\nsamples = 8757\nvalue = [2311, 6446]"] ;
738 -> 742 ;
743 [label="X[21] <= 0.5\ngini = 0.4638\nsamples = 156\nvalue = [57, 99]"] ;
742 -> 743 ;
744 [label="X[18] <= 0.5\ngini = 0.4961\nsamples = 125\nvalue = [57, 68]"] ;
743 -> 744 ;
745 [label="X[20] <= 0.5\ngini = 0.4998\nsamples = 110\nvalue = [54, 56]"] ;
744 -> 745 ;
746 [label="gini = 0.0\nsamples = 3\nvalue = [0, 3]"] ;
745 -> 746 ;
747 [label="gini = 0.5\nsamples = 107\nvalue = [54, 53]"] ;
745 -> 747 ;
748 [label="gini = 0.32\nsamples = 15\nvalue = [3, 12]"] ;
744 -> 748 ;
749 [label="gini = 0.0\nsamples = 31\nvalue = [0, 31]"] ;
743 -> 749 ;
750 [label="X[0] <= 0.5\ngini = 0.3868\nsamples = 8601\nvalue = [2254, 6347]"] ;
742 -> 750 ;
751 [label="gini = 0.32\nsamples = 5\nvalue = [4, 1]"] ;
750 -> 751 ;
752 [label="X[18] <= 0.5\ngini = 0.3865\nsamples = 8596\nvalue = [2250, 6346]"] ;
750 -> 752 ;
753 [label="X[21] <= 0.5\ngini = 0.3965\nsamples = 4059\nvalue = [1106, 2953]"] ;
752 -> 753 ;
754 [label="X[20] <= 0.5\ngini = 0.3777\nsamples = 2881\nvalue = [728, 2153]"] ;
753 -> 754 ;
755 [label="gini = 0.3107\nsamples = 26\nvalue = [5, 21]"] ;
754 -> 755 ;
756 [label="gini = 0.3782\nsamples = 2855\nvalue = [723, 2132]"] ;
754 -> 756 ;
757 [label="X[20] <= 0.5\ngini = 0.4358\nsamples = 1178\nvalue = [378, 800]"] ;
753 -> 757 ;
758 [label="gini = 0.0\nsamples = 2\nvalue = [0, 2]"] ;
757 -> 758 ;
759 [label="gini = 0.4362\nsamples = 1176\nvalue = [378, 798]"] ;
757 -> 759 ;
760 [label="X[21] <= 0.5\ngini = 0.3771\nsamples = 4537\nvalue = [1144, 3393]"] ;
752 -> 760 ;
761 [label="X[20] <= 0.5\ngini = 0.3849\nsamples = 3472\nvalue = [903, 2569]"] ;
760 -> 761 ;
762 [label="gini = 0.375\nsamples = 8\nvalue = [2, 6]"] ;
761 -> 762 ;
763 [label="gini = 0.3849\nsamples = 3464\nvalue = [901, 2563]"] ;
761 -> 763 ;
764 [label="X[20] <= 0.5\ngini = 0.3502\nsamples = 1065\nvalue = [241, 824]"] ;
760 -> 764 ;
765 [label="gini = 0.0\nsamples = 2\nvalue = [0, 2]"] ;
764 -> 765 ;
766 [label="gini = 0.3506\nsamples = 1063\nvalue = [241, 822]"] ;
764 -> 766 ;
767 [label="X[21] <= 2.5\ngini = 0.3291\nsamples = 1738\nvalue = [361, 1377]"] ;
737 -> 767 ;
768 [label="X[18] <= 0.5\ngini = 0.3039\nsamples = 1220\nvalue = [228, 992]"] ;
767 -> 768 ;
769 [label="X[24] <= 0.5\ngini = 0.3512\nsamples = 625\nvalue = [142, 483]"] ;
768 -> 769 ;
770 [label="X[20] <= 0.5\ngini = 0.1884\nsamples = 114\nvalue = [12, 102]"] ;
769 -> 770 ;
771 [label="gini = 0.0\nsamples = 2\nvalue = [0, 2]"] ;
770 -> 771 ;
772 [label="gini = 0.1913\nsamples = 112\nvalue = [12, 100]"] ;
770 -> 772 ;
773 [label="X[20] <= 0.5\ngini = 0.3794\nsamples = 511\nvalue = [130, 381]"] ;
769 -> 773 ;
774 [label="gini = 0.0\nsamples = 4\nvalue = [0, 4]"] ;
773 -> 774 ;
775 [label="X[19] <= 0.5\ngini = 0.3813\nsamples = 507\nvalue = [130, 377]"] ;
773 -> 775 ;
776 [label="gini = 0.4244\nsamples = 36\nvalue = [11, 25]"] ;
775 -> 776 ;
777 [label="gini = 0.3776\nsamples = 471\nvalue = [119, 352]"] ;
775 -> 777 ;
778 [label="X[19] <= 0.5\ngini = 0.2473\nsamples = 595\nvalue = [86, 509]"] ;
768 -> 778 ;
779 [label="gini = 0.2778\nsamples = 6\nvalue = [1, 5]"] ;
778 -> 779 ;
780 [label="gini = 0.247\nsamples = 589\nvalue = [85, 504]"] ;
778 -> 780 ;
781 [label="X[21] <= 4.0\ngini = 0.3817\nsamples = 518\nvalue = [133, 385]"] ;
767 -> 781 ;
782 [label="X[24] <= 0.5\ngini = 0.4555\nsamples = 228\nvalue = [80, 148]"] ;
781 -> 782 ;
783 [label="gini = 0.4956\nsamples = 53\nvalue = [24, 29]"] ;
782 -> 783 ;
784 [label="X[18] <= 0.5\ngini = 0.4352\nsamples = 175\nvalue = [56, 119]"] ;
782 -> 784 ;
785 [label="gini = 0.4628\nsamples = 77\nvalue = [28, 49]"] ;
784 -> 785 ;
786 [label="X[19] <= 0.5\ngini = 0.4082\nsamples = 98\nvalue = [28, 70]"] ;
784 -> 786 ;
787 [label="gini = 0.32\nsamples = 5\nvalue = [1, 4]"] ;
786 -> 787 ;
788 [label="gini = 0.4121\nsamples = 93\nvalue = [27, 66]"] ;
786 -> 788 ;
789 [label="X[21] <= 6.0\ngini = 0.2987\nsamples = 290\nvalue = [53, 237]"] ;
781 -> 789 ;
790 [label="gini = 0.1377\nsamples = 121\nvalue = [9, 112]"] ;
789 -> 790 ;
791 [label="X[21] <= 7.5\ngini = 0.3851\nsamples = 169\nvalue = [44, 125]"] ;
789 -> 791 ;
792 [label="gini = 0.1913\nsamples = 28\nvalue = [25, 3]"] ;
791 -> 792 ;
793 [label="X[18] <= 0.5\ngini = 0.2332\nsamples = 141\nvalue = [19, 122]"] ;
791 -> 793 ;
794 [label="gini = 0.32\nsamples = 10\nvalue = [2, 8]"] ;
793 -> 794 ;
795 [label="gini = 0.2259\nsamples = 131\nvalue = [17, 114]"] ;
793 -> 795 ;
796 [label="X[21] <= 0.5\ngini = 0.4575\nsamples = 1025\nvalue = [363, 662]"] ;
730 -> 796 ;
797 [label="X[18] <= 0.5\ngini = 0.485\nsamples = 624\nvalue = [258, 366]"] ;
796 -> 797 ;
798 [label="X[24] <= 0.5\ngini = 0.4969\nsamples = 319\nvalue = [147, 172]"] ;
797 -> 798 ;
799 [label="gini = 0.0\nsamples = 14\nvalue = [0, 14]"] ;
798 -> 799 ;
800 [label="X[20] <= 0.5\ngini = 0.4993\nsamples = 305\nvalue = [147, 158]"] ;
798 -> 800 ;
801 [label="gini = 0.0\nsamples = 2\nvalue = [0, 2]"] ;
800 -> 801 ;
802 [label="X[11] <= 0.5\ngini = 0.4996\nsamples = 303\nvalue = [147, 156]"] ;
800 -> 802 ;
803 [label="gini = 0.4444\nsamples = 3\nvalue = [1, 2]"] ;
802 -> 803 ;
804 [label="X[19] <= 0.5\ngini = 0.4996\nsamples = 300\nvalue = [146, 154]"] ;
802 -> 804 ;
805 [label="gini = 0.4444\nsamples = 3\nvalue = [2, 1]"] ;
804 -> 805 ;
806 [label="gini = 0.4995\nsamples = 297\nvalue = [144, 153]"] ;
804 -> 806 ;
807 [label="X[24] <= 0.5\ngini = 0.463\nsamples = 305\nvalue = [111, 194]"] ;
797 -> 807 ;
808 [label="gini = 0.0\nsamples = 12\nvalue = [12, 0]"] ;
807 -> 808 ;
809 [label="X[0] <= 0.5\ngini = 0.4474\nsamples = 293\nvalue = [99, 194]"] ;
807 -> 809 ;
810 [label="gini = 0.0\nsamples = 3\nvalue = [3, 0]"] ;
809 -> 810 ;
811 [label="gini = 0.4429\nsamples = 290\nvalue = [96, 194]"] ;
809 -> 811 ;
812 [label="X[18] <= 0.5\ngini = 0.3866\nsamples = 401\nvalue = [105, 296]"] ;
796 -> 812 ;
813 [label="X[21] <= 2.5\ngini = 0.459\nsamples = 213\nvalue = [76, 137]"] ;
812 -> 813 ;
814 [label="X[21] <= 1.5\ngini = 0.4665\nsamples = 197\nvalue = [73, 124]"] ;
813 -> 814 ;
815 [label="gini = 0.4487\nsamples = 153\nvalue = [52, 101]"] ;
814 -> 815 ;
816 [label="X[24] <= 0.5\ngini = 0.499\nsamples = 44\nvalue = [21, 23]"] ;
814 -> 816 ;
817 [label="gini = 0.4444\nsamples = 3\nvalue = [1, 2]"] ;
816 -> 817 ;
818 [label="gini = 0.4997\nsamples = 41\nvalue = [20, 21]"] ;
816 -> 818 ;
819 [label="X[21] <= 4.0\ngini = 0.3047\nsamples = 16\nvalue = [3, 13]"] ;
813 -> 819 ;
820 [label="gini = 0.0\nsamples = 6\nvalue = [0, 6]"] ;
819 -> 820 ;
821 [label="gini = 0.42\nsamples = 10\nvalue = [3, 7]"] ;
819 -> 821 ;
822 [label="X[21] <= 2.5\ngini = 0.2609\nsamples = 188\nvalue = [29, 159]"] ;
812 -> 822 ;
823 [label="X[21] <= 1.5\ngini = 0.1985\nsamples = 170\nvalue = [19, 151]"] ;
822 -> 823 ;
824 [label="gini = 0.1663\nsamples = 142\nvalue = [13, 129]"] ;
823 -> 824 ;
825 [label="gini = 0.3367\nsamples = 28\nvalue = [6, 22]"] ;
823 -> 825 ;
826 [label="X[24] <= 0.5\ngini = 0.4938\nsamples = 18\nvalue = [10, 8]"] ;
822 -> 826 ;
827 [label="gini = 0.4688\nsamples = 8\nvalue = [5, 3]"] ;
826 -> 827 ;
828 [label="gini = 0.5\nsamples = 10\nvalue = [5, 5]"] ;
826 -> 828 ;
}